331 200
double 0.05393952 0.121590465 0.0060232375 0.05479116 0.0861856 0.023716826 -0.055732824 -0.03992174 0.060988553 0.011941255 0.015523436 -0.12139354 0.13903677 0.17004263 -0.10295618 -0.06183694 0.02236779 -0.18270393 0.22193697 -0.07085557 -0.0034047505 -0.025490807 0.148232 -0.11960078 0.043035254 0.0071240994 -0.13977793 -0.13825044 0.41109 -0.36442068 0.054636773 0.08015725 0.22881836 -0.08285394 0.035216626 -0.06901609 -0.054472495 -0.007888754 0.2523692 0.04619243 0.15493782 -0.123462565 -0.17711113 0.2514688 -0.24522339 0.07720431 0.13218038 -0.17496686 -0.005106627 0.17132582 0.002732846 0.13441257 0.11520522 -0.013978991 0.12095319 0.16375841 0.19041698 0.070506126 0.029549055 0.15447055 -0.23085578 -0.16944419 0.3922735 -0.29528913 0.21094514 0.12033088 -0.13453567 0.03302911 0.22967955 0.41328523 0.1523122 0.019011032 -0.037869524 0.113624156 -0.15739705 0.105687104 -0.6952943 -0.4075937 -0.24180467 -0.007070166 0.12541546 0.11541177 -0.11525461 0.063046806 -0.10552005 0.085392736 -0.100174695 0.21332237 -0.04208269 0.035401497 0.38850436 -0.10177688 0.03550879 0.1410224 -0.09052815 -0.037079647 -0.3861054 -0.30052117 0.29785368 0.29766014 0.031087968 0.10989443 -0.108586594 0.29983267 0.58046573 0.2950398 0.08007268 -0.084373154 -0.079088174 -0.0123325605 0.07215235 -0.19544311 0.25753203 0.056873772 0.21257085 0.08651708 0.009388417 0.023870202 0.14170238 0.08608236 -0.00862013 0.15515724 0.18352126 0.031821508 0.22443448 -0.11491992 0.2534825 -0.018873917 0.055865485 0.1461711 0.17938444 -0.017114822 0.24324341 0.2010235 -0.18131784 0.258854 -0.20574373 0.19074002 -0.003753871 -0.1212022 0.11036339 -0.1015851 -0.10081742 -0.028709896 -0.006634895 0.041787565 -0.25720438 0.21530394 -0.1424724 -0.14140417 -0.23649126 0.15887462 0.083059 0.03990083 0.22970106 0.044343866 0.07359661 -0.10068862 -0.0745196 -0.006661951 0.1258478 0.11558646 -0.2877435 0.19972391 0.08884514 0.073104925 0.018623492 0.2137081 0.02761381 -0.21690577 -0.19677833 0.027292779 -0.10826172 -0.18101901 0.08000092 0.020189965 0.09168336 -0.031313147 -0.110339336 -0.13561442 -0.1280845 -0.09627361 0.19654725 -0.057483863 -0.08054342 -0.1604177 -0.1315874 0.33048174 -0.22032268 -0.07363849 0.22175217 0.003730789 0.07361095 0.073711544 0.12988096 0.1649213 0.07638666 -0.059735548 0.050181936 -0.35251188
deluxe 0.031293552 -0.040823422 -0.13465519 0.03651145 -0.3028607 0.033044197 -0.36050498 -0.08007722 -0.047423486 -0.12314809 0.2479783 -0.04296694 -0.028302696 0.13228926 0.052448545 -0.17288205 0.14698163 0.30932173 -0.09897703 -0.09711765 0.044440918 -0.055921856 -0.0787931 -0.16441144 -0.043040976 0.2269097 0.06654612 -0.10359625 -0.25686216 0.08795937 0.18203 0.10018337 -0.041062873 -0.18551059 -0.2240259 -0.20180024 -0.09975036 -0.23677328 0.16055743 -0.14963087 0.34607184 0.13148297 0.067201145 -0.1329966 -0.03544287 -0.023386199 0.13438079 -0.086670354 0.17761791 -0.23491152 -0.14586906 0.16369657 -0.046294257 -0.113029696 0.40552703 -0.009074949 -0.22204931 0.28430524 0.32669693 0.21469158 -0.09121913 0.17868887 0.16172968 -0.013189748 -0.102196194 0.31699687 -0.06868472 -0.013674418 -0.049993683 0.35572603 0.102395445 0.058837228 -0.18613279 -0.044672344 0.06000685 0.01952457 -0.33709642 0.05136067 0.0529484 -0.2809065 -0.11685142 0.12367219 -0.17801641 -0.00014823646 -0.28512776 0.14869653 0.13141151 0.11195957 0.18737255 0.14483902 0.16283475 -0.27847672 -0.11829954 0.0592626 0.30661592 0.057359073 -0.08571207 -0.2843759 -0.20106791 0.049300585 0.08587712 -0.058158495 -0.16764762 0.35144103 0.22809546 0.030273633 0.05121478 -0.08560102 0.094513915 -0.08250755 -0.2611272 -0.37122363 0.12922817 -0.035123885 0.038963012 -0.056723244 0.29593968 -0.009291228 -0.19556668 0.059921212 -0.1476527 -0.23617618 -0.27198455 0.15918808 -0.02872676 -0.19148186 -0.08927173 0.020333208 0.1844092 0.054223888 -0.3387638 0.20012754 0.26573825 -0.026693644 -0.008643989 -0.10640536 -0.30032605 0.0015190876 -0.21379602 0.089091256 -0.25212651 0.117468834 0.09688658 0.07753744 0.19449581 -0.30117956 0.1368398 0.27689174 0.023475483 0.12925845 0.0048477207 0.059172075 0.026500946 0.06471361 -0.191513 -0.03923543 -0.28938198 -0.16255604 0.26177025 0.2353602 0.017315198 0.39040074 -0.06729663 0.23751245 0.03220856 -0.15481223 -0.18356572 -0.3684128 -0.036540072 -0.22617126 0.18483211 -0.075872205 0.24204448 0.112588964 0.036382806 0.2174956 -0.03212022 -0.08647564 0.04488363 0.12195967 0.29226363 0.003582686 -0.046744883 0.19365907 0.2282701 0.25823918 -0.14649697 0.019674743 0.037148826 0.013758922 0.25712302 -0.15207362 0.12159509 -0.06216449 0.13459493 0.051775057 0.11294055 -0.13527653 0.077196084 0.17414181
suite -0.15150952 -0.04286871 0.211937 -0.29937226 -0.269631 -0.096207194 -0.29987568 -0.01772646 0.0242218 0.23056337 -0.16240393 0.03330723 0.2537391 0.08251986 -0.26984218 0.2548859 0.0636259 -0.0534003 -0.2997423 0.2029446 0.12704115 -0.015763545 -0.29716474 -0.03226706 -0.11860712 0.28069282 0.20929371 -0.18178937 0.09623802 -0.14165172 0.0044409973 -0.048071988 -0.11169935 -0.004710914 0.0054652984 -0.28082165 -0.35162276 -0.20451869 0.008948647 -0.13917369 0.30188742 -0.14734595 -0.114716806 -0.41228163 -0.41441295 0.0956927 -0.13764173 -0.22366169 0.3080987 -0.2118241 -0.3581954 0.1589563 0.48811716 -0.3724404 0.1977887 0.011982038 0.10741463 -0.053204797 0.28920168 -0.16143076 0.035281874 0.14526707 -0.009787691 -0.07644035 0.13835095 0.12629445 -0.25818387 0.121931665 0.24892779 0.19528781 0.29180375 -0.06964605 -0.16256519 -0.32401544 0.070114516 0.009315851 -0.47619605 -0.226865 0.07754315 -0.096762754 -0.09736594 -0.0039905785 0.26632458 0.37485576 -0.2514408 0.039887246 0.46477893 0.35396272 0.0768474 -0.14741898 0.5049245 0.029765233 0.10618479 -0.20744278 0.22331123 0.08762924 -0.116549715 -0.119492576 0.20459805 0.07783841 -0.017732166 -0.4138983 -0.20047455 0.44001183 0.43573102 0.42947334 -0.020997856 -0.056253314 0.014540408 -0.070294276 -0.3660962 -0.09763305 0.29940253 0.18263297 0.3391696 0.05048659 0.10608611 0.025074238 0.07847465 -0.041611712 -0.1638469 0.04086876 0.20131955 0.029428355 0.1194005 0.02573737 -0.14744478 0.16574681 0.18694727 -0.051668793 -0.19034748 -0.0023551397 0.3081277 -0.11191192 0.12802418 -0.12697177 0.17413105 0.08552331 0.043311574 0.012046817 -0.05830368 0.14867619 0.2081833 -0.45687437 0.03393651 0.06894274 0.13909397 -0.07823182 -0.35497397 -0.112227194 -0.07511125 0.2359373 -0.3054561 -0.25275648 0.17640632 -0.23888989 -0.14913116 0.2859053 0.047704685 -0.05242154 0.03928385 0.2465684 0.09954668 0.18439892 -0.016820055 -0.06126915 -0.27670622 0.05818683 0.019301014 -0.0419477 -0.35050416 -0.1274063 0.2999654 -0.13273987 0.062588945 0.010010165 -0.46099666 0.052456923 -0.026179869 0.2467576 0.1513663 0.059060164 0.24008918 0.094202906 0.095561124 0.11922126 0.0061975243 -0.3318616 0.028837094 0.054545265 0.11087633 -0.12859015 -0.0039050388 -0.25896275 0.31489673 -0.2579959 0.4615453 0.17048284 -0.12692785 0.18638812
twin -0.08157004 0.17885983 -0.14874825 -0.17814986 0.116454 0.093090534 0.020466156 -0.23224992 -0.11677852 -0.10728034 0.06548787 0.21060327 0.2376074 0.06791396 -0.056723174 -0.09147149 0.41313586 -0.043420114 0.018067842 -0.04462206 0.4342312 0.10479568 -0.32245103 -0.15008758 0.026377209 0.090944335 0.0059125447 -0.3048489 0.16599548 0.123883925 0.09276018 0.21460673 -0.02243438 0.008893852 0.03749727 -0.24231298 -0.13589127 0.14336309 0.18545972 0.055909246 0.22734492 0.010148347 -0.1022506 0.28667438 -0.104474284 0.19285071 0.121216215 -0.1521658 -0.14372846 0.08625852 -0.1157071 0.035607122 -0.09082605 -0.13027735 0.25280586 0.1984336 0.12566094 0.24664688 0.13121875 -0.12715088 -0.06994779 0.12967232 0.21569179 -0.4190124 0.02494241 0.13534667 0.17168684 -0.038368195 0.17432106 0.23672858 0.08927399 -0.08721616 0.07269394 0.040140066 0.15824646 -0.0029898582 -0.08902713 -0.3265767 -0.33893067 -0.13568603 0.2887894 0.04334939 0.15883525 -0.29292747 0.0828267 0.09843053 -0.11196815 0.4115013 -0.14622146 0.047121506 0.37253478 -0.19108325 0.059019595 -0.16989587 -0.17235 -0.16633114 -0.43706998 -0.14033927 0.14340869 -0.005824964 0.20218731 -0.18060239 -0.25431004 0.039180674 0.22507878 0.10956223 0.040977594 -0.082419135 -0.07542831 -0.09035179 -0.08348459 -0.53173226 0.21487597 -0.36313248 0.15823571 0.014291303 0.16301145 -0.14176194 0.15525469 0.23156784 0.036830828 -0.2041323 -0.11035382 0.052019194 0.2681592 -0.33378378 0.16206922 0.043383945 -0.004827503 0.22896722 0.06725198 0.09802831 0.13400026 0.08748666 -0.016431134 0.18534283 -0.17313555 -0.054955438 -0.2505001 -0.23540144 0.3235678 -0.20878805 -0.06943122 -0.12723671 -0.008176032 0.246581 -0.23092891 0.42548808 -0.1537997 0.10408192 -0.26932868 -0.09918438 -0.097537816 0.10971535 0.34973976 0.008608366 -0.09396442 0.15166403 -0.1542862 0.04268445 -0.0633382 0.37611455 -0.021780133 0.055411544 0.2011939 0.3352193 0.04871175 -0.028011417 0.2428074 -0.25428414 0.06655026 -0.3313406 -0.16943587 -0.14135665 -0.052396417 -0.019035295 0.17461583 -0.1213732 0.008258831 -0.13219354 -0.03361522 0.15576097 0.32181236 -0.0062284684 0.11903713 0.09518491 -0.16679458 0.0098859565 -0.034881447 -0.23316859 0.2536073 0.23930651 0.19100045 0.17321973 0.3454423 0.19675912 0.426203 -0.026064776 0.09688323 0.019067278
1 0.059155047 0.1475223 0.3021346 -0.31972307 -0.13032903 -0.02031677 -0.1843736 -0.21898055 0.06629737 -0.29197672 -0.06481812 0.119002946 -0.062361665 0.085788935 -0.36513928 0.286927 -0.030719113 -0.05678434 -0.025866717 0.16657245 0.22586693 -0.21746461 -0.29746926 -0.34545812 0.048057236 -0.09654754 -0.033557404 0.113062896 0.15157361 0.23107119 0.090735756 0.05866102 -0.12534927 0.15068936 0.5188153 -0.39278278 -0.26246363 0.09789534 -0.21151426 -0.11236599 0.10612496 -0.25275698 -0.23919556 0.10631547 -0.04888004 0.22437742 -0.27580616 -0.110050745 0.2531438 -0.18507807 -0.15161891 0.084569834 0.074146435 -0.15271987 0.24608247 -0.08015791 -0.2659745 0.16916803 0.10770264 -0.013226854 -0.1335176 -0.067013755 0.19590575 -0.11865533 0.020427085 0.2113784 -0.10379671 0.24930519 0.41022846 0.1448418 0.09593766 -0.0146138985 -0.0802332 -0.09298156 -0.18467885 -0.0691615 -0.28094336 -0.16461138 0.09205299 -0.045186292 0.08824823 0.03244299 -0.011132724 -0.024363644 0.035835955 -0.03302624 -0.25915566 0.1789585 0.007475791 -0.0019788693 0.021776868 -0.05264681 0.1903593 -0.037938867 -0.035116546 -0.16704598 0.22834581 -0.120453216 0.083451 0.005957749 0.023601487 -0.11763592 0.13161139 -0.05713017 0.33142063 -0.0024167444 0.055014543 0.061276484 0.09711766 0.26976755 0.20952524 -0.27327135 -0.15754727 -0.14302972 0.06394761 0.25004768 0.0025600658 0.19535974 -0.05290998 0.19649695 -0.03916401 -0.028868172 0.12041811 0.20441084 0.36879775 -0.38252014 -0.09828327 -0.14666258 0.10466273 0.04659625 -0.03173579 -0.03811153 0.086747736 -0.32022947 0.15895359 -0.15435807 0.021481637 -0.23936093 -0.23152386 0.06207109 -0.046961226 0.28081504 0.028227754 0.10405239 -0.09536568 0.5221632 -0.03251485 -0.10418435 -0.03342419 0.03929022 -0.0719125 -0.29848585 0.039506406 0.024834696 0.3803138 -0.39347085 -0.2472649 0.2595886 0.27543473 0.15593024 0.14344497 -0.0051876437 0.53499067 0.057550598 -0.04021691 0.11055661 0.30332306 0.11591268 0.40201768 -0.08798436 -0.1435707 0.029861104 0.12247297 -0.2239696 0.0021307059 0.07092864 -0.060269676 0.13292666 -0.038256567 -0.16718082 0.24180399 0.29766726 0.14828439 0.32576185 0.008962668 0.094405025 -0.039821744 -0.32639918 0.15265033 -0.28189188 0.07866745 0.0790914 -0.1599582 0.04141622 0.048190176 -0.048363473 0.46690664 -0.12957467 -0.11086073 0.13827933
superior 0.027654245 0.06477581 -0.41906688 -0.085788734 -0.14034873 0.07112191 -0.23894194 -0.084441915 0.4251171 -0.19025284 0.36679655 -0.16002572 0.12583852 0.045663174 0.16134109 -0.43730265 0.09508921 0.2245311 0.047491733 -0.045665383 0.19207667 -0.19957712 0.24276559 -0.19900768 -0.077042736 0.26653773 -0.024797387 -0.14771679 -0.30300176 0.26790494 0.07639008 -0.059555225 -0.15148087 -0.107194476 -0.18873627 -0.048791867 0.31114623 -0.0020218783 0.12039338 -0.20293337 0.23933649 0.0032610686 0.4974043 0.10891449 -0.13251913 -0.11588461 0.5060084 -0.28557917 0.23726007 -0.42422205 0.2252981 0.12360048 -0.032001916 0.22835484 0.446182 -0.17280829 -0.28711063 0.18872957 0.039258394 0.32388166 -0.20668739 0.035377007 0.1492178 -0.24258071 0.218362 0.3746177 0.34255552 -0.12811586 -0.053836547 0.3522322 -0.056413546 -0.18523072 0.06565294 -0.13093916 0.053260043 -0.06122416 0.024421811 0.17329575 -0.17122327 -0.110379115 0.074060276 0.005924026 -0.32538787 0.031584542 -0.43830687 0.28729922 -0.13987637 0.1579026 0.2785091 -0.003391589 0.43147486 -0.1300658 0.28047973 0.0055221855 -0.0077724624 0.010498534 0.011533295 -0.24182484 0.096179426 0.45310757 0.33657178 0.046634022 -0.1825793 0.16581637 0.06555723 -0.4038365 0.37125587 -0.10065161 -0.18028289 0.16311024 -0.04151642 -0.46170387 -0.16699377 0.11009499 -0.005503916 -0.098978594 0.08847053 -0.22078869 -0.16783996 0.056504607 0.0171564 -0.072404444 -0.20654581 0.114170656 0.24791539 -0.056726325 -0.30043226 0.01853545 0.27279347 0.096397 -0.23894905 0.07284234 0.25417683 0.027839173 -0.13612843 -0.11169874 -0.13378571 0.05839124 -0.029710034 -0.031705394 -0.21601993 0.33858514 -0.11070082 0.27821374 0.27758864 0.07202929 0.36678773 0.16596812 -0.16575456 0.30301854 -0.028010136 0.051749874 0.16311617 -0.11754385 -0.28033948 -0.1820677 -0.08357345 -0.119324036 0.13614382 0.11171353 -0.086944856 0.32322448 -0.1967504 0.23813134 0.23543356 0.03702509 -0.15867394 -0.61455667 -0.1460571 -0.58639187 0.16841066 0.027272612 -0.25017592 0.17113936 0.22435392 0.12511235 -0.09441786 0.19963646 0.23493941 0.07819251 -0.035544023 0.4111111 -0.026528886 0.4100049 -0.018102203 0.13966642 -0.09393842 0.12459364 -0.0063969456 0.12681252 0.44400522 -0.28337967 -0.087342545 0.09482567 0.2849257 0.23002565 0.007142827 -0.08330883 -0.010846094 0.08048794
king 0.118163265 0.103119135 0.08747204 -0.41345805 -0.20095052 -0.039551403 -0.117967054 0.0260615 0.32790217 -0.05612118 0.024273572 0.3307981 -0.17560221 0.29499614 -0.37317604 -0.17747179 -0.19806583 0.11972193 -0.30026716 -0.0015601696 0.15263698 0.22032876 -0.19414529 -0.3129699 -0.24934712 0.13695519 0.08808072 -0.1731772 -0.024921136 0.14951432 -0.18581125 0.26327494 -0.00063877396 -0.19957753 0.27832228 -0.0043314127 -0.15570708 -0.11311109 -0.22476727 -0.38934115 -0.14825757 -0.4355666 0.0020334441 -0.231249 -0.2753568 0.19491528 -0.066839404 -0.23935468 0.27253622 -0.093036674 -0.23581229 -0.10549387 0.00029395567 -0.57786345 0.2437603 -0.10193492 0.22635399 0.004089364 0.13909508 -0.2839004 0.03428443 0.0052663353 0.23094712 -0.013416617 0.39949602 0.11950844 -0.52464783 0.2760563 0.27607396 0.2486678 0.42544812 -0.2983056 0.03320568 -0.12637001 -0.15858269 -0.20944679 -0.3208831 -0.23464465 0.06896193 -0.12475988 0.22612569 0.011730391 0.2211491 -0.17463374 -0.26781327 -0.21817905 0.24855787 0.06742525 0.056287322 -0.05563372 0.19611713 -0.37443867 0.28344473 -0.2993719 0.15443487 -0.2530846 0.25380775 0.04153764 -0.0089374995 0.14393438 0.49182174 -0.14556009 0.041755687 0.17562446 0.40208155 0.13910872 0.31367573 -0.106525734 0.18700278 -0.12179531 -0.03942188 -0.030641919 0.021156423 -0.14933889 -0.0751863 0.28462994 0.023926472 0.043871768 -0.024283702 0.2366861 -0.21602128 -0.05449954 -0.18596509 0.05409731 -0.024989115 -0.42851946 0.11311164 0.27089065 0.4292659 0.29016495 0.18649806 -0.16121942 0.064410344 -0.24971911 0.03403305 -0.19687605 -0.24649772 -0.121000566 -0.31213266 -0.18855669 0.19407356 0.21305959 -0.1074226 0.35898066 -0.33292902 0.30407465 0.065774836 0.24964128 0.22903503 -0.1316801 -0.40761527 -0.31810686 -0.04990651 -0.21452917 0.16236646 -0.20588523 -0.03081587 0.07371261 -0.19970085 -0.036744367 0.17365468 0.010226858 0.51087546 -0.17039233 -0.106571555 0.5479724 0.014158174 -0.04085012 0.29470435 -0.13228336 -0.24334861 0.2359249 0.15474068 0.19013901 -0.11660905 -0.019945744 0.012259548 -0.19531049 -0.010246633 0.05970584 0.034350958 0.2759433 0.19387233 0.0409812 0.25698736 0.12279304 -0.2107214 -0.3043237 0.09935675 -0.24598104 0.404237 -0.020717125 -0.19545625 0.24371246 -0.00643587 -0.039582968 0.33881742 -0.08668345 0.13519907 0.21876936
2 -0.19382255 -0.053503994 0.034168407 0.014078718 0.15908621 -0.065871194 -0.34126532 -0.10782844 0.17670071 0.016186772 -0.28294897 0.036566053 -0.12526321 0.2542427 -0.16312246 -0.02595242 -0.0048017586 0.12766333 -0.20045535 0.06060727 0.084133044 -0.008598215 -0.020131512 0.08145339 0.16320686 0.10073619 -0.23106663 -0.21072732 -0.1242769 0.04143739 0.060173765 0.08396065 -0.26235393 0.09132118 0.2980943 0.048183184 -0.1441231 0.039350484 -0.18770932 -0.19697708 0.023241129 -0.40643308 -0.08006793 0.13385707 -0.26855624 0.23519965 -0.14613932 -0.28204727 0.1544718 -0.2674649 0.023407714 0.16100068 -0.15660174 0.100921385 0.19414537 -0.12795006 -0.37036106 0.22972901 0.17784418 0.11414687 -0.1987413 -0.12081941 0.31078413 -0.21465287 0.41300368 0.14460386 0.1452346 0.40210587 0.16500448 0.0894991 0.3097648 0.04015778 0.06862232 0.23755935 -0.21546413 0.1372269 -0.37562627 0.0057753255 0.0022736387 -0.12171252 -0.28723386 -0.018046776 -0.11639015 0.008916953 -0.043653086 -0.08656857 -0.18771861 -0.30207485 0.18967725 0.13782296 0.0040365364 -0.06709476 0.01156551 -0.083710276 -0.1130884 -0.17828879 0.21969517 -0.39108112 0.02361436 0.2968241 -0.10844372 -0.025483627 0.08771697 0.07460938 0.34292474 -0.21931574 0.1635476 0.19936755 -0.11958188 0.11924795 0.3673423 -0.24440545 -0.4203714 0.14843753 -0.18909767 0.05982687 0.14314891 0.25953835 -0.09175951 0.20723715 -0.105887905 -0.10505999 0.17254603 0.067322664 0.20093143 -0.45933315 -0.044788294 -0.22592284 0.059289567 0.2165925 -0.058635868 0.12853783 0.37826458 -0.18604848 -0.037614997 -0.06941043 -0.2282788 -0.2780539 -0.38498026 0.026168315 0.17376634 0.2901934 -0.2824731 0.30472824 -0.32419762 0.5265665 -0.06293063 -0.07247995 0.35627723 0.23657921 -0.21306325 -0.08656588 0.24950515 -0.43574128 0.05290623 -0.09922849 -0.03761665 -0.11406575 0.24544996 0.14380646 0.19766715 0.009504158 0.16374081 0.043862432 -0.058081463 -0.14140296 0.038986787 -0.32361373 0.35464844 -0.035137527 -0.019525487 0.18730292 0.0494683 -0.47759736 0.14151123 -0.16749737 -0.10064427 0.33541793 0.041495375 -0.0060392823 -0.056877445 0.36630344 -0.006738519 0.107563205 0.0844002 -0.25375548 -0.16707148 -0.02834717 0.195079 -0.20508732 -0.18522967 -0.27555826 -0.4090044 0.25413564 -0.19946985 -0.06846633 -0.1089785 -0.14865415 0.3123164 -0.07084142
family -0.21040095 0.06078011 0.042526223 0.24199337 0.21816827 -0.3102987 0.25598654 -0.4108087 0.03301604 0.10180346 0.052707415 -0.020172039 -0.14975978 -0.042546675 0.09554178 0.04839624 -0.14971144 -0.19948061 -0.01329399 0.17104636 0.3688878 -0.38316366 -0.111817285 -0.23799409 0.24188593 0.09039926 -0.15858921 -0.2530651 0.32886487 0.17889616 0.19050065 -0.24389519 0.25784442 0.39519295 0.28980777 -0.2453716 0.24527816 -0.17241663 -0.035651106 0.074000135 0.09339876 -0.29555124 -0.006826087 0.33956793 -0.108808756 0.18898217 0.081078574 -0.24988219 0.1492785 -0.58008355 -0.12051212 0.2168156 0.30441695 -0.15033157 0.2454492 -0.23873575 -0.20358445 0.24941106 0.14819147 0.16987257 -0.16419232 -0.4481545 0.5085862 -0.021259625 0.047559686 0.08673308 -0.16020939 0.14801115 -0.08728213 -0.19025995 0.3232597 0.1634176 0.43998924 0.123713486 0.04145958 0.089979924 -0.36721596 -0.26228848 0.06538828 0.2594191 -0.4248367 -0.036036108 0.0013473565 0.21340941 -0.13409716 0.15571462 -0.095897555 0.012192637 0.11472856 0.19705129 0.3469926 -0.054884043 -0.267926 -0.28531593 -0.18420242 0.14409047 -0.07405654 -0.4277787 0.23944019 0.2911777 0.19310473 0.061491493 0.06088634 0.49547333 -0.00080678693 0.23111585 0.33923826 0.17047481 -0.42163405 -0.021415666 0.018306637 0.22007534 0.0003228146 -0.16808392 0.1583192 0.40409485 -0.02519062 -0.047022473 -0.2305867 0.32690156 0.18366079 0.083143376 0.061913848 0.2284023 0.48706558 0.11797718 0.055756137 0.071320444 -0.3174089 0.24983782 0.34568754 0.4276643 0.2218619 -0.100675456 0.012900886 0.28538752 0.046704173 0.12930267 -0.10110782 0.13530535 -0.05997633 0.24481729 0.09621434 -0.22328937 0.2831916 0.0063411263 0.06382585 0.07368812 0.14633644 0.36627224 0.04863346 0.24941811 0.22046882 0.1868714 0.1503649 -0.2541846 0.50700676 -0.20858283 0.046528164 -0.12637143 0.06706776 0.16409592 -0.05400631 0.10164648 0.050064426 -0.059210993 0.046014 0.13463338 0.13496612 -0.05770295 -0.05055948 0.026398871 0.3881536 0.012977622 0.10328528 5.1154493e-05 -0.4303604 -0.2623099 -0.04615165 0.02612368 -0.027469976 0.102976754 0.12132092 0.02902442 0.036945302 0.1802475 0.3004463 -0.25718468 0.5834139 0.14661719 0.093366325 -0.3339951 0.32609436 0.15611546 0.09503046 0.08237113 0.3131161 0.38616902 -0.28837913 0.038698953
standard -0.15773393 -0.17612998 -0.14322618 -0.08895136 0.044693828 0.20809843 -0.09374427 -0.19492182 0.20009367 -0.12509847 0.36276725 0.08272843 -0.17491761 -0.034244273 -0.20394425 0.1306891 -0.10908602 -0.20655648 0.02994654 0.038756207 0.39370131 -0.18640965 -0.06261663 -0.3623558 -0.23815632 0.07691896 -0.22249782 -0.1791246 0.37221977 0.11135056 0.3395582 -0.17644352 -0.064024545 0.2192608 -0.035125174 -0.1323127 0.031882316 -0.20087557 0.21101695 -0.35162097 0.42720008 0.049078744 0.12774186 0.36093742 0.08634235 -0.076469086 0.14949445 0.19661137 0.20880577 -0.28461453 -0.07619972 0.3911452 0.22213224 0.3987751 0.2970639 -0.36667433 -0.48865658 0.38167477 0.29868296 0.12893662 -0.56156576 -0.15416238 0.32448095 -0.2629705 -0.39321557 0.26438007 0.48683274 0.22720416 0.08705468 0.3320208 -0.26499733 -0.022814017 0.033651758 0.0645374 0.04506807 0.19409601 -0.18064791 0.072674796 -0.14991704 0.10387914 -0.14780268 0.097336635 -0.57459706 0.46880558 -0.095124185 -0.09047182 0.039377335 -0.031812713 0.3981838 -0.062272947 0.2693461 -0.043896016 0.25923195 -0.026588593 0.11067041 -0.19506976 -0.046604786 -0.04157613 0.4468477 0.20717625 0.05992994 0.22052869 0.01691486 0.23831834 -0.21414784 -0.082074225 0.11900132 -0.17179626 -0.04250786 0.03563355 0.1351402 -0.51280457 -0.29101896 -0.22179809 0.03990379 0.027391922 -0.31552514 0.0827347 0.17005381 0.2856367 0.23728712 -0.080837265 -0.19436894 -0.06938233 0.28727853 -0.30077526 0.1043164 -0.26779407 0.1750013 0.096163146 0.04043283 -0.11676328 -0.15844327 0.1605217 0.21054533 0.11601783 0.17368262 0.094745636 0.2668065 0.030811623 -0.33446804 0.16720822 -0.13027923 0.21520722 0.5045117 -0.010947428 0.37797594 0.043361057 -0.18539955 0.020426158 0.08472883 0.12755919 0.0605645 0.10117499 -0.19238046 -0.19553415 -0.123053 0.0050848513 0.12115483 -0.12749715 0.16295017 0.3571275 0.32664707 0.43552783 0.041411314 -0.07535954 0.10110447 -0.3002967 -0.111244276 -0.21179332 0.076748915 0.1576583 0.034541156 -0.099514246 0.093414836 -0.04564194 -0.11440719 0.06455537 0.15088305 0.06940201 -0.047931027 0.15228896 0.11575239 0.10857011 0.16861103 0.12080278 0.03299587 -0.25541574 0.15079811 0.21132942 0.4197056 0.04327297 0.28694052 -0.06990263 -0.008841871 0.17232913 0.09619406 -0.09547182 -0.035971977 0.09276564
executive -0.016461987 0.0076195374 -0.072968744 -0.094202116 -0.21323232 -0.073429696 -0.39384094 -0.0652058 -0.18474074 0.10116336 -0.04201528 -0.08494677 -0.16781577 0.05372519 -0.29859525 -0.07513717 -0.006663095 0.17746085 0.082405575 0.3589257 0.19610453 0.1940121 -0.082615465 -0.531958 -0.18800372 0.10834877 0.2673148 0.1764292 -0.12096043 0.2652175 0.24223424 -0.075713694 0.053221222 0.246524 -0.19575603 0.029025797 0.059368387 -0.19932912 0.04648789 -0.20287646 0.40005532 -0.15682839 0.16991594 -0.21305256 -0.27316868 -0.028494107 0.22222519 -0.00040661055 0.14667 -0.35250425 -0.15064374 0.097931765 0.27785695 -0.17593327 0.054415952 0.11004978 -0.056241337 0.060324963 0.15058091 -0.053377192 -0.2110453 0.3161995 0.38437974 -0.05697435 0.10590036 0.049217053 0.0052548763 0.2307173 0.078728095 0.23506294 0.11007917 -0.12590654 0.09505387 -0.032459762 -0.106836386 -0.22545834 -0.047158167 -0.04444562 0.09404108 -0.1665465 0.0063117133 0.06750675 0.16003433 0.17252545 -0.16278294 0.099881224 -0.06481462 0.07075075 -0.075302646 -0.10861915 -0.03174551 0.25786048 0.27824166 -0.26884043 -0.16688298 -0.010429076 0.04630136 -0.20627695 0.14126304 0.016588258 0.40238246 0.3222021 0.10818673 0.6940735 0.22977981 0.06942268 0.17795905 -0.27488396 0.10821569 -0.085610464 0.12923679 -0.17217453 -0.12423278 0.24936366 0.05532022 -0.061815403 0.32493135 -0.32128373 0.014004188 0.24894814 -0.17701963 -0.19058192 -0.30106997 -0.14772663 0.008891298 0.08755376 -0.57832474 0.00078010606 0.12640783 -0.04484543 0.14657544 -0.078857094 -0.03851671 -0.12720191 -0.23198569 0.05698677 -0.1423234 -0.2344028 0.051671106 0.059598774 -0.33280963 0.3965494 0.1964936 -0.2656066 0.3431658 0.3892316 -0.05088475 0.022616943 -0.1002481 -0.05120461 -0.20210022 0.33232337 -0.048033945 0.08291655 -0.2940349 0.05200292 -0.14117762 -0.061725855 0.12665723 -0.10513884 0.14205797 0.26248488 -0.11775404 -0.20636944 -0.04973358 0.23307471 -0.31109557 -0.30042303 -0.35751912 -0.06604444 -0.3019555 -0.12513302 -0.034390725 -0.102202155 -0.19472823 0.29361546 -0.022509724 -0.07640168 0.31818336 0.42993897 -0.103646226 0.1588752 -0.15749347 0.1648282 0.15601085 0.41132465 0.15265147 -0.45702067 -0.053342823 -0.14604178 -0.13415651 -0.20779221 0.0050739166 -0.27731732 -0.044500303 -0.28336 0.1268448 -0.12032481 -0.12328038 0.3739791
city -0.0436768 0.065607905 0.00031062504 -0.22210455 -0.09008298 0.059727404 -0.21000081 0.21016294 0.30422172 0.58373624 0.00096042384 0.15308994 0.07071524 0.023842523 0.078474045 -0.07952207 0.14958991 0.51000655 -0.38570538 0.05063911 0.13424954 -0.008717903 -0.3117122 -0.09814061 0.20468743 0.11504086 -0.34483168 0.3236474 -0.020395435 0.09116247 0.24257702 -0.097427666 -0.3006311 0.076255955 0.26270494 -0.014360893 -0.29717255 -0.0155312 -0.1475536 -0.31084314 0.1465376 -0.04810765 -0.03969333 -0.21010216 -0.031027855 0.115002334 0.20800923 -0.31767884 -0.021855317 -0.15461014 0.1537075 -0.12114709 0.00640766 -0.22043636 -0.0301209 -0.10385177 0.04933055 0.0020422228 -0.17504252 0.24335 0.49302524 -0.17849174 0.11365895 -0.043326396 0.10817712 0.058230683 0.3693975 0.21966155 0.19874181 -0.21863794 0.48884714 -0.19923544 -0.17500292 -0.25519282 -0.3118017 -0.18526684 -0.80643487 -0.038043287 -0.28879583 -0.13076739 -0.35214785 0.43315777 0.12201792 -0.06782943 -0.0752756 -0.20170827 0.06408834 0.06842587 0.088886805 0.20345631 -0.43554282 -0.2361238 0.2037403 0.07230147 0.34698597 -0.016254969 0.17110549 -0.7815117 -0.028967693 0.44157553 0.04192101 -0.3847007 0.20833223 0.2758934 0.19614851 0.05982496 0.16259688 -0.04450033 -0.27840227 -0.13936923 0.0350713 0.08041992 -0.22368711 0.38253123 0.05207952 0.18883069 0.18537457 -0.16124345 0.22533293 0.029355371 -0.27752408 -0.16236402 0.12719165 -0.28087765 -0.2607899 -0.577684 0.13408683 0.09395781 0.38736486 -0.29028457 -0.19791956 0.12054545 0.13066386 -0.39806738 -0.0046786703 -0.29094213 -0.23726201 -0.030831585 0.2209319 0.2141696 0.068078145 -0.007868819 -0.12701048 -0.34637335 -0.23335794 -0.26068136 -0.41690218 0.3309243 0.3756722 0.19860433 0.096822046 -0.00734349 0.32468784 -0.49299347 -0.33697113 -0.08305698 0.20000231 -0.06658041 0.35163707 -0.035203785 0.14951502 0.021257123 0.3749887 -0.24343994 -0.057424586 -0.07034097 -0.25487062 0.19442275 0.013661019 0.21323806 0.08049647 -0.054372914 0.17858095 -0.26181135 -0.22213611 -0.07560998 -0.09026962 -0.07423111 0.11037954 0.04435335 -0.035501137 0.08758944 0.07546894 0.09881511 0.23072134 0.21079212 0.2180616 -0.13757214 0.14077343 -0.36195678 -0.02649957 -0.065160945 -0.23160577 0.24905787 0.37422684 0.12588999 0.2410141 0.062120706 0.2875774 -0.039570674
premier 0.011659188 0.03934995 -0.14157248 -0.17926249 -0.16118567 0.106446974 -0.4259018 -0.37379953 -0.06710469 -0.11390896 0.27422073 0.18876359 0.17922246 0.49582878 -0.31249171 -0.2716834 0.16585004 -0.0090749925 0.23902935 0.017963428 0.2743175 0.26341295 0.23536365 0.09239542 -0.08442928 0.34981105 0.42367634 -0.09196389 -0.22170506 0.18867882 0.07807827 -0.025726497 -0.10231178 0.34531862 -0.25534067 -0.11561787 0.42516646 0.040988468 0.2568065 0.105627574 0.53503203 -0.20957159 -0.08694228 0.15173674 0.13877708 -0.2257849 0.3895904 -0.016572999 0.20396192 -0.478849 -0.011478847 0.35728326 0.53743124 -0.19352677 -0.072988056 -0.3489753 0.07437619 0.100594565 0.17643937 0.14277658 -0.2555375 0.30898124 0.34813538 -0.42166758 0.11128642 0.48572475 0.08859744 0.0048003057 0.6836118 0.60072064 0.12021675 0.104231775 0.11635337 -0.14832151 0.11834816 -0.075659625 -0.34067476 0.14481726 -0.46593642 0.080765344 0.24702929 0.08487818 0.11745412 0.00035424953 -0.009964638 0.11656838 0.23254457 -0.13752043 0.08313904 -0.25227082 0.4173116 -0.08578487 0.2721472 -0.26156098 -0.045377206 -0.09414107 0.0014149116 0.10171459 0.24490881 0.45420152 0.3556867 0.14809519 -0.15626872 0.2529876 0.1711904 0.31893772 0.22733143 0.1519538 0.22833508 -0.46609104 -0.20070384 -0.29692778 -0.2281298 -0.1203208 -0.11601168 -0.32922024 -0.022656387 -0.14724723 -0.3988076 -0.4846576 0.06279555 -0.15078156 -0.34080726 0.31428134 0.19922695 -0.01881054 -0.13657935 0.22113504 0.077381425 -0.26740432 0.1272615 -0.016368374 -0.011971186 -0.09443547 0.12706245 -0.17927627 -0.0387882 0.37791693 0.25223154 0.09717627 -0.33008873 0.35824454 -0.40218237 0.023670176 -0.061451085 0.3046839 -0.22272554 -0.14449875 -0.058974624 -0.05917274 -0.37010154 0.14385045 0.11366491 0.13559897 -0.1204434 0.106397666 -0.29905117 0.294774 0.015100032 -0.019903518 0.04463944 0.12511818 0.14906162 0.03240312 -0.06268425 -0.09384873 0.12906222 -0.27674332 -0.32894182 -0.4281518 -0.33474052 -0.24842657 -0.32614034 0.076718 -0.1252543 0.14112873 0.28518713 0.49959105 0.08338034 0.53495055 0.081166856 0.060515314 -0.11199243 -0.118039176 -0.11852035 0.37991294 -0.047935493 0.18112944 0.13692753 -0.021014966 0.4324134 0.25488645 0.36903003 -0.09180395 0.03295798 -0.3693231 0.16832839 -0.22638391 0.4808667 0.29870164
studio -0.37310606 0.11625227 0.2869719 -0.30723214 0.2135716 0.08778378 -0.4062882 0.103441514 -0.0048296563 -0.20663759 -0.041122586 -0.2594659 0.08843165 0.26292533 -0.2508243 -0.023167327 -0.06976831 0.003915237 0.051688593 -0.44691533 0.4658305 0.1337567 -0.24194609 -0.113450855 0.11544369 -0.01113723 0.009906762 0.0310784 0.22614993 0.024009073 0.37676787 -0.25406066 -0.17315257 0.23944695 0.20317477 -0.1448463 -0.13538417 0.08507422 -0.038544625 -0.21294323 0.34530374 -0.29261398 -0.17419313 -0.5037026 0.17683057 -0.20176825 -0.1209466 -0.11672134 0.07228971 0.074440196 0.104877815 0.010716865 0.22345212 -0.40240365 -0.08745713 -0.08625732 -0.2565115 -0.026535787 0.27985743 0.37854642 -0.6218746 -0.10729997 0.15130632 -0.21695563 0.026652772 0.18609785 0.12935294 0.3622994 0.32396376 0.5395679 -0.25570625 -0.113184854 -0.28821072 0.15073635 -0.109339096 0.1546703 -0.3841977 0.015196336 -0.22304377 0.51978576 -0.0983095 0.13911167 -0.4779258 -0.03129255 -0.2289513 0.30976635 0.21489026 -0.3188794 0.28119275 -0.013014882 -0.049809765 -0.0838399 0.50606436 0.027272759 0.003808188 0.15819693 -0.0248648 -0.12171879 0.46899903 -0.034573708 0.4025087 0.11305849 0.34562376 0.117490515 0.5757354 0.26913 0.08498991 -0.25218448 0.22376767 0.015752401 0.2570775 -0.33201358 -0.10482298 -0.06278741 -0.28971335 -0.38067448 0.06821485 0.31627792 -0.06369288 -0.26127213 -0.19632018 -0.24014167 0.1769978 0.01328328 -0.0029091476 -0.46281403 -0.3944602 0.09760099 0.015426626 -0.014234158 -0.18871514 0.09941485 -0.1184402 0.1998746 -0.014249876 0.31916067 0.0582922 -0.011017601 0.38854995 -0.436236 -0.19633788 0.052958764 -0.049363088 -0.058505848 0.09137847 0.4575618 -0.25962847 0.06110435 -0.48485297 -0.24443987 -0.050860524 -0.014363207 0.20438991 0.31661314 0.09800079 -0.38346207 0.08206838 0.14848524 0.013922678 0.1775319 -0.24264807 -0.25515544 0.28088194 0.09954526 -0.22146139 0.07169067 0.07288326 0.14137562 0.121013105 -0.33300573 -0.036636576 0.24355978 0.041061513 -0.30233654 0.26771992 0.19016112 0.21653382 0.20069091 0.16219705 0.0716856 0.096300684 0.09076022 -0.042947434 -0.082657136 0.01746139 -0.060119465 0.09779477 -0.045029536 -0.08725204 -0.22844164 0.14302115 0.28053358 0.30530807 -0.30132115 0.055035267 -0.19108099 0.22076263 -0.052751467 0.3004645 0.40643436
club 0.23615623 0.1359482 0.092784666 -0.0062219165 -0.12152868 -0.27516556 -0.36957905 -0.15194824 0.03585308 0.20981602 -0.06337939 0.17087628 0.2730189 0.52204514 -0.6371765 0.12003543 0.54909086 0.24333586 -0.04292602 -0.34012997 0.09398674 -0.17125162 -0.22549203 0.0009222715 -0.17722377 -0.15321438 0.6104813 -0.041769356 -0.31354538 0.6927687 0.10284445 0.47462848 0.031603463 0.3538289 0.029792264 0.04796031 -0.016567029 0.01498395 0.26158363 -0.6276589 0.41925097 -0.44379815 0.046018723 0.14446847 -0.04297546 0.28196374 0.22030436 -0.3568759 -0.07651921 -0.38119838 -0.30876252 0.30534443 0.42964616 -0.024040174 -0.20218815 0.23337556 0.053856 0.29759806 0.3228401 0.3424331 -0.27516147 0.44104627 0.3959634 -0.12561975 0.27998582 0.28230911 0.151118 0.32776707 0.20434856 -0.022581097 0.1133849 -0.233136 -0.06406441 0.37521982 -0.024094507 -0.09756752 -0.74180835 -0.053850103 -0.19194521 0.30745423 0.37569922 0.18028718 0.458291 0.03238326 0.17932196 -0.039878875 0.24526507 0.106901966 -0.43448818 -0.05092873 -0.06628037 -0.027885022 -0.14794923 -0.055504348 0.033759393 0.3576227 -0.2679524 0.06818279 0.062336847 0.1525015 0.06254457 -0.6373055 -0.22199279 0.46854588 0.49531585 0.8109502 0.29744986 0.09098621 0.10117393 0.45421448 0.088450976 -0.45358977 -0.33700198 -0.22701965 -0.1948516 0.012292848 -0.16272102 -0.5474165 0.34990686 -0.023808114 -0.04663144 -0.23770456 0.10412263 -0.12435427 0.015098367 -0.24330388 -0.15167734 -0.07769826 0.0070349025 -0.06527405 0.08943122 -0.02470977 0.0599923 0.050575845 0.18639411 0.30383313 0.12183967 -0.1668112 -0.30533195 -0.13068546 0.15000303 0.24429902 -0.53562576 -0.05293443 -0.049687926 -0.010621609 -0.5094574 0.05330853 -0.052947663 -0.20963141 0.043873247 0.28692627 0.09362683 0.15079397 0.0034579397 0.53658134 -0.13894172 0.28786147 -0.4666647 0.04450806 0.1343781 0.48230666 0.1378829 0.16232587 -0.047845226 -0.22491956 0.019720154 -0.17346346 -0.2735706 0.28873697 -0.14251207 -0.3443764 -0.0746774 0.07780511 -0.3166685 0.63100433 -0.03258903 -0.14488652 0.19660981 0.12621732 0.043980442 0.025744034 0.4638685 -0.16687433 0.49340367 0.23683456 -0.11673131 -0.03782651 -0.44826356 0.018674769 -0.5965152 0.75161934 0.37614784 -0.12785734 -0.26366776 0.11510658 0.27711877 -0.08791289 0.18831147 0.46927798
window 0.37948054 0.13053603 0.39819366 -0.1802827 -0.013814887 -0.32481292 0.0934443 0.13999404 0.2130806 0.3345598 -0.18652852 -0.16605332 -0.22524053 0.63843155 -0.2413791 -0.26964805 0.14592978 -0.21664634 0.004653914 -0.22009677 -0.11553109 0.13933928 0.35100746 -0.16090429 0.45266673 0.092402846 0.15118386 0.12074442 0.20776688 -0.14339338 -0.25631508 -0.25166634 -0.044565387 0.03161323 0.20583563 -0.3954731 -0.023638852 0.2754965 0.4505411 -0.154042 -0.33139798 0.02160209 0.512022 0.12089276 0.35807762 -0.22771215 0.39584336 -0.53696877 0.10935139 -0.27936587 -0.010898738 0.044628814 -0.1208719 0.053723484 0.7046219 -0.13372682 0.061719976 0.28854075 0.05405358 0.013176977 -0.08546985 -0.04567824 -0.14222588 -0.31550574 0.2556397 0.32320002 -0.0600381 -0.38716257 -0.13063452 -0.11460586 -0.032151263 0.06619513 -0.122966714 0.6267895 -0.23836364 -0.1365957 -0.24679019 -0.007199571 -0.26336628 0.37741017 -0.15202944 0.09806042 0.13898513 -0.21165133 -0.047705397 -0.25117448 -0.18024586 -0.025187144 0.3217111 0.4076694 -0.078230456 -0.41959628 -0.07911667 0.60405767 -0.16985533 0.061638087 -0.2557506 -0.22850591 -0.087600835 0.50818676 0.40547207 -0.14440654 0.27494517 0.058607675 0.38938746 -0.104399286 0.5077809 0.5458461 -0.21979178 -0.061370607 -0.07047549 -0.08973751 -0.6657104 -0.31662565 0.25083536 -0.05683172 -0.21712668 0.08960797 -0.16735752 -0.07497311 0.34611678 -0.16706564 0.18575473 0.0045987335 0.24895099 -0.14432889 -0.2177527 0.39646214 0.015314342 0.27400026 -0.02626852 0.032545403 -0.16628656 0.3381526 -0.43257204 0.1476523 -0.08609401 0.27345243 0.28809816 0.021153552 0.2218263 0.18247288 -0.2721113 0.33382675 0.37790126 -0.22409242 -0.3417201 -0.079135075 0.32027212 0.23661923 0.16844888 -0.112886935 0.33294976 0.5217301 0.1363587 -0.079218514 0.20144303 0.017885884 -0.027473541 0.038981304 0.5556615 0.121878035 0.14822671 -0.27863932 0.21949731 -0.107953705 -0.16700387 0.08203038 -0.09325507 0.19201212 0.31970587 -0.1094349 0.06566356 0.13636085 -0.039963767 0.14568524 0.10815071 0.19566464 -0.23891714 0.23537244 -0.033426516 0.21630105 0.3650818 -0.19643259 -0.046623748 0.43613645 -0.021610908 0.37216976 0.055076994 -0.09170446 0.27190456 0.11449205 -0.06370051 0.12087875 0.3810007 0.33753714 0.6514928 0.03857063 0.007372849 0.006937084
queen 0.28285086 -0.037638932 -0.15829727 0.055691376 0.11341523 0.07422635 -0.27635512 0.13602152 0.31460458 -0.02459956 -0.06426572 0.15298735 -0.10621539 0.37331805 -0.34721515 0.15985158 -0.13453528 -0.37076613 -0.4068453 0.05340128 0.19381213 0.34213066 -0.34338868 -0.65967757 -0.1405793 0.10337852 0.05275785 -0.08288297 0.17191382 0.2155448 -0.30908453 0.4371456 -0.0581481 -0.18280357 0.12566023 -0.038088255 -0.3414532 -0.3580207 0.086699285 -0.80525905 -0.14614852 -0.36837396 0.21276921 0.22219808 0.0075150467 -0.013903269 -0.001307846 -0.35480273 -0.03644608 0.10471305 -0.11843755 -0.21497665 -0.2727039 0.08843232 0.35039487 0.080341384 0.16286485 0.100595675 0.39507335 -0.11304814 -0.17705216 -0.09885618 0.35646498 0.007966384 0.07893826 -0.065969914 -0.10970938 0.05666234 -0.21715155 -0.057824496 0.13018703 -0.07882157 -0.09683889 0.40512913 -0.19551332 0.11875332 -0.15946545 0.04975832 -0.22638968 -0.09959071 0.13795836 0.15257412 -0.042432908 0.003186128 0.11604197 -0.3563925 0.13956426 -0.034908127 -0.22053854 0.18346013 0.11050204 -0.41519946 0.36723542 0.066260435 0.09971378 -0.43849027 0.16705145 0.13468035 0.07463425 0.39959103 0.38928866 0.05667926 -0.10981674 0.34077197 0.22544052 0.017654194 0.40138915 0.19322892 0.30806467 0.09411039 0.22626914 -0.35631776 -0.3315959 -0.52412564 -0.08926985 0.061005756 -0.47108495 0.2660628 0.005351332 0.5070199 -0.0855654 -0.24317122 -0.007913781 0.17911331 0.08088288 -0.49008304 0.29701817 0.12349984 0.3310264 0.31180617 0.14039804 -0.2758521 -0.2702931 0.30000597 0.16847046 0.17270477 -0.20328325 -0.34532738 -0.157274 -0.38235715 0.3494296 -0.02644479 -0.5239986 0.48301575 0.051432554 0.48796025 -0.012901898 0.060614835 0.1886488 -0.16981545 -0.33283138 -0.24594812 -0.33384904 0.12502974 0.34876877 -0.10576597 0.10127107 -0.3275068 -0.42248806 -0.08965929 0.55589885 -0.22445565 0.27408087 0.055192217 0.13420299 0.1576222 0.10419207 -0.018729389 0.048916813 -0.30732048 -0.02013046 0.18326283 0.23416214 0.08831496 0.20073038 -0.27672666 -0.24171777 0.06367142 0.3539071 0.017189087 -0.24027994 0.19949295 0.34428617 -0.2492309 0.45626202 -0.2098406 0.25360742 -0.23637886 0.1291156 -0.19696546 0.61331886 -0.16799913 0.099940754 0.16799109 0.16129075 0.4257438 0.40634868 -0.26346052 0.34207585 0.017999658
bath -0.015074855 -0.07126715 0.47408843 -0.59399813 0.36534625 0.12306389 0.39045554 -0.06914932 0.6373913 0.33718216 -0.06827423 0.28019696 -0.54841584 0.35339588 -0.46849027 0.062269665 -0.011278987 -0.37163928 -0.010332342 0.20750119 0.33616757 0.04963843 0.29489222 -0.5939765 0.012259376 0.18918292 0.1668988 -0.021408867 -0.036423136 -0.09777484 -0.20396021 -0.39732864 -0.19117895 0.33735928 0.57743585 0.002808692 -0.14065322 0.17701665 0.39805406 -0.1565842 -0.05381038 -0.21367209 0.1557858 0.23704566 -0.11548265 0.19119725 0.22143927 -0.24012397 0.4891974 -0.0992398 -0.04063758 0.6843865 0.14285016 -0.25632054 0.4421848 -0.34344038 -0.038557652 0.32449386 -0.20946872 0.2492308 -0.62449247 -0.12914373 0.41479343 0.11767902 0.20493138 0.35768485 0.2219528 -0.09133813 -0.016190488 0.25472718 0.21712019 0.36255416 -0.07058981 0.15149678 0.42950714 0.09982759 -0.535455 0.041125055 0.0866664 0.5286838 -0.06389284 0.39867452 -0.09446816 -0.16184661 -0.4248042 0.122476816 -0.30278292 -0.026762515 0.128047 -0.31720826 0.21093051 -0.45588353 -0.2695724 0.20130028 -0.13303746 0.19792417 -0.01575057 -0.24163885 -0.124821946 0.28863338 0.04090236 0.10108115 0.25794503 -0.0014124236 0.10493207 -0.34872612 0.28427723 0.41624343 -0.17724079 -0.09577673 0.1108069 -0.05542612 -0.31047893 -0.35513198 0.6662697 0.012092299 0.2551513 0.1568252 0.5420577 -0.13258 0.77237445 0.117095985 0.13293593 -0.47650573 0.0076599265 -0.27828905 -0.23532471 0.49734896 0.08487128 0.40462536 0.30268776 0.17171586 -0.0821512 0.04035938 -0.68658113 -0.08309863 -0.6202274 -0.1672862 0.35329238 -0.18092595 -0.09513654 -0.53286356 -0.22563435 0.08526443 0.2252109 0.016241409 0.10882812 0.25017223 0.3871379 0.23139457 0.044293772 -0.1275777 0.8004254 -0.011374387 -0.2378128 -0.3371789 0.44578412 -0.06256963 -0.47942656 -0.15577194 -0.067157954 0.45343214 -0.15161097 -0.0096108755 0.44345963 0.23741071 0.07578206 0.047563966 0.12992431 0.37293297 0.19212854 0.13434727 0.12557164 0.18615282 0.31379443 -0.19837987 0.16592304 0.05731882 0.080283016 0.19712444 0.07449875 0.12177567 0.43176907 0.034975823 -0.46611378 0.37409222 -0.03427336 -0.1500553 -0.018894909 0.14846233 -0.06923965 -0.24928495 0.40592045 0.1168776 0.056535315 -0.033202026 0.1363684 -0.012377439 0.05346772 0.54373527
triple -0.3148477 0.11870557 -0.06724965 -0.4492893 0.39844355 -0.33133295 -0.032433465 -0.0026638643 0.51272786 -0.032774176 0.36863616 0.38941112 0.22103086 0.002563257 0.11690115 -0.40071762 -0.032072183 -0.09810969 0.19097267 -0.3527093 0.3236401 0.2076013 -0.3183731 -0.10568497 -0.17018527 0.16818585 -0.42060432 -0.0919061 0.03740707 -0.15062904 -0.018449599 0.06893402 0.047905885 0.089596026 -0.15899773 0.036083367 -0.26435414 0.25310633 0.20755017 -0.15681161 -0.11078711 -0.14636753 -0.17662261 0.09631884 -0.06535881 0.49849194 0.2580859 -0.26939827 -0.21359864 -0.32826757 -0.096678086 0.11101336 -0.07013243 0.15022737 -0.11588365 -0.4074643 0.12802467 -0.037230045 0.012985113 -0.03842584 -0.012460653 -0.16692388 0.114035755 -0.3038857 0.034513038 0.0158171 0.27128553 0.32533413 0.22085927 -0.056417163 0.2447454 -0.06801334 -0.15673539 -0.21643266 -0.16520852 0.094703995 -0.5009803 -0.3687889 -0.34663692 -0.052304715 -0.155051 0.16185685 0.15125509 -0.074242145 0.28321186 0.13841717 0.4044222 0.10202777 0.11198921 0.08920117 0.37627408 -0.34482878 0.011125019 0.1249299 0.20874286 -0.08645802 -0.4640027 -0.72764754 0.14361832 0.5441945 0.3370414 -0.318619 -0.30009133 0.30936557 0.43689716 0.49534965 0.19649814 0.086485215 -0.23032959 -0.7159448 -0.06610631 0.15374047 0.08432672 -0.21890536 0.18254472 0.36408755 0.22072567 0.17099322 0.075647116 0.30196202 0.017684257 0.20426644 -0.38461918 -0.19076942 -0.10604594 -0.48784882 0.30999973 0.04882224 0.087820865 0.24124104 -0.049116988 0.4518114 0.16507733 -0.024871899 -0.2188872 0.51485014 -0.1176614 -0.18554515 0.019585792 0.16141903 -0.29177284 -0.21799682 -0.0674642 -0.3022274 0.1759984 -0.09405575 -0.15601255 0.26461843 0.23616272 0.3970948 0.03131761 -0.01089158 0.20577157 0.19084975 0.024343738 0.058125485 0.25474307 0.17958827 -0.2462326 0.0625446 0.044631124 0.08329154 0.20930365 0.10914303 0.22843796 -0.30243385 -0.2937805 -0.101847924 0.10634368 -0.5529497 -0.008093734 0.1621844 -0.3184496 -0.27380756 -0.1684371 0.2344313 -0.042242438 -0.12880886 0.2642229 -0.2230896 -0.005393447 0.35410446 0.39404303 0.2916859 -0.024010988 -0.008509045 -0.057291903 0.3456398 0.5375519 -0.021629084 0.3423726 -0.1687619 0.5525515 0.36425912 0.25723353 0.2583722 -0.3872783 0.3430573 -0.11880618 0.049791943
balcony 0.35155973 -0.02541169 0.11286705 -0.09686392 0.24160747 -0.14224069 -0.09301787 0.26926702 0.40425894 0.4630639 0.23197226 0.25736475 0.07766103 0.13604261 -0.5195652 0.02445487 0.05508267 0.39463222 0.19397806 0.23373462 -0.19128819 0.3252753 0.08947295 0.007755936 -0.18386026 -0.10054689 0.10423293 0.2696881 0.020238344 0.095524944 -0.17919841 -0.007767282 -0.02816286 -0.00036397425 0.12969299 -0.19469462 -0.25621036 -0.05548582 0.3893185 -0.33164454 -0.1084658 -0.2008847 0.42127433 -0.06974583 -0.22732234 0.12054719 0.28962725 -0.23761386 0.08900407 -0.5799974 0.011343718 0.18428895 0.27568486 0.23346512 0.16474417 -0.3158016 0.30783957 0.25870827 0.21102898 -0.005644336 0.18725404 0.0051733665 0.43248656 -0.40876266 0.22866242 0.3081114 -0.15294567 0.06351814 0.19611408 0.013043904 0.34599915 -0.23560266 -0.26087433 0.014564091 0.2612813 -0.20715527 -0.35499445 0.14160223 -0.1162127 0.25292012 -0.046004765 -0.2746723 0.22689953 -0.02672862 -0.022689411 -0.007302957 0.03606614 0.080872945 -0.193755 -0.20066564 0.07661638 0.020362992 0.06812806 0.19905344 -0.065320894 0.077093475 -0.014531728 -0.06714202 0.22233385 0.40326685 0.12774718 -0.28572053 -0.3500034 0.03888222 0.1826117 0.45712546 0.20793884 0.25882986 0.025388481 0.16681634 0.08194875 0.38537896 -0.3758532 0.17615159 -0.08044904 0.08314062 -0.33803597 0.19593523 -0.23564175 0.03278583 0.21812509 0.28030637 0.116444565 -0.29251027 0.0015680424 -0.5747041 0.087611064 0.052571718 0.23384593 -0.0185811 0.051539924 0.022934675 -0.004109416 -0.16374749 0.25415418 0.109278806 -0.037933256 -0.11469895 0.15648194 -0.06121122 -0.061846007 0.32538414 -0.078080095 0.1821192 0.23611127 -0.08769014 -0.168534 -0.3093338 -0.036744405 0.19286245 -0.044360433 -0.09979794 0.05705858 0.06915621 -0.07388559 -0.17428827 -0.032015447 0.017054614 -0.23328139 -0.010201403 0.40526688 0.13416009 0.43774801 -0.17043033 0.119659156 -0.29191145 -0.23161918 -0.015567096 0.04221947 0.31591007 0.0012286415 0.053383123 0.39025208 0.29388642 0.061504778 0.06753096 -0.1027298 -0.2815182 0.33192053 0.62885535 -0.04330527 0.17288978 0.2875399 0.5343842 0.1837022 0.1451866 0.2945743 0.39516896 0.15280272 0.04784201 0.037678406 0.022183731 0.11544921 0.18362337 0.17187312 0.5553796 0.12703402 0.4977803 0.043079 0.27852446
shared 0.22122924 -0.099530384 0.28291062 -0.29578865 0.15029545 -0.005911076 0.07061578 0.24495183 0.089249104 0.38541242 -0.0018934973 0.37730363 -0.6353053 0.44654635 -0.23035914 0.26793456 -0.2472459 -0.398621 -0.25596896 0.09296009 0.27586943 0.120239645 0.1281803 -0.5149363 0.16551645 0.27511916 -0.17333573 -0.17118226 -0.110235564 0.105538405 0.08179033 -0.28226545 -0.070530206 0.2790961 0.18135038 -0.33524022 -0.26497483 -0.21721198 0.3159502 -0.09108117 0.03524455 0.086334236 0.13359621 0.40941706 0.27618957 -0.3200738 0.16858554 -0.29097375 0.055030145 0.14277478 -0.17708708 0.55432254 0.041716114 0.2755059 0.3055574 -0.5297244 -0.16245499 0.27169472 0.15375458 0.27257428 -0.37141076 0.25211358 0.2997676 0.14356709 0.2332076 0.39125398 0.22656257 0.23538849 0.14890346 -0.13000503 0.23944938 0.15245451 0.22914183 0.38847932 0.4808557 0.3128922 -0.7352962 0.10630234 -0.15529463 0.4604425 -0.43809032 0.5129458 -0.208446 -0.025030091 -0.05308558 -0.008872623 -0.34148103 0.14525801 -0.110885285 -0.1358834 0.29676324 -0.593093 0.15647276 0.37451646 -0.10515821 -0.13663864 -0.026523985 -0.48029807 0.12226433 0.5545834 -0.048160188 -0.12104552 0.068456165 0.25810814 0.24882552 -0.23490529 0.35953483 0.53057265 -0.18256709 0.30697665 0.0706943 -0.054630313 -0.2367068 -0.13019481 0.6911531 -0.25136232 0.028619723 0.5072698 0.1486761 0.11070941 0.51496017 -0.025237981 -0.15657772 -0.4012501 0.14196205 -0.118601605 -0.2881874 0.23259063 -0.07030703 0.2987347 -0.047483332 0.35510775 -0.16893189 0.006815396 -0.82354814 0.17503682 -0.033431813 -0.26735497 0.59077334 -0.04223774 0.13170941 -0.04864389 -0.1200573 -0.035238165 0.34260267 0.16030031 0.5176641 0.1107541 0.29771063 -0.016652381 -0.481797 0.120397106 0.3719702 -0.12478828 0.08110282 -0.25743228 0.57927936 -0.09772076 0.00912415 -0.28266215 0.26414803 0.21667959 0.13401589 0.38048103 -0.014812282 -0.03711097 -0.09741221 -0.1505784 0.22206965 0.07627149 0.5315969 0.12644076 0.23256171 -0.14054571 0.5877324 -0.10581452 -0.11741519 0.114479765 0.061404757 0.1591841 0.12066899 0.055386875 0.3102108 0.049456738 -0.4522983 0.37796772 -0.06630844 -0.2039632 0.28471306 -0.030034767 -0.35736674 -0.4402619 0.03546267 -0.074556455 -0.0924055 -0.13697323 -0.07394694 -0.23600148 -0.45283037 0.5709982
grand 0.047177844 0.34068608 0.24528134 -0.04378283 -0.10176095 -0.25947395 0.10754385 -0.3274038 0.43215314 -0.09243505 0.048607353 0.14427285 -0.06635648 0.11314024 0.03250481 -0.18839355 0.09484759 0.19170202 -0.1750749 -0.10024742 0.06459732 0.0126865255 -0.22416003 0.07702248 0.03086545 -0.10848406 0.29870564 -0.36187008 -0.06609359 0.27172777 -0.03603808 0.39656204 -0.07236837 0.06846409 -0.16636245 -0.030037463 0.176779 -0.3200988 -0.20889702 -0.083917744 0.19122668 -0.13570803 0.25575736 0.34372696 0.061367482 0.060439207 0.25965485 -0.13340408 0.1432913 -0.21632677 0.24236315 0.0614071 -0.050561342 -0.3898947 0.060321562 -0.02235722 -0.2828636 -0.13676432 -0.28078943 0.19241513 -0.14538798 0.33747607 0.47951043 0.12555172 0.5924746 0.06957231 0.0111885 -0.057328098 -0.00573773 0.25826323 0.1367769 -0.042515025 0.41926196 0.11240786 -0.14760973 -0.20748487 -0.22600107 0.29426718 0.017635051 0.15706116 0.06390251 0.079792835 0.29401466 0.10447558 -0.21589562 0.04581277 -0.11332822 0.27027154 0.16822919 0.037505813 0.4193406 0.15758613 -0.14769676 -0.0300289 0.26224846 0.26641902 0.069016375 0.028485589 -0.0102559775 0.2538345 0.39274585 -0.6129241 -0.28580907 0.13100971 0.09844872 0.24878925 0.31364292 0.18781029 -0.3035319 0.14178641 0.0011493581 -0.38545388 0.22779089 0.18186699 0.072765686 -0.042288635 0.13128635 -0.16068284 -0.018685116 -0.07771496 0.28880194 -0.5616316 -0.16002753 0.23314844 0.35760868 0.35505375 0.08555545 0.13847624 -0.12729982 -0.16984846 0.1176436 -0.024553875 -0.1734978 0.27515197 -0.14959556 0.07615627 0.051420126 0.123339064 -0.30897784 0.047079444 0.19761269 0.4572623 -0.20676465 0.19672845 -0.36158785 0.0051006414 0.13719344 0.43599233 0.05404199 -0.04642678 0.094592676 -0.19431911 0.03313273 0.051216338 -0.27693167 0.14671986 -0.06102842 -0.023178797 -0.025778709 0.18995987 0.40859345 0.37672257 0.1325419 0.016052192 0.042284444 0.209446 0.10577061 -0.16605045 -0.05951068 -0.23144996 -0.11589946 -0.2779845 0.042844903 0.33135447 0.14454408 0.1471217 -0.2702099 0.44776013 0.21105632 -0.008178672 -0.033396002 0.30631098 -0.1264201 0.046026498 0.18841647 0.38874272 0.0016293451 0.22850329 0.08995021 0.278641 0.21928218 -0.032882772 -0.080463834 0.19627786 -0.33980966 0.08653748 0.15575506 0.020286655 -0.124893904 0.04202573
private -0.2608462 -0.16835472 0.55854505 -0.20922391 0.109126985 0.027318055 0.012291621 -0.044402957 0.30426666 -0.047740743 -0.039004143 0.4289744 -0.4587411 0.46925762 -0.36805508 -0.076552525 -0.3010164 -0.3201295 -0.18137409 0.035379134 0.3086612 -0.005622313 -0.28207767 -0.04391651 0.08875592 0.3580616 0.32576907 -0.11901595 0.040096927 0.2375991 0.15583223 -0.4723076 0.3723186 0.014449468 0.20516065 0.006852401 0.22291152 -0.2756904 0.1614918 -0.21655661 -0.020166855 -0.15722388 -0.011387267 0.21593913 0.21368705 0.20838635 0.062708445 0.0016806305 0.4358211 0.1255117 -0.37322015 0.25860023 -0.1514556 -0.105983995 0.08859914 -0.624274 0.024456542 0.45124674 0.11889986 0.38998866 -0.24866539 -0.28814176 0.40573463 -0.096305035 0.26710284 0.25776714 -0.49619824 0.46047246 -0.23426811 0.28977135 0.3366195 0.5736212 0.073696874 0.15084332 0.14617236 -0.0044048238 -0.45752695 0.050746564 0.079822086 0.42911586 -0.16042952 0.55548906 0.29338074 -0.059053373 0.043984707 0.4292779 -0.059396703 0.059070256 -0.087269835 -0.19733681 0.18189932 -0.27879795 0.059355084 -0.07223098 -0.26402804 0.055927396 -0.122046664 -0.16417591 0.19381186 0.22836107 0.278833 -0.021472912 0.08751144 0.3344155 0.009830411 -0.009917013 0.5071198 -0.036845855 0.10692286 -0.026811944 0.29999694 -0.070208296 0.13316543 -0.17290337 0.5014257 0.28859967 -0.007464306 0.2325281 0.23496683 -0.13089907 0.7941704 -0.031233389 -0.20474082 -0.42120537 0.119263425 -0.26047367 -0.05368211 0.10023849 -0.18082562 0.21733661 0.4079497 0.27267814 -0.14030527 -0.07300983 -0.38946536 -0.07856334 0.0022312615 0.16142753 0.42368937 0.10194538 -0.023458526 -0.08211472 -0.19387083 0.13039392 0.21935868 0.1305516 0.20170443 0.20200498 0.36234108 0.21986653 -0.16666558 -0.19791242 0.57616997 0.16553463 -0.21687043 -0.37790826 0.5955913 0.15970849 -0.31388336 -0.18687055 -0.025471369 0.39411703 -0.005066832 0.14073308 -0.17799889 0.09044695 0.023512863 -0.19986221 -0.10224049 0.09904591 -0.10715686 0.17259014 0.21752091 0.08535294 0.37584463 0.04614824 0.058952257 -0.12218493 -0.24049895 0.117218286 0.05657315 0.08712871 0.4189767 -0.114095815 -0.4693329 0.37044057 0.032286238 0.01982616 0.20390676 0.006890919 0.25827736 -0.18296109 0.47653696 -0.06792767 -0.48635468 -0.47606328 0.3768339 -0.16380031 -0.16376571 0.36164996
apartment -0.43230376 0.31239328 0.09993183 -0.3267627 0.42715755 0.004747074 0.20635426 -0.04590808 0.3103327 -0.17145365 -0.10631506 -0.17136146 0.2670602 0.17304406 0.09435239 0.07095046 -0.30303082 -0.11653752 -0.49233145 -0.03467434 0.38914815 -0.15023112 -0.2366519 -0.3601192 0.10934537 0.009466458 -0.16247633 -0.590361 0.14648132 -0.0815196 0.11649326 -0.37265983 0.15005676 0.39672637 0.53020287 -0.13971648 0.18183134 0.15322709 -0.23139842 -0.28597197 0.022525469 -0.18143572 -0.038395323 0.049563687 -0.018188113 0.2296369 0.3022273 -0.48589686 0.3444878 -0.38592175 -0.07284023 0.32996586 0.42747533 -0.55875355 0.025419392 -0.6228598 -0.30802482 -0.26860726 -0.23346005 -0.020193728 -0.34225896 -0.4043555 0.6931986 -0.06448908 0.40559644 -0.4278364 -0.04987791 0.060185187 0.43039563 0.3928227 0.27702677 0.086567886 0.4482479 0.06425396 -0.21886565 0.105440564 -0.43022758 -0.13825749 -0.08480902 0.6662776 -0.19959304 0.07768389 -0.24648349 0.26682204 -0.44166416 -0.15063119 -0.086671785 -0.15153039 -0.17118904 -0.049895592 0.6242709 -0.016981086 0.20836633 -0.39803106 0.2351977 0.18745741 0.04957061 -0.4218422 0.38361394 0.2224145 0.39382553 0.16113634 -0.11700613 0.4717036 0.19410767 0.22047497 0.32268834 0.07868718 -0.2309421 0.0915253 -0.002227079 0.03812336 0.17705801 -0.03776643 -0.00086109975 0.22599517 0.43209273 0.46184877 0.009699921 -0.022097489 0.015845507 -0.07191426 -0.31682628 0.43697053 0.64714885 -0.11332458 -0.30995908 0.32080692 -0.10446072 0.20949212 0.17201528 0.055545613 -0.016640048 -0.08078536 -0.18889435 0.13763165 0.50234896 -0.35911834 0.20395485 -0.3576508 0.122690625 0.48361224 0.079946496 -0.1307851 0.015838504 0.524793 0.28456077 -0.055148162 0.1395218 -0.07829132 -0.23390412 -0.022172661 0.33539942 -0.012160353 -0.22182925 -0.40652302 0.14927348 -0.09944152 -0.33126938 -0.18820864 0.21775894 0.13392115 0.32761428 0.11038608 -0.24040516 0.30579603 -0.19351575 0.061271872 0.27272516 -0.40196973 -0.3450962 0.03237448 0.3341677 -0.04483437 0.22127253 -0.20746957 -0.21319298 0.07959327 -0.010556752 0.3339869 0.09301543 0.11296459 -0.35050344 -0.060014725 -0.49942085 0.17252061 -0.0058081625 -0.2681851 0.34187642 0.30430868 0.24465276 0.099276416 0.30510253 0.2952378 -0.39418474 -0.07006878 0.39471355 0.4702875 0.049106043 -0.026022024
dormitory -0.51521593 0.06477248 0.11229685 -0.2485235 0.7720618 0.117842734 -0.14688897 -0.07337563 0.42026383 -0.005990732 -0.16186327 -0.12824671 -0.041413903 0.14484443 0.104178555 0.10263898 -0.39888406 -0.25024754 -0.23701848 0.111153685 0.11545536 0.13596837 -0.121648856 -0.36908093 0.07951679 0.2739665 -0.16831014 0.13370846 -0.09313984 0.09351584 -0.36228383 -0.34937236 -0.28826073 0.32700548 0.49489498 -0.07587775 -0.031134171 0.49598798 0.47371888 -0.50498 -0.10035818 -0.23052838 0.16823088 0.09352408 0.0940676 0.21924114 0.091444574 -0.44788384 -0.06488226 0.072763786 -0.10964853 0.25180262 0.08009852 -0.25123292 0.20733859 -0.33118176 0.2076959 0.47080368 0.21271318 0.36593807 -0.44781852 -0.28399655 0.019475523 -0.29672557 0.34872216 -0.2116369 0.5703411 0.43062478 0.3528792 -0.010224739 0.28405347 0.24311061 0.07366745 0.3428139 0.12658812 0.30003867 -0.7203699 -0.099004395 -0.35348096 0.5368428 -0.40439305 0.36627102 -0.06472476 0.025084106 -0.045638584 -0.037832238 -0.0028515675 0.31962636 -0.2994188 -0.19444999 0.1486354 -0.5563393 0.47958472 0.1252052 -0.3587562 0.30663434 0.020567846 -0.5524883 0.24040818 0.3568056 0.2077404 0.0015381705 -0.09678257 0.52124923 0.30816028 -0.28433955 0.36887988 0.4644187 0.23521674 0.31460333 0.5795992 -0.41761416 -0.5872307 -0.4623826 0.37245548 0.0800121 0.34664845 0.33909902 0.16463049 -0.058107685 0.16331139 -0.53112894 0.13594934 -0.33064467 0.12584455 -0.6054049 -0.44483355 0.37651682 -0.25904137 0.56692535 -0.035831194 0.3804395 -0.35989743 0.0039403117 -0.52073693 0.45732403 -0.124980636 -0.3277456 0.5953497 -0.30614048 -0.42786056 -0.5607097 0.061159953 0.17523377 0.20777047 0.4657784 0.25265536 0.2060175 0.43326244 0.37500674 -0.32220438 0.13344741 0.33018363 -0.27536386 -0.04499418 -0.32318828 0.5813663 0.00049923203 -0.2599812 -0.25941023 0.016633239 0.025054742 0.26518816 0.30925703 -0.4841816 0.121215746 0.13747248 -0.29819268 0.23707886 -0.26417392 0.50058514 0.15780023 -0.07793347 0.11641969 0.42089218 0.3172093 -0.29732043 0.07977843 0.036596537 0.26733074 0.0685285 0.14862037 0.22295816 -0.07997412 -0.08730845 0.09094418 -0.10145772 -0.041396175 0.23477909 0.09671013 -0.12745218 0.18745628 0.12890175 0.38147432 0.44136676 -0.01907778 0.70187366 -0.04769979 -0.08407968 0.6702069
single -0.10119903 0.33571827 0.06666826 -0.520718 0.12845545 0.020882143 -0.07683666 -0.06432543 0.09307659 -0.29668584 0.03426148 0.07626525 0.029609783 0.4016386 -0.15891656 0.24191427 -0.20304537 -0.34016794 -0.4328197 0.23216428 0.10287309 -0.05444 -0.4110406 -0.4091585 0.12660655 0.3402166 0.007883221 -0.2799697 0.23153344 -0.07916136 -0.2344566 -0.1397804 -0.2322769 0.15472464 0.50669175 -0.19170265 -0.15599409 -0.10190268 -0.13414672 -0.51672316 -0.052776016 -0.13278982 0.1459118 0.12176565 0.4568742 -0.38942254 0.061817132 -0.22849923 0.55929685 -0.03810093 -0.103152074 -0.005671431 0.2931744 -0.24454862 0.505121 -0.29121518 -0.32117578 0.118000634 0.12069532 -0.045437884 -0.026915472 -0.18497574 -0.35902223 -0.062550105 0.13127896 0.27806258 -0.071258195 -0.21758395 0.12281376 -0.0045338282 0.098762885 -0.08972176 -0.09506437 0.17250863 -0.42389178 0.2633452 -0.80186427 0.19856222 -0.084229715 0.0015076842 0.04298683 0.20472336 -0.19439678 0.059949752 0.14092866 -0.26527908 0.038865358 -0.14209643 0.1518623 0.3353109 -0.0433078 -0.096507005 0.31222978 -0.16976026 0.13988166 -0.050193477 -0.058089852 -0.07220953 0.06573337 0.55025285 0.5656313 0.06598283 -0.09087542 -0.03364213 0.14112888 -0.0925706 -0.0047699604 0.2551112 0.11122964 0.15528233 0.24601237 -0.30734426 -0.39664212 -0.57573444 0.004440501 0.09646464 0.03971272 0.43075514 -0.0767891 0.11616736 -0.052593827 -0.028883751 -0.18919519 -0.1028903 0.36876497 -0.21734871 -0.21293469 0.012523998 0.30119932 0.25891718 0.13930684 -0.12428387 -0.40147224 0.16638751 -0.0833168 -0.11194655 0.018766357 0.090791754 -0.078456886 -0.3711535 0.3368091 0.23415683 -0.10726521 0.47946745 -0.16142109 0.4155949 0.32425463 0.038878992 0.56251866 0.088401236 -0.21969333 -0.2726549 0.096995786 0.0845253 0.27073562 -0.1507524 -0.005644606 0.1700843 0.020727629 -0.2547264 -0.012816406 -0.091195375 0.46838275 0.2069845 -0.10980272 0.1423134 0.10185946 0.2681875 0.1936444 -0.015486888 0.17601083 0.14357963 0.42060962 -0.0025908288 0.29971588 -0.24010995 -0.09076005 0.20547849 -0.15105112 0.023247214 0.33012503 0.38449883 -0.040154073 0.06960263 0.11779604 -0.04774432 0.23109601 -0.2521015 0.50867796 -0.33507192 0.5067038 -0.078168444 0.020510012 0.48003265 0.0019090545 0.24084772 0.25410268 -0.26070458 0.26213524 0.061611664
premium 0.0040580262 -0.027919205 0.20644398 -0.40300465 -0.3794527 -0.24681695 0.060277916 0.06812052 0.2873537 0.023012344 -0.30585447 0.31852213 -0.27900457 0.073789924 -0.05915564 -0.034520853 0.42583576 -0.26634154 0.07712652 4.3310414e-05 0.36973232 0.039820936 -0.20520642 -0.04823883 -0.11042424 -0.19263202 -0.13005415 -0.12561877 -0.04412877 0.13197304 0.47362503 0.037029047 0.23960404 0.20187116 0.14921202 -0.3239562 0.19046365 -0.4185795 -0.34025878 -0.49156815 0.09583425 -0.41610742 0.13148388 0.06862598 -0.18439843 -0.16120423 0.4451836 0.22525029 0.73004574 -0.06631868 -0.11068819 -0.38337544 0.05874311 0.023034628 0.07202309 -0.18012355 0.08359738 0.06386072 0.14342523 0.763885 -0.20901111 0.08342205 0.56527275 0.250158 0.49011868 0.014403873 -0.3255203 0.12285946 0.05948125 0.30423662 0.23102498 -0.1024126 0.20699407 0.19861282 0.07252145 -0.03933705 -0.752871 0.36311525 0.35916096 -0.13960417 -0.20757651 0.022285845 -0.04343033 0.18972772 -0.29589862 0.22779454 -0.16278689 -0.10419127 -0.43183756 -0.17793292 0.3514433 0.2693411 -0.24332747 -0.13788751 -0.03632185 0.07387304 0.26378897 -0.02754537 0.3029189 0.21884288 0.18165293 -0.0829624 0.03762302 0.48063606 0.11718316 0.21213517 0.39563045 0.10102326 0.058301073 0.21129964 0.013216578 -0.10153872 0.20766453 -0.037003275 -0.08903466 0.14293389 0.21206158 0.07768408 0.035326537 0.12142984 0.10664905 0.13921191 0.05522006 0.0060054115 0.19126247 -0.083570376 0.33964524 -0.1273841 0.53081554 0.056535177 0.069989115 -0.34879333 -0.122418545 -0.4314001 -0.119917884 0.1929316 0.20992704 0.20474951 -0.005170625 0.3198225 0.010681246 0.22397478 -0.19271478 0.14948933 -0.29082 0.6672228 0.05294372 0.24338917 -0.10275605 0.08288669 0.030003486 -0.09892434 -0.1935893 -0.1003463 -0.4133676 -0.172522 -0.3325979 0.1904088 0.06746066 0.48792976 0.2004723 0.7398503 0.21201521 0.024885718 0.31561175 -0.12982933 -0.123359755 -0.18608549 -0.14422889 -0.14956091 -0.1950026 -0.20339605 0.015910374 -0.13184898 0.17174968 -0.27694464 0.35456625 0.255456 -0.046564937 0.3297167 -0.15034492 0.17561582 -0.16265815 0.09227559 0.13004586 0.7073963 0.12179806 -0.13655008 0.08285354 0.050796196 -0.18052067 0.1995704 -0.11947078 -0.13315818 -0.3668187 -0.119759634 0.26886111 -0.18267295 -0.12932125 -0.0074968124
breakfast 0.2853362 -0.12020805 0.16289331 -0.4518071 0.16003719 -0.3429082 0.4764 -0.5082935 -0.1176007 -0.17154472 0.103491895 0.3407041 0.19859722 0.5787402 0.0057070013 -0.55808526 -0.18890478 -0.08616325 0.27960688 -0.072341815 0.53548443 0.16310622 0.22735733 -0.08190483 0.038052134 0.300137 0.05011941 0.0006497536 -0.36215878 0.06472527 -0.17199276 0.28125364 -0.010056049 0.30817634 0.20310745 0.251521 0.30769506 -0.14618446 0.2358585 -0.38151893 -0.38150996 0.101440765 0.38033947 -0.14507657 -0.013582555 0.08557247 0.35960877 -0.024469174 0.13237582 -0.45424265 0.48082 0.5051597 0.07551208 -0.34445444 0.24080963 0.002154649 -0.4567348 0.28950846 -0.24118139 0.17272389 0.25399804 -0.29814732 0.19746141 -0.18670833 0.5840857 0.2751934 -0.3239561 -0.10563758 0.614325 -0.1279864 0.11152922 -0.55650216 0.3136012 0.25392723 0.14113417 -0.4122123 -0.298501 -0.20846792 -0.13903014 0.19797845 0.13851908 0.008296599 0.247316 -0.23608175 -0.4280324 -0.070913725 0.16133665 -0.29580995 0.0550336 0.035535306 0.45482725 0.042582564 -0.3132063 0.17577352 0.22070234 -0.1547875 -0.119044945 0.1324798 -0.37553445 -0.037257325 0.53930795 0.15198648 0.36011496 0.3443993 0.09419957 0.099728346 0.1756503 0.47020027 -0.16856608 0.25512296 -0.3194004 0.053678572 -0.016702011 -0.2692905 -0.11276863 -0.2669187 0.22925812 0.06880236 0.24219276 -0.045461524 0.13405304 -0.19533534 0.3993423 0.01840516 0.10759759 -0.21272513 -0.16044158 -0.061295267 0.4245988 0.027183957 -0.018926524 0.32187194 0.03721735 -0.021158604 -0.05724072 0.13216382 0.066382654 0.12313577 -0.26243186 0.14787081 0.08268564 0.55401725 0.13620928 0.07595186 0.013367315 0.10161329 -0.16387303 0.08716979 -0.41406858 -0.02510393 0.23044544 0.13371871 0.21700893 0.36367756 -0.18136987 -0.25297147 0.0040659164 -0.042892255 -0.23045833 -0.35601014 0.28567684 0.4344249 0.34628356 -0.38518006 0.112125896 0.38902763 0.24135622 -0.1616467 -0.055214517 -0.19503859 -0.09627375 0.1933361 0.1119224 0.5746668 0.050024066 -0.13768002 -0.07018392 0.27695048 0.5425845 0.2658964 0.18643554 0.4809223 0.4654935 -0.328551 -0.036935717 0.2141237 -0.4866233 -0.12248849 -0.0138243595 0.50828207 -0.024630059 0.47589877 0.2572724 0.026092075 0.20761603 0.008630661 0.37314498 0.4422693 -0.30444387 0.45920858
one -0.178717 0.19028644 0.49652085 -0.13204512 -0.07678339 0.2816335 -0.47026244 0.2975176 0.0406952 -0.23141712 -0.11532762 0.033171557 0.23714294 0.13735501 -0.71504605 0.27751592 0.29649466 0.24749531 0.48701507 -0.07132871 0.4349087 -0.053796932 0.16487633 -0.13901216 -0.17331396 0.039109197 -0.3386441 0.27335533 -0.22258012 0.20688485 0.28731048 0.2548943 -0.05928021 0.3938245 0.33426327 -0.43102527 -0.010576643 -0.0001642852 -0.3443998 -0.1198303 0.35211462 -0.55998975 0.09497706 -0.1519046 0.12640586 0.31073424 0.017754324 -0.18173145 0.11901716 -0.3989502 -0.07375842 0.069228284 -0.08828426 -0.27659348 0.26175365 -0.11511248 -0.35585514 -0.02622264 0.2694025 -0.15239713 -0.66576 0.3860535 0.72458524 -0.23951544 -0.024464555 0.4577172 -0.09503495 0.2624748 -0.14575638 0.044847373 0.5387144 -0.0017021828 -0.10884483 0.05284284 -0.2720526 -0.17147598 -0.22980276 -0.20637242 0.04462713 0.3143054 0.1600342 -0.19923735 -0.2792077 0.18826744 -0.30061176 0.19453517 -0.24243301 -0.17391025 0.54122204 0.03770215 0.18703577 0.27129048 -0.04688821 0.11298949 0.33116746 -0.046359144 0.37564787 -0.17391796 0.25462562 0.19954795 -0.018779937 -0.23553191 0.06884058 -0.27450347 0.23275521 -0.040342934 0.6019057 0.11935827 -0.3709638 0.26235753 0.010259647 -0.27556 0.2519852 0.31793967 -0.15984625 0.12929794 0.40825644 0.1617457 -0.12379825 -0.259753 0.18355572 0.22116783 -0.015014102 0.14109221 0.3006636 -0.12897593 0.04025182 -0.072430775 0.36426455 -0.14209121 -0.19603196 0.5099272 0.35371596 -0.14139064 -0.07833908 0.41883168 -0.62322694 -0.21865962 -0.4036835 0.10189284 -0.19428393 0.7536101 0.29709017 -0.082695976 -0.041400384 0.293366 0.21679093 0.3755822 -0.20114629 0.3871028 0.22395653 -0.029080717 0.11296793 -0.04251138 -0.29945078 -0.5033675 -0.17612872 0.6543105 0.3172675 0.48625264 0.101372376 0.050072033 0.15058826 -0.22478604 0.41482997 0.034151323 -0.11821634 0.13475907 0.38186684 0.0076760994 -0.6094053 -0.023456533 0.18153307 -0.8720254 0.2521749 0.18675274 -5.4691132e-05 0.24733223 0.12267533 -0.36985448 0.2363546 0.09440308 -0.21835782 0.15856479 -0.07567922 0.2481664 0.0641838 -0.48156822 -0.2207003 0.36441594 0.095926665 0.2668973 -0.030403994 -0.2912409 -0.44381258 -0.5140283 0.4685674 0.26203936 0.38710102 0.5536131
4 -0.3785283 0.08033376 0.27366444 -0.107703604 0.31973958 -0.322349 0.0066673523 -0.11474141 0.34802738 0.63035136 -0.116880395 0.044761486 -0.5016595 0.17618491 -0.12723713 0.119323395 0.17811577 -0.70656526 -0.42017654 0.17137973 0.50026685 -0.2319568 0.22585516 -0.47170687 0.3651044 0.17532882 0.13034952 -0.2518743 0.17264932 0.083299614 -0.31967553 0.0616044 -0.24042737 0.5912166 0.12677005 -0.16580221 -0.2614723 -0.35290736 0.331529 -0.3104087 -0.07092902 -0.21079372 0.11615101 0.42446092 -0.12782262 0.14324658 0.09604877 -0.42469832 0.15804689 -0.09683643 -0.05496728 -0.03526001 -0.41216916 0.013347477 0.026624015 0.14952236 -0.2668508 0.1672241 0.22272207 -0.3973592 -0.5703804 0.097652115 0.31182328 0.08936262 0.4054855 -0.048685458 0.007422038 0.20326006 -0.08127431 -0.013677309 0.19634897 0.43582842 0.073329225 0.43888396 0.0885197 0.10217707 -0.23815764 -0.07059432 0.035130884 0.35843366 -0.38497713 0.42839408 -0.18504223 0.04025858 0.003864447 -0.07584509 -0.0043652933 0.4083475 0.46816826 -0.31631768 0.41696948 -0.5287984 0.12746096 0.3027299 -0.032069877 -0.12159057 0.0016587015 -0.43217057 0.103133135 0.6844312 0.11589002 -0.2803101 -0.29959035 0.21195063 0.27088842 -0.31103694 0.0900464 0.31193948 -0.3750829 0.053705227 0.025493545 -0.12834775 -0.21591249 -0.24921653 0.45729935 0.56126773 0.011355943 0.54506373 -0.33563855 0.15197963 0.35239348 -0.1769585 0.23024881 -0.07831481 0.2547133 0.16149844 -0.15716185 -0.2072014 -0.182931 0.081539586 -0.19731705 0.050110288 0.24095108 0.06419125 -0.36583695 0.10228037 -0.4523975 -0.116388194 -0.28410012 0.17196906 0.46870875 0.4169988 -0.32168698 -0.14307232 0.19508618 -0.045056343 0.16129857 0.090088315 0.1875157 0.24285813 -0.06513704 -0.44540823 0.12128344 0.04058972 0.031170923 0.07871601 0.07159092 -0.36534193 -0.12875047 0.25943762 0.36890045 0.036650687 -0.23749444 0.22352678 -0.16770032 -0.15495431 0.22215723 -0.02354527 0.13489632 -0.3539503 -0.04989158 0.07484811 0.30586502 0.023967609 0.1522674 0.20852464 -0.32164297 0.5182043 0.116048016 0.075131275 -0.31950432 -0.05304893 0.034578208 0.07349574 0.3649315 0.28111264 -0.048461344 -0.15292291 0.112812445 0.47403324 0.15117098 -0.25644365 0.045725886 0.13166831 -0.09725408 -0.23626345 0.605755 0.03313195 0.12538573 0.008728039
junior 0.02093289 -0.056287702 -0.001493451 0.077813886 -0.16272116 -0.18289535 -0.15343378 -0.45054954 0.34482592 -0.0071873497 0.3547785 0.3525056 0.24206091 0.10792279 -0.15824702 -0.07266413 -0.050174642 0.070511505 0.006715736 0.05594785 0.18741417 0.2575445 -0.35256138 -0.15543471 -0.12690865 -0.05459174 -0.056816366 0.15100546 -0.018942911 0.4031519 0.15356626 0.17879993 0.028608715 0.08003713 0.35027525 0.11182927 0.09031691 -0.33956036 -0.0075016506 -0.34081638 -0.121553816 -0.27385682 0.17244175 -0.19780105 0.052299116 -0.11832472 0.25829968 -0.29554838 0.06657002 -0.6333588 0.34898984 0.02770759 0.3177298 -0.040176153 0.17010562 0.099575 -0.34978238 0.22937395 0.35909778 -0.038859762 0.1934113 -0.4316767 0.5333601 -0.05544843 0.04707196 0.25498125 -0.15910174 0.095572546 0.12701401 0.27839875 0.22282523 0.07268882 -0.043144498 -0.48816946 0.27851632 0.021496613 -0.49353412 -0.14523177 -0.25096217 -0.30893323 -0.20422165 -0.24036308 0.009613493 0.30190325 -0.21444714 -0.18093228 0.27592796 -0.2005269 0.38123336 -0.19770692 0.20090598 0.033203058 -0.053168572 -0.23130235 0.29287285 -0.03728563 0.035730265 -0.34737974 0.008943388 0.5920362 0.5455667 0.10198931 -0.010990893 -0.07639721 0.23899145 0.24357174 0.16010927 -0.16653977 0.06817001 -0.092879966 0.24512765 -0.21100792 -0.27510118 -0.30262822 -0.16668636 0.24053566 -0.107957706 -0.054731715 0.06609152 0.072979145 -0.111059226 -0.02439624 -0.21794097 0.2772733 -0.039771993 -0.11638064 0.017078487 0.10470629 -0.100661434 0.24938777 0.05470201 -0.008220961 0.13824573 0.25983307 0.110969864 -0.100437604 -0.23039 -0.16251338 -0.335862 0.1197621 -0.15025896 0.59933615 -0.40349638 0.19587041 0.10837798 0.3063569 -0.046962857 -0.035507925 -0.12927778 0.08625633 -0.007612797 0.31831712 -0.017470576 0.14650072 -0.037603233 0.070214726 0.11360836 0.22194067 0.2643585 0.261227 -0.07153477 0.14730105 0.29948914 0.20171449 0.20093982 0.13468562 0.18609641 -0.39946097 0.01154463 -0.19044359 -0.23740095 0.014573742 0.15720032 -0.14988619 -0.13692372 0.19155222 -0.36205798 0.27970034 0.27857625 0.043123215 0.069416426 0.2990937 0.1992008 0.06919471 0.07584798 0.15314952 -0.0027696963 -0.2582899 0.31274575 0.2071693 0.075792216 -0.16641627 0.3006947 0.14108635 0.09031885 -0.060249213 0.4515453 -0.20381835 -0.3578609 0.00069047
smoking 0.18799216 0.5466904 0.1592184 -0.3805119 -0.025594892 0.01315572 0.13758342 -0.08303896 -0.10010311 0.30559337 -0.11517244 0.18629757 -0.09679129 0.25297555 -0.5589462 -0.107759975 0.1096623 -0.07004109 -0.36417958 0.13209458 0.35262838 0.0023179452 0.058675334 -0.40897298 0.043422997 -0.06057734 0.21393815 0.066198796 0.5162625 0.71758884 0.0261134 -0.09382353 -0.19471948 0.27749005 0.2176733 -0.16047381 -0.30164814 -0.062388163 -0.28566188 -0.20822483 0.12561275 -0.18727647 -0.3405044 0.14153588 0.446773 -0.0972991 0.40667266 -0.75873035 0.5075761 -0.22368169 -0.00497701 0.4160945 -0.04548442 -0.055050377 0.02624841 -0.5456419 0.026817948 0.04660007 -0.17423022 0.0045446814 0.027305393 -0.087055184 0.5139018 0.4154785 0.1898791 -0.1919894 0.25661016 0.080672614 0.31080016 -0.30412716 0.12644905 0.052876998 0.46692744 0.12888229 0.18208216 0.29561913 -0.6902498 -0.19296972 -0.17494704 0.32565632 0.26355615 0.46677473 -0.13568047 0.07443252 0.23240975 0.16259442 -0.4725072 -0.017807782 -0.05250552 -0.03631588 0.17852467 -0.4312466 0.07020946 0.17525727 0.18561146 -0.05293236 0.12929381 -0.70530266 0.08226751 0.54364854 0.20980902 -0.18074393 -0.40000954 -0.04304875 0.31208777 0.17757434 0.36019745 0.011481174 -0.60212475 0.007597668 0.27075452 0.5367265 -0.47424835 -0.07073309 0.56666875 0.39993763 0.09462191 0.010956702 0.5738396 0.32421094 0.52521193 0.35431093 -0.43515074 -0.47790888 0.26109493 0.21588525 -0.098027505 0.10563758 0.37236795 0.21702826 0.29117835 -0.32529622 -0.07103464 -0.046225168 -0.32962006 0.09532696 -0.20888433 -0.6817039 0.10568998 0.15380758 0.29038063 0.4296359 -0.19918685 0.054018162 0.21395046 0.058980834 -0.22212712 -0.10710251 0.11150913 -0.19356097 -0.273584 -0.5224133 0.47080424 -0.11659973 -0.16336323 -0.061394308 -0.5389584 -0.00088695926 0.0033131489 0.08922528 0.38111576 -0.022760062 0.37385213 -0.14658792 0.24507974 0.651295 0.09758462 0.27285066 0.30228007 0.10815119 -0.19460751 0.15024781 0.16947575 0.15989451 -0.0765878 -0.47218773 0.112942405 -0.42597163 0.038636 0.24804132 0.10639636 -0.11756282 0.2664368 0.23065929 -0.19140807 0.625424 0.37251714 -0.6785509 0.16803448 -0.4258249 0.2457588 0.00015535922 0.40321285 0.40795287 0.009561519 -0.0031908788 0.48849717 0.068117365 0.5087042 -0.16163911
garden -0.27218527 0.36970142 -0.006293084 0.15663737 -0.15876608 0.19571285 0.061378498 0.31982064 0.053919185 -0.052653003 0.28753826 0.110440396 0.21284047 0.16010155 -0.24078745 0.019337691 0.40971518 0.24141908 -0.33498582 0.043570645 -0.11849103 0.3420225 -0.25712988 -0.6145754 -0.21334748 0.07903607 0.017478075 0.18789147 0.24965948 0.16087493 0.030103114 0.012985969 -0.10448403 0.032500878 0.42199746 -0.6705307 -0.42795962 -0.38123786 0.0021149735 -0.05641865 -0.02086916 0.27377266 0.14763744 0.11852596 0.20284131 -0.003088733 0.34450474 -0.11693143 0.06587955 -0.20358528 -0.25651574 0.054897938 -0.043977816 -0.18674503 0.27600014 -0.058720477 -0.4259542 0.31485 0.22179031 -0.3329334 0.010050349 0.16807485 0.7927105 -0.45213366 -0.13670683 0.124116376 -0.19477108 0.25905755 -0.030452784 0.17507152 0.4587692 0.16901891 -0.19317703 0.07042482 -0.050667286 0.00080198946 -0.5915713 0.18690372 0.12270752 -0.19853155 0.095425874 -0.20095791 -0.19194812 -0.04831311 0.12702581 -0.2422544 -0.52389216 0.25809354 -0.36871716 0.10905716 -0.050557397 0.49041402 0.25627506 -0.1410264 0.23983264 -0.3392201 -0.06975804 -0.7976307 0.56718516 0.03684232 0.27497822 -0.16793974 -0.18463595 0.06333693 -0.05398088 0.43171874 0.21773699 0.13338429 0.2206662 0.5843949 0.58758473 -0.15009646 0.06975053 0.16989914 -0.1681858 0.020993985 0.35770506 0.19307287 -0.061123062 -0.2590652 -0.0028726975 0.16585049 -0.19314863 -0.26455256 0.16940445 -0.12619026 -0.24447975 -0.05480468 0.0404234 0.30009422 -0.09129483 -0.08206942 -0.6149608 -0.04803523 -0.16792202 -0.011440888 0.1597353 -0.4808919 0.2509188 -0.17185955 0.28061804 0.6029088 0.029933559 0.104943454 -0.10050301 0.2140531 -0.028997261 0.1006726 0.16866724 0.17624125 -0.1668489 -0.19585748 -0.15452924 0.13000141 -0.5671042 0.2473377 -0.3951256 -0.26157042 0.19611214 0.07069156 0.20761518 0.47471404 0.1293409 0.09559634 0.24083932 0.107310265 -0.40829453 -0.10638589 -0.1287795 -0.17468384 0.0045601837 -0.09161101 0.393661 -0.80778486 0.16834551 0.06826684 0.29656687 -0.48018315 -0.15537226 -0.32904682 0.27134523 -0.2166101 -0.37986365 0.17926583 -0.25484422 0.39139456 0.33279756 -0.1827192 0.117345825 -0.030909106 0.1663791 -0.07017264 0.116945654 0.2880417 -0.5205747 -0.21602815 0.26139504 0.124255136 -0.09016509 -0.19354555
3 -0.2080317 0.22142503 0.4585448 -0.10147354 0.27112952 -0.35583016 -0.14630552 -0.37773746 0.14066027 -0.0508564 -0.014461839 0.0701378 -0.29887888 0.39791998 -0.44601548 -0.25782874 -0.12520756 -0.054608922 0.02715399 -0.27306107 0.36953875 -0.23263824 0.2906962 0.38974974 0.36294264 0.09541555 0.24886811 0.1274774 -0.029095223 0.26207134 -0.096915305 0.08640701 -0.01914027 0.30575922 0.10821042 -0.3163565 0.16293459 0.4097208 0.068565905 0.17995021 0.03472571 -0.44022748 -0.20085527 0.111079 0.11877365 0.24167699 -0.05727606 -0.16408111 0.40164095 -0.52105534 -0.22424921 0.4864362 0.11362462 0.13548107 -0.18843175 -0.74223495 -0.36277288 0.21819003 0.08688602 0.2172311 -0.29988462 -0.19751693 0.36731794 -0.044626083 0.5167271 0.20692863 0.13479128 0.66385347 0.6330069 -0.20178793 0.07621238 0.1674794 0.12982863 0.4380643 0.14775121 0.23263665 -0.6702584 -0.08456693 0.016959084 0.509263 -0.37478188 0.023800472 -0.09911659 -0.17824249 0.1930298 0.2794211 0.14524315 -0.45996362 0.10493065 0.15231773 0.35282132 -0.35140288 -0.29429546 0.10495865 -0.20792073 -0.16503966 0.04138175 -0.6277533 0.10581423 0.4067526 -0.098393574 -0.46187064 -0.11418275 0.069258116 0.3332412 0.3042099 0.50270396 0.54561174 -0.15933898 -0.04821345 -0.17993739 0.30858138 -0.54185355 0.20512608 -0.16395094 0.29118285 0.22538142 0.31419536 -0.33654103 -0.21337943 0.046667345 0.20223406 0.124399595 -0.028072495 0.30299622 -0.0014270731 0.06692784 -0.48017246 -0.17019942 0.13531615 -0.25987828 0.20777598 0.1709182 -0.46056268 0.010624816 0.28556603 0.03520001 0.058579832 -0.1932033 0.33256468 0.021707226 0.7548281 0.08465781 0.27877334 -0.11994327 0.2964226 0.12234721 -0.057901204 0.2157622 0.3379455 0.07849538 -0.30412522 0.3547746 -0.06508282 0.034570362 -0.22324014 -0.12244092 0.25067765 0.13496093 0.11537692 0.17939772 -0.05171239 0.43223694 0.24568588 -0.4604705 -0.48554158 0.32907686 -0.27838507 0.52548015 -0.20090432 0.21090072 0.43071666 0.20056646 0.16809395 0.20477346 0.4408588 -0.13919073 0.24067506 0.13323367 0.01438092 0.19041917 0.19811483 0.16782975 0.4613565 0.07891733 0.29127148 -0.34067667 0.18030798 0.4345603 0.35373676 -0.17533197 0.19256563 0.26480347 0.35818356 -0.2167087 -0.2805572 0.026428074 -0.02246133 0.3010596 0.319203
mixed -0.31517115 -0.007881676 0.25579435 -0.118383124 0.32774636 0.27175158 0.04451638 -0.43942994 0.73841953 0.51570565 -0.37500343 0.37592927 -0.52574325 0.22805643 -0.059589434 0.45317915 -0.3214318 -0.45055807 -0.3082594 0.30652952 0.06503833 -0.113798544 -0.14969215 -0.33006278 0.18378828 0.39786723 -0.088388816 -0.38181418 -0.064989306 0.23538822 -0.1174397 -0.21884724 0.08624575 0.4484935 0.34316027 -0.059464704 0.2921024 -0.11814678 0.38144 -0.32785153 -0.024929678 -0.60650367 -0.2474849 0.54199755 0.2117824 0.16745602 0.20374846 -0.08906905 0.11347926 0.070599124 -0.25743055 0.48340762 0.20592631 -0.6229073 0.4812766 0.014580709 -0.042095803 0.4658995 0.27927068 0.28649753 -0.3906298 -0.15154172 0.46296534 0.0767633 0.1325891 -0.0002917277 0.06298914 0.5126466 0.3207059 0.14695163 0.28964955 0.6973905 0.30830976 0.19688 0.33302832 0.21820502 -0.8793407 -0.2387254 -0.0896352 0.30493292 -0.62509286 0.6139336 0.39164606 -0.18417405 0.22947285 -0.5634252 -0.18841413 0.11388783 0.0043182536 -0.3445646 0.075622804 -0.38973472 0.40211555 0.035857823 -0.33125755 -0.003691285 0.4109837 -0.7302852 0.1196558 0.027893681 -0.091872066 0.34281394 0.33142242 0.46720615 0.018204138 -0.33704484 0.5165426 0.15909928 0.33558115 0.31010452 0.42224994 -0.23937047 -0.3358336 -0.30614173 0.19727618 0.38798478 0.29032436 0.03503987 -0.13116935 0.06671512 0.41853034 -0.6125588 0.3696828 -0.2522012 -0.048360385 -0.57595825 -0.11243365 0.14677426 -0.2875898 0.29718417 0.314849 0.5380979 -0.27898815 -0.37117475 -0.52242833 -0.038609546 -0.47294626 0.1138918 0.2917894 -0.07838151 -0.049072586 -0.44659394 -0.13624567 0.11359755 -0.22575834 0.6920293 0.19770521 0.36828935 1.0096054 0.30418766 -0.20627059 0.104640916 0.022296835 -0.27232808 -0.081428625 -0.11904547 0.84664845 0.0695606 0.20804252 -0.3323199 0.057112474 0.20097166 0.30260283 0.0040444676 -0.35935774 0.13490744 0.34964946 -0.4301907 0.009530336 0.059741862 0.38737854 -0.13527413 0.48019865 0.079880424 -0.07230278 -0.041020785 -0.42464188 -0.1495083 0.005906188 0.09830918 -0.2307613 -0.021212975 0.07947354 -0.111429036 -0.06571046 0.3019292 -0.08946052 -0.23886384 0.05669447 -0.043708436 -0.147869 -0.008657154 -0.06295778 0.37164325 -0.0048470628 -0.479785 0.77891797 -0.57420295 -0.15360266 0.53760153
twindouble -0.2691523 0.19739382 0.23947233 -0.74131584 0.41457194 -0.19777091 -0.107094646 0.21333048 0.05313531 -0.01151836 -0.2852542 0.20426285 0.34432393 0.09208994 -0.46353596 0.026778443 -0.14361002 -0.0077914307 -0.008654978 0.05091716 0.12286131 0.40325353 -0.29677114 -0.20199345 -0.1632666 0.27127007 -0.09710699 -0.5458933 0.008346156 0.064109184 -0.07253253 -0.09306318 0.5249506 -0.04020181 0.28962937 -0.09816651 -0.16174972 0.23149918 0.47610354 -0.46668583 0.10915289 -0.5641146 0.0994878 0.31975493 -0.79983866 0.3611442 0.09392274 0.04216053 -0.11184481 -0.19282952 -0.2100663 0.31613898 0.2317099 -0.99668694 0.44689712 0.520229 0.45849696 0.2863343 0.26118946 -0.06021017 -0.3943338 -0.10565439 0.31452966 -0.42660394 -0.12755814 0.37301117 -0.7407605 0.040601827 0.30006537 0.8294579 -0.039986953 -0.110785946 0.012024604 0.2503297 -0.45457163 -0.007776368 -0.22455339 -0.49588832 -0.22753337 -0.049532164 0.23603301 0.15498677 0.31281656 -0.23767771 0.08538418 -0.056862913 0.5331092 0.18059553 0.024386663 -0.3775356 0.5240479 0.026142174 0.0172236 -0.17829552 -0.24425137 -0.021629104 -0.57045233 -0.6433763 0.53577405 0.41988435 0.6925864 0.3496866 -0.1958713 0.0376819 0.54382586 0.7380886 0.31184787 0.010269207 0.25839657 -0.097473815 -0.33858174 -0.305777 0.1839891 -0.12582833 -0.15712637 0.1052356 0.40158063 0.46057892 -0.14998315 0.13107072 -0.2157825 0.10502278 0.19463062 -0.28770658 -0.18888274 -0.94638157 0.40416992 -0.08176924 0.6632295 0.4145634 -0.01953578 0.42082402 0.10725648 -0.3509552 -0.14932002 0.30184138 -0.0046780007 -0.31121156 -0.2975875 -0.056423113 0.08209023 -0.030438645 0.06677652 -0.18951677 0.4829924 0.3846984 -0.3969041 0.3564822 -0.16989681 0.16436741 -0.62144935 0.19828959 -0.037315972 0.32118973 0.2119135 -0.13291979 -0.12623969 0.02705864 -0.8120863 -0.542319 0.52385896 -0.33238807 0.27994236 -0.15630822 0.1597679 -0.1623346 -0.37482685 -0.1651897 0.07379923 -0.26991352 -0.34154913 0.04832199 0.019127365 -0.3018443 0.14075397 0.108578175 0.13229038 -0.44417873 0.72259367 -0.1932161 0.11011405 0.19944857 0.48430094 -0.26483077 0.6604549 -0.1087475 -0.12047743 0.14931473 0.23273666 -0.3914959 0.18153603 0.45763746 0.3145111 0.38010532 0.027626375 0.032970734 0.15660629 0.057488818 0.1922904 0.1133909
two -0.3452947 0.050273713 0.4815945 -0.19693759 0.21583802 -0.1390133 -0.40992832 -0.021784961 0.2481689 -0.026894797 -0.36664134 0.019480566 0.38964975 0.11172218 -0.76320606 0.27272117 -0.061517507 0.04834111 0.22923331 0.24290511 0.20312506 -0.10974571 0.16475873 0.34406444 -0.01873389 0.057452433 0.09588143 0.3402858 -0.2297485 0.054950763 0.10794343 0.07485917 -0.2609164 0.2679181 0.40516135 -0.25845078 0.09135362 0.26781183 -0.10893285 -0.24833487 0.0872614 -0.7226264 0.3669522 0.11869953 -0.04429194 0.7333517 -0.22897398 -0.38440213 0.39117557 -0.49448586 0.03674702 0.25445977 0.17444174 -0.13993032 0.2905762 -0.20446078 -0.38257053 0.2728744 0.3944051 0.0026834013 -0.5933419 -0.13325675 0.491719 -0.46417394 0.60565895 0.4036093 -0.18325484 0.14390796 0.035124343 -0.00702998 0.724527 0.013125579 -0.1058486 0.1429001 -0.18849376 -0.2911799 -0.32181704 -0.19961253 -0.13203798 0.49910855 -0.16855139 -0.32646337 0.07999789 0.32751098 -0.12636176 0.06678517 -0.22161631 -0.013519685 0.505987 -0.1380974 0.06499506 0.287175 -0.28411746 0.19569027 0.18966001 0.20388451 0.34978276 0.017818287 0.004810825 0.44652334 -0.13599712 -0.24985184 -0.01687809 -0.27130273 0.06320017 -0.15290646 0.37842175 0.31104273 -0.48568726 0.22610514 0.08895631 -0.24140732 -0.29068342 0.14346433 -0.054119762 0.21429452 0.29638442 0.29418468 -0.31344792 -0.52529174 0.21554162 0.039201643 0.37738016 0.03760409 0.34119064 -0.26527503 0.24319346 0.1540799 -0.13702515 -0.2737902 -0.15897435 0.33838218 0.5166132 -0.17206302 0.28687602 0.24698675 -0.8051442 0.13656078 -0.72652006 0.15700372 -0.30523288 0.41777676 0.14912476 -0.115197435 -0.16237171 -0.02542445 0.42345846 6.5500615e-05 0.23292972 0.37189415 0.11069021 -0.111064605 0.19299354 -0.18030831 0.019994274 -0.42427543 -0.09180842 0.35212377 0.17142329 -0.1639404 0.45986325 0.075086996 0.022917893 0.046485644 0.2622104 0.09842109 -0.0971846 0.11167477 0.1860315 0.13762547 -0.6271378 0.110083036 0.3254184 -0.54391706 0.2308283 0.49497473 -0.3155388 0.37308243 -0.19690496 0.069078475 0.0041795177 0.23456901 -0.24234743 0.117512725 -0.084856935 0.12699856 -0.00040906048 -0.025968712 0.21671237 0.48965618 -0.03162419 0.163702 0.097703926 0.20768526 0.09127426 -0.4545675 0.63251317 0.49471572 0.44986403 0.38592404
river -0.19603053 0.34813893 0.22479022 -0.26502845 -0.4296732 0.21288754 -0.1274627 0.009229221 -0.11324217 0.16467297 -0.14894657 0.14431524 0.13471057 -0.18222952 -0.27481663 -0.1169237 0.37300047 0.4673024 -0.51572275 -0.21602878 -0.119976744 0.41988835 -0.36945835 0.19771367 -0.06581158 0.051124647 0.1595829 0.21410526 0.10099479 0.374176 0.106350705 -0.18615755 0.07442637 -0.000840591 -0.37330806 -0.60524875 0.062187184 -0.087001875 -0.10967994 -0.060431432 0.32450116 -0.50146574 -0.02005971 -0.11185267 0.17313026 -0.07633453 0.2218811 0.07000251 0.3550211 -0.29064512 -0.31574237 -0.09188031 0.23593462 -0.16306859 0.16507918 0.26936942 0.24731085 -0.09876879 0.16303614 0.295755 0.09084406 0.02085564 0.377866 0.11229694 -0.03561683 0.026507853 -0.4719417 0.44968706 0.14718762 0.18195999 0.10968111 0.18819767 -0.30594447 0.1990551 -0.18328 0.07052598 -0.94732547 0.33374056 -0.31159616 -0.013907372 -0.124579184 0.13540101 0.5347031 0.030838633 0.08653601 -0.047025003 -0.16829498 -0.1466081 -0.0913654 0.17865291 -0.3792637 0.43456107 -0.5381118 0.17944467 0.06752312 -0.06330766 -0.039080795 -0.70636636 0.013241984 0.19927628 0.42644483 -0.40658316 -0.25761062 0.10141211 0.49554142 0.50417745 0.70685494 -0.2195286 -0.08210868 0.5493395 -0.03653584 -0.2095856 0.3033416 0.6731223 -0.14957114 0.00010090723 0.24791385 -0.0061686602 0.10277248 -0.325024 -0.27104545 0.28531992 -0.02871894 -0.50801927 -0.19508284 -0.15041937 -0.054093126 -0.5393331 0.21539235 -0.38692138 -0.3122533 0.39413354 -0.3495079 -0.4699085 0.134555 -0.1869606 -0.050666794 0.025813224 -0.10938173 0.1571586 0.503312 0.5294199 0.2638847 -0.14238903 0.091539524 -0.09289366 -0.12171735 0.10473712 0.4172312 0.45858896 0.32101703 -0.07700044 -0.008484467 0.32246947 -0.20328994 -0.18503872 -0.30211464 0.3849715 0.30995342 0.20982532 0.23851795 -0.08119882 0.16477294 -0.234855 0.12500742 -0.15422025 -0.23119089 -0.17763057 -0.32560095 0.4966256 0.07218076 -0.10153964 0.39181194 0.038339723 0.107490726 0.24524139 0.39505452 -0.22516386 0.09846464 -0.098098 0.12667184 -0.1830691 0.13982569 0.15063065 0.06624335 0.53035456 0.5733767 0.09015664 -0.14506817 0.04722747 -0.2019522 0.15984213 0.23367184 0.20211564 0.0960214 -0.29321173 0.48037755 0.046531957 0.30635616 0.12608445
wing -0.2617161 0.3847137 0.32631388 -0.46350047 -0.13969766 -0.1317873 -0.048968334 -0.1662594 -0.053385917 0.05279804 -0.2502598 0.38669822 0.29668292 0.15086398 -0.60706264 0.16460426 0.11427568 -0.13620076 -0.34171277 -0.26878932 -0.37159482 0.6174359 -0.45999268 -0.08492648 -0.3776528 0.086034365 -0.03322147 -0.05085344 0.5224341 0.89203095 0.21920326 -0.4246979 0.41287467 0.3638861 -0.36679402 -0.2677722 0.023942024 0.27084973 0.064572744 -0.1285531 -0.060824502 -0.7826608 -0.13024147 0.101571396 0.63715523 -0.19258046 0.013292823 -0.11092237 0.59880507 -0.3043064 0.09440562 0.31268254 0.40371352 -0.11759995 0.67084223 0.13362692 -0.1188263 -0.3815111 0.25016612 0.4493533 0.08270911 0.17406018 0.35307366 -0.057276536 0.2967645 0.291308 -0.4158736 0.20586035 0.18511981 0.8595219 -0.26900843 0.39057833 -0.3591893 0.39171728 0.02139377 0.16910082 -1.0567107 -0.051418215 -0.37270975 0.15624316 -0.06556431 0.35410932 0.36709327 -0.26361978 0.22981586 -0.28020364 -0.045901872 -0.38612098 0.19568351 0.052596107 -0.12213467 0.49146116 -0.10814849 0.3329024 0.42372662 0.3918101 -0.14498068 -0.68826616 0.34594193 -0.07208901 0.5566367 -0.20308158 -0.35987806 -0.0471686 0.49493253 0.78887683 0.6744238 -0.031643238 0.031623404 0.83492225 0.21146007 -0.5869816 -0.10142321 -0.06906159 -0.096122846 -0.6050588 0.3682539 0.46410313 0.18490584 -0.43502915 0.26827613 0.36360112 0.02413568 -0.43135566 -0.17730999 -0.123124436 -0.006059358 0.17284156 -0.18856737 0.13410307 -0.029736934 -0.2701665 -0.91203254 -0.024783945 -0.3754391 -0.055130493 -0.049394663 0.3325963 -0.35226285 0.10306957 0.14383891 0.6081652 -0.10658616 -0.27565703 0.20632416 0.16424215 -0.40288246 0.04608548 0.3495515 -0.21944472 -0.21383719 -0.07473727 -0.12279466 0.8647514 0.09987832 0.1226519 -0.27518082 0.0382918 0.09102354 -0.20965059 0.85055536 -0.37754512 0.40171453 0.32947376 0.63969296 0.63538754 0.3729575 -0.24954219 -0.28935596 0.3053663 0.3323762 0.046076346 -0.026469262 0.029397449 0.20286433 0.07320486 0.087989606 -0.42565683 0.49003613 -0.1966919 0.043693148 -0.34965423 0.22649847 -0.3315239 0.13823538 0.7457679 0.12912989 0.12303796 0.1411539 0.18411891 -0.19320966 0.2737736 0.5146421 0.21625243 0.13009402 0.033235308 0.61524814 0.08510031 -0.11265292 -0.062402822
pool 0.25353026 0.3618765 0.17486848 -0.18328477 -0.12298366 0.04616833 -0.24030572 -0.33294544 0.3587939 -0.4029863 0.112813 0.26481292 0.72435784 0.5831594 -0.5765007 0.029848514 -0.06854533 0.22621538 0.07557902 0.10836123 -0.23054121 0.39184147 0.014364732 0.05839721 -0.16398253 0.24696392 0.4300151 0.11375798 -0.42257455 -0.16413678 -0.31703395 0.3482619 0.12175063 -0.38098007 0.04022909 -0.504478 0.108479396 0.30984762 0.21512626 -0.27789116 0.32821542 -0.3611421 0.41822502 0.4190321 0.077976756 0.2605579 0.33352938 0.03569858 0.0008396311 -0.6227492 -0.34925872 0.5296116 0.40088785 0.035884246 0.5191689 -0.116135575 0.23958711 0.11789732 0.11866915 -0.12357781 -0.39646763 0.09216838 0.559434 -0.29852974 -0.1377881 0.10614374 -0.1578678 0.035813797 0.3555289 -0.15816815 0.68438154 0.033558283 -0.44619215 -0.20470938 -0.19072513 0.061321132 -0.7088634 0.27596045 -0.39913046 0.27138725 0.28424814 -0.53985524 0.30714026 0.29981956 0.09843377 -0.3017327 -0.0589286 -0.027026014 -0.33204335 -0.14977871 0.24929821 0.14469674 -0.72568077 0.058118656 0.22537735 0.025123572 -0.045563743 0.076803565 -0.3072414 0.74186116 0.021247728 -0.35497665 -0.26446778 0.101065956 -0.058482982 0.40688884 0.8439152 0.60080194 -0.08184513 -0.004156637 -0.0041625663 -0.2765408 -0.096500255 0.29214734 0.31646994 0.30986273 -0.04197848 -0.40971276 0.29977494 -0.39221448 0.1615439 0.073059715 -0.29074553 -0.16215326 0.34517494 -0.19897972 0.038104054 0.1924345 0.06432475 -0.16307113 0.055163443 0.44393438 -0.046959102 -0.32376093 0.14688782 0.005521906 -0.173054 -0.14779346 0.0018787445 0.0980975 -0.3020823 0.5862694 -0.0033817862 0.27527586 0.21120134 -0.064154975 0.28352955 -0.24682271 0.54806745 0.58857584 0.19314234 0.0042749085 0.03285134 -0.040436268 0.013574541 0.17615825 -0.29303926 0.5404415 0.033599902 -0.0010462039 0.28010204 0.24866882 0.0023310664 -0.4334826 0.4832282 -0.35088617 -0.16691868 -0.54260564 -0.44424143 0.12721652 -0.41306567 -0.36759213 0.24029104 -0.27405718 -0.14484912 0.38129517 0.0404418 0.49243867 -0.20859167 -0.032863077 0.55495816 -0.026399989 0.3896859 0.13675857 -0.35056928 0.3531629 -0.37866664 0.45474195 -0.24360384 0.4615185 0.24652082 0.15385607 0.44174564 0.49070087 -0.13376185 -0.27365246 0.17590779 0.12873626 0.01992028 0.46930543
6 -0.41807476 0.1818134 0.68922627 -0.35212103 0.31595775 0.1474165 -0.19046415 -0.34651774 0.3314417 0.024271654 -0.21448895 -0.22747982 -0.3169513 0.2566942 -0.11156191 -0.12856783 0.064965405 -0.22900234 -0.50120324 -0.09973626 0.4907958 -0.18085437 0.111033246 -0.43752423 0.17276356 0.11314805 0.38794163 -0.26615173 0.3103099 -0.010121792 -0.3117221 -0.18158436 -0.097626574 0.46504292 0.34231648 -0.25520802 -0.3374708 -0.03569654 0.5263115 -0.4988641 -0.11760968 -0.13252334 -0.15323398 0.5847942 0.10224683 0.259152 0.06713288 -0.36732006 0.2903906 -0.016833363 -0.4216403 0.09772713 -0.3471828 -0.16395462 0.2838536 -0.12197247 -0.08236741 0.15658975 0.16717803 -0.49052468 -0.6531134 0.034465477 0.19419272 0.13243504 0.12065015 -0.07669511 0.017249105 0.3401363 -0.08348907 0.11821223 0.17193525 0.40112397 -0.07010383 0.5279201 -0.2284115 0.32867104 -0.6427995 -0.0014302137 0.047693685 0.46743003 -0.36626562 0.6339522 -0.2842146 -0.12521216 -0.026020568 -0.100279436 -0.13335925 -0.048735876 0.59382325 -0.22754927 0.22609743 -0.5885683 -0.101973124 0.15596709 0.052088406 -0.21662216 0.07499808 -0.41993386 0.09054944 0.65697753 0.1315438 -0.14489976 -0.14504224 0.40861964 0.19041246 -0.30332777 0.51026744 0.28877634 -0.057796847 0.33983564 0.095829844 -0.22980803 -0.022925708 0.0016598108 0.49604824 0.6379095 0.23375824 0.4985296 0.32514346 0.1609094 0.6055119 -0.3765423 -0.3484551 -0.32316747 -0.0016173563 -0.06107919 -0.53520465 -0.322419 0.20212062 0.12158988 -0.14164287 0.24306475 -0.115665555 -0.12118349 -0.4946352 -0.12466372 -0.33497557 -0.27875105 0.04260946 0.015234884 0.20617433 0.4517699 -0.2735412 0.105732515 0.14005466 0.16679719 0.23799786 0.06349421 0.5263571 0.5889779 0.119947344 -0.49814814 0.45019576 0.16622299 -0.07534494 0.020430118 -0.14726399 -0.052766766 0.022246826 0.35870364 0.22732176 0.1840195 0.0727627 0.1367427 -0.32479033 0.094703674 0.26553947 -0.37031394 -0.20436756 -0.11374401 0.19316374 0.19714375 0.33419204 -0.23557346 0.40285918 0.35451502 -0.06448605 0.28566122 -0.065391816 -0.30414602 0.0025884958 0.06720893 0.3054803 -0.11601871 0.19828862 0.42686442 -0.17791088 -0.16536073 -0.22588933 0.35493046 0.34774655 -0.20115547 0.00022167174 0.45451957 -0.35794723 -0.34063596 0.41405 -0.43522483 0.22098422 0.43356296
non 0.46068525 0.5860244 0.4406946 -0.47095 -0.06238412 -0.2739866 0.09898402 -0.18064407 0.15383096 0.38946554 -0.108266875 0.23022342 0.25256744 0.48955962 -0.31787467 0.17912963 0.0022560358 -0.26121905 0.10420786 0.18807103 0.3075705 -0.22461173 0.43936488 0.20818548 0.34094107 0.14921533 0.07774118 -0.025067864 0.57170725 0.6140525 -0.001516184 0.3858767 -0.11905754 -0.09052844 0.39638606 0.17304704 0.03130876 0.19751975 -0.026466446 -0.630589 -0.080828205 -0.34510973 -0.44041362 0.5829913 0.45456514 -0.5853686 0.307409 -0.29375488 -0.0733213 -0.2328486 -0.11662109 0.50996035 0.0074140537 -0.24411137 0.10849212 -0.16322401 -0.26955757 0.3281805 -0.1479054 -0.35617277 -0.35431787 0.04269715 0.41643503 0.53339934 0.05794458 0.02839206 0.19380277 -0.078702025 0.30759382 -0.09048326 -0.011699297 -0.1954946 0.34347972 0.042417835 -0.29424322 0.22485375 -0.85650885 -0.21510768 0.10847043 0.17437872 0.08720468 0.21338034 -0.03653632 -0.008304032 0.40947494 -0.06375899 -0.10341207 0.15673961 0.42292318 -0.09221148 0.1670886 -0.33325067 0.16808277 -0.018179594 0.22686172 0.1445539 -0.25108725 -0.445557 -0.003778149 0.8998446 0.05724823 -0.027598303 -0.27722108 -0.17876157 0.052315027 -0.19557059 0.32032767 0.09175673 -0.7117695 0.13449162 -0.035847347 -0.08525428 -0.57522506 0.099925764 0.59069395 0.6230359 0.18154383 -0.16347896 0.61303794 0.20456311 0.2818822 -0.28524825 -0.42395273 -0.0066391546 0.7594413 0.12848505 0.1360527 0.4747783 0.6234086 -0.033029098 0.34362012 -0.38316113 0.2408996 -0.33364308 -0.4957398 0.22263959 -0.0075994306 -0.3277487 0.033659976 0.24361655 -0.06473279 0.708009 -0.062401608 0.090594225 0.22930752 0.087299146 -0.031455405 0.17551444 -0.09142143 -0.3102888 -0.19195499 -0.40234196 0.4344428 -0.15166807 -0.028694969 0.21440248 -0.51297194 0.14931263 -0.10253373 0.13008784 0.35379633 -0.04621923 0.59716564 -0.58757496 0.014556989 0.406343 -0.04659993 0.09374084 0.21698749 -0.055513144 -0.46830663 0.2095866 0.06549475 -0.14602463 -0.19007687 -0.16067608 -0.021250378 -0.07281674 0.18647896 -0.097852744 0.2920918 -0.049844094 0.24966075 0.09765647 0.26101047 0.7982238 0.08707409 -0.2657327 0.08833904 -0.11343064 0.3244608 -0.02497043 0.084834 0.6255134 -0.067212 -0.31356737 0.41390714 0.3115224 0.64601195 0.26140025
luxury 0.21026683 0.078864016 0.07784143 -0.27842647 -0.47998944 0.00054227584 -0.3718647 -0.4527865 -0.102759644 -0.02054959 0.0062796893 0.050173122 0.58151287 0.28745508 -0.28237805 -0.04828747 0.022203384 0.33664763 -0.02708127 0.17418511 -0.02756531 -0.018562421 -0.11342143 0.11208328 -0.14405794 0.06111022 0.31146955 0.08942101 -0.12818442 0.5127388 0.39334658 -0.0029256735 -0.12222226 0.25047028 0.26791847 -0.119779095 0.34388292 -0.1858481 0.09664348 -0.68894655 0.08194412 -0.7355359 0.19130681 0.23803286 0.20318061 -0.45708582 0.5808439 -0.26582938 0.65086955 -0.9461321 0.09060294 0.4446149 0.5823259 -0.19024913 0.58456117 0.15094584 -0.3956004 0.15397425 0.23716614 0.29154354 0.2913455 -0.13611074 0.33042002 -0.21706653 0.13042293 0.7772963 -0.32176533 -0.38947254 0.316686 0.60419434 0.14604591 -0.090957135 -0.19841138 -0.38840678 -0.017853348 -0.20074227 -1.0688484 -0.024544725 -0.29381508 -0.1310978 0.08134206 0.0065471567 0.16369352 0.32738915 -0.13430333 -0.15448576 -0.3009836 -0.09123562 0.12367915 -0.33365795 -0.2600231 0.37142953 -0.24340126 -0.027476333 0.2871501 0.26660568 0.25931308 -0.45481092 -0.095392786 0.4865164 0.52167577 0.27604562 0.043335013 -0.12554847 0.20539199 0.25682667 0.42979082 -0.10843486 0.10121545 0.53890336 0.15384454 -0.1728907 -0.34847274 -0.1391698 -0.14731239 -4.28443e-05 -0.0009534345 0.011264545 -0.020077875 -0.22491474 -0.008670034 0.19185154 0.011335582 0.055998642 0.039686967 -0.36105368 -0.19576225 0.063024394 0.4329582 0.07668307 -0.13282576 -0.19559166 0.23588826 -0.2921719 0.39731988 -0.2511319 -0.10808598 0.13532075 -0.4600866 0.018983563 0.038387462 0.632381 -0.38900122 0.020402076 -0.23269717 0.06706743 -0.3938897 -0.39552242 0.14669314 -0.028600374 0.12635425 0.12123571 0.06058803 0.4020065 -0.075247176 0.29657024 -0.39248165 0.2683323 0.30369636 -0.02481985 0.21731964 0.32366163 0.3086186 0.011812915 0.42590818 0.21684498 -0.0072946306 -0.5557273 -0.28802678 0.019512562 -0.32119995 -0.4325059 0.40971705 0.004318364 -0.16718538 -0.14883399 0.0678048 0.12848048 0.43514815 0.42965677 0.3096018 -0.024679072 -0.09541762 0.08154109 0.041613787 0.6022315 0.35430315 -0.19242966 0.06801245 -0.21030018 -0.0349376 0.034384258 0.17232001 0.44720414 0.21734639 0.14369275 0.5002151 -0.2381651 0.21333608 0.19758187
