1181 200
double 0.51111966 -0.20784438 -0.41718575 0.12619719 -0.3975856 0.16559346 0.33446383 0.023831073 0.041303102 0.0014221316 -0.052693687 -0.106338866 0.016747361 -0.31102896 0.40506598 -0.2725935 0.12097237 -0.3118893 0.33347145 0.37574977 -0.3964651 0.10569898 -0.09084161 -0.28734264 0.07528776 -0.2935922 0.37831768 0.15765043 0.29906598 -0.049656425 0.1092372 0.25781667 -0.28724 0.28722173 0.3109779 0.04093309 -0.19165489 0.23091716 -0.38693622 0.10470494 -0.06587889 0.09190032 -0.11228153 -0.23536912 -0.2236546 -0.17064063 -0.05690275 -0.25068626 -0.25690585 0.26389274 -0.08873663 -0.48287332 -0.42039657 0.023800457 -0.04233966 -0.47108883 0.6201454 -0.30091956 -0.37999332 -0.1752278 0.17594518 -0.1593819 -0.056482296 0.38856426 0.26451698 -0.060746673 0.10164621 -0.30609232 -0.20664819 -0.20972937 -0.13905692 0.21392687 0.057071988 0.34596473 -0.8357711 -0.05552143 -0.08882996 -0.11663537 0.23685008 -0.06303571 0.32272935 0.2606995 0.17189546 0.103540115 0.033553094 -0.033036932 -0.3243253 -0.4600729 -0.46325487 -0.08243454 0.04390503 -0.08422219 -0.17560638 0.11071944 -0.2256652 0.21641815 0.23770334 0.05386469 0.09365673 0.30257663 0.16683109 -0.034008414 0.041139394 -0.048370525 0.019825006 0.034393474 0.31762123 -0.33729252 -0.13040686 -0.5264972 -0.3315422 0.02934751 0.114576325 0.060150735 -0.3538615 -0.014293764 -0.53921276 0.59202206 -0.15717763 0.51178294 0.14151487 0.42912364 -0.23734568 -0.08184405 0.22568986 0.0031479313 -0.0003136534 0.039713215 0.03792138 -0.3181971 -0.27213734 0.42920914 -0.117792405 -0.1972873 -0.03355306 -0.34561473 -0.25578925 0.256396 0.40790614 0.18724218 -0.05028742 -0.100788675 0.044109125 0.17741103 -0.15861109 0.18520068 0.07455627 0.5381395 0.004021093 -0.17265792 0.09279616 -0.27631733 0.35149756 0.031855546 -0.1618194 -0.05916138 0.2804996 -0.095989846 0.054419473 -0.26014355 0.218762 0.2745693 -0.034662493 0.29895723 0.00034817628 -0.11467626 0.04671681 -0.17941932 0.47483772 0.2962662 -0.050444506 -0.31846207 -0.3282238 0.22175568 -0.28594032 0.19325943 -0.4779564 -0.006682876 -0.092122704 -0.13572311 -0.34911734 -0.66847306 -0.58345795 0.22343268 0.018455043 0.28065854 0.43074626 0.027510706 -0.07955309 -0.2710922 0.49542445 -0.17587383 -0.16592012 -0.14537016 -0.020126367 -0.28517988 -0.44822016 0.14332479 -0.27541313 -0.056082536
deluxe 0.18816432 0.2911854 -0.12604459 -0.29478234 0.09937992 -0.09207905 -0.0927155 0.2875269 0.24436516 0.34484202 -0.079160996 0.5026217 -0.057298463 -0.4372758 -0.6337342 -0.19004294 0.22375911 -0.026515676 0.15053819 0.48554835 0.032570463 -0.030640392 -0.1073786 -0.035387877 -0.38398883 0.032448348 0.4022753 0.0481561 0.2810158 0.14007768 -0.3617483 0.17971745 0.52083176 0.40620574 -0.116571695 0.1600201 -0.1924061 0.12450967 0.014994843 0.21454163 -0.0261958 0.0775721 -0.2319347 -0.43714744 0.12621424 0.40561673 0.034884926 0.20172809 -0.67608315 -0.11709689 -0.10852775 -0.0013327664 0.10889175 -0.28330275 -0.3664183 -0.12931441 0.52669024 -0.17170797 0.044235904 0.02200355 0.24876204 -0.062410507 -0.1011427 -0.035801668 0.6269002 -0.11846288 0.11838459 0.3165085 -0.12988728 0.37573838 0.19705962 -0.25001863 0.34110054 -0.71443975 -0.5635903 -0.5763748 -0.02464988 -0.41471472 -0.3300531 -0.091069765 0.019708509 0.10764387 -0.08986626 0.21114966 0.12140824 0.017072499 0.38225633 -0.14571908 0.18165895 0.22530468 -0.30311528 0.0039632446 0.38411355 -0.28713793 0.57668215 -0.08104688 0.1330294 -0.010876857 -0.09482336 -0.0049777464 0.32144693 0.13906784 -0.023549564 -0.16340367 0.15938315 -0.20391636 0.051128797 -0.00061717705 -0.19952473 0.5146329 -0.35518456 -0.4503529 0.12331462 -0.008524662 -0.68130046 0.30478936 -0.41845477 0.117977805 0.22937155 0.32185623 0.15871741 0.06607775 0.17215352 0.48907456 0.7218936 0.072574854 -0.41393754 0.23925997 -0.11142862 -0.27874145 0.083983876 0.10405776 0.21238695 -0.13229056 -0.3449701 -0.37899917 0.36661255 -0.11609316 0.23912062 0.257633 0.0773142 0.09151345 0.17661634 -0.1085805 -0.21269691 0.2026413 -0.0390312 0.28131595 0.31873277 0.24890882 0.085071 0.06828242 0.2818185 0.45675588 0.42667586 0.19116913 0.054348603 0.1716037 -0.23003878 0.22569844 -0.32113877 -0.005697741 0.21020791 -0.3119691 -0.075007856 0.4584803 -0.59032226 0.035831973 -0.453239 0.09830893 0.10924152 0.08764597 0.10387026 0.1964552 -0.023838641 0.15517035 -0.38556984 -0.0851409 -0.15520483 0.1761494 0.7585035 0.20809954 0.16143744 0.20368733 -0.2702069 0.37395185 0.37340003 -0.085213065 0.30991626 -0.030020844 -0.14512604 -0.48643953 -0.221211 0.02622071 0.11562635 0.1254446 -0.6483897 -0.5180532 0.278534 -0.17405444
suite -0.11721401 0.080542624 0.20216061 -0.021604337 0.002369336 -0.43720418 -0.4261948 0.48604885 -0.01730183 -0.089298144 0.32061785 0.17942207 -0.20237082 0.19566463 -0.037348792 -0.33214673 0.31399232 -0.30081326 -0.051500075 0.6549888 -0.71964246 -0.23326328 0.12149182 0.26586232 0.0607014 -0.85932827 0.425528 0.049954332 0.4069096 0.22424875 -0.73984706 0.03969568 0.14312711 -0.06478704 0.0037753205 -0.2050323 -0.47430572 -0.23219559 -0.6327617 0.3176498 0.34773386 0.34424868 0.007477418 -0.16256817 -0.64399916 -0.014992127 -0.28389648 -0.19599083 0.35505956 -0.31247345 -0.30638742 0.15577899 -0.4968448 0.16343886 -0.4306165 0.26453778 0.12864384 0.08733532 -0.068851896 -0.14689285 -0.3155622 0.40219727 -0.107293166 0.2467801 0.039335553 0.34067425 -0.19376618 -0.15203686 0.62688166 -0.35154656 0.08753804 -0.03529921 0.12999482 -0.08774259 0.12364985 0.051795017 0.034312464 -0.35058334 -0.3157566 0.036250155 0.4224284 -0.13283223 0.2969215 -0.28927574 0.022977557 -0.40442663 -0.37130147 -0.27347556 0.22520824 -0.060833734 -0.034344774 -0.24574897 -0.2401924 -0.43939283 0.31497332 -0.013516922 0.026097042 -0.54664016 0.6903957 0.43075553 -0.1570954 0.08180188 0.07495475 0.025976984 -0.033858903 0.44886807 0.36933097 0.5502374 0.42267558 0.2497964 0.12084278 -0.0021160357 -0.33019823 -0.24893484 -0.255439 0.51237434 -0.587231 0.057139777 -0.14214307 -0.461191 -0.19330156 -0.36167485 0.19801103 0.1420481 0.09432291 0.19974591 -0.022665406 -0.2384466 0.41857833 -0.044098955 0.02455877 0.12302043 0.2622787 0.016515551 0.26470563 0.08274765 0.22524142 0.5711216 0.002633565 0.1300931 -0.2330306 0.009226704 0.6842751 0.16727248 -0.002251492 0.07031261 -0.17187549 -0.21294977 0.44129893 -0.17429715 0.0016911187 -0.3681648 0.2949244 -0.017911358 -0.11854816 0.009614808 0.13022812 -0.045285795 -0.34284177 -0.48468992 0.15660098 0.5143206 0.005008591 0.12502725 0.24376523 0.19558112 -0.18953761 0.62195307 0.07441736 0.26865545 -0.35115156 0.4648209 0.15732037 0.6493059 -0.48217756 0.17753296 -0.075079985 0.33037618 -0.41976267 0.6424694 -0.12504743 -0.4786326 0.26938736 0.115487024 -0.5239055 -0.082411624 -0.24822733 -0.2660717 0.022701992 -0.4623815 -0.87894887 -0.54484034 -0.23569563 0.17970487 -0.009847454 0.52678686 0.051390756 0.41023907 0.071783595 -0.13209553
twin 0.33750007 -0.027761614 0.13114765 -0.25832358 0.097740665 -0.12798649 0.3856045 0.40282235 -0.14578642 -0.25541076 -0.29798102 0.30777746 0.06324012 -0.38670418 0.028736366 -0.41607842 0.14403042 -0.70333403 -0.054193087 -2.6790862e-05 -0.44064954 0.037139732 0.06452186 0.07721135 -0.34876162 -0.3668144 0.4034947 0.3969532 -0.028604887 0.5475391 -0.2011883 0.043051604 0.15103209 0.080119066 0.4504827 -0.26127228 -0.44675097 -0.49050006 0.10908671 0.39440072 0.0282435 0.15139414 -0.072889976 0.0438813 -0.20660327 -0.18726563 0.05307851 0.051438555 -0.6361409 -0.1170727 -0.23612483 -0.09418181 -0.15501024 0.11572279 -0.34923524 -0.009401897 1.05753 -0.25445914 -0.31977957 0.3679579 0.009348979 -0.07994498 -0.20573711 0.5689462 0.23643322 0.48383152 0.26392114 -0.17213897 -0.49312806 -0.21348017 -0.061814297 0.39930502 0.1390986 -0.009447266 -0.3976905 0.03525297 0.011189282 -0.1618055 -0.005800195 0.14392412 0.070189856 0.1687237 -0.2554072 0.011336324 0.17546743 0.39980263 -0.12836944 -0.49111024 0.29204518 -0.23397532 0.07013988 -0.10049352 -0.18857244 0.2153868 -0.12858224 0.0046465797 0.19712336 0.32052267 0.6173478 -0.0725587 -0.28617656 0.016660195 -0.3401571 0.21262759 -0.14993978 0.007686163 -0.04929132 -0.555478 -0.36110133 -0.4329994 -0.0016399606 -0.08611481 0.026496483 -0.10405937 -0.3506426 0.5355664 -0.59469336 0.61522716 0.11841917 0.03849988 -0.051358327 0.24769522 -0.17775624 -0.16318093 0.4870162 -0.2513288 -0.1880218 0.05810134 0.0760157 -0.52671605 -0.0044232067 0.083291635 -0.3354713 0.21868935 -0.3001796 -0.7081394 0.20404062 0.42229715 0.336049 0.055141523 0.25020346 0.052754186 -0.07700095 -0.041175716 0.013826648 0.04855489 0.4881717 0.113093466 0.010090762 -0.11875879 0.22417413 -0.37311783 0.35858226 0.07224939 -0.22513968 -0.026325012 0.16933677 -0.34045506 -0.13276112 -0.009538469 0.43250886 0.040645182 -0.17032102 0.022668542 -0.4274375 -0.02797111 0.20505327 -0.07338025 0.27409092 -0.2796962 0.12846516 -0.22977394 -0.34193382 -0.2417913 -0.48948386 0.4670331 0.17276272 -0.07948161 -0.17488372 -0.25716013 -0.26356032 -0.28548574 -0.1740176 0.54256344 0.42532662 0.11406332 0.2245485 0.03734341 0.31108266 -0.14328115 0.49123713 0.13875253 -0.34185275 -0.12007535 0.21453506 -0.16188708 -0.39384136 -0.0873971 -0.11227473 -0.11527567
1 -0.0138943475 0.5206719 -0.44798326 -0.123690076 0.36704051 0.057162855 -0.3644454 0.004110671 -0.047554526 -0.41627666 0.0550591 -0.23301406 0.13504273 -0.074569315 -0.05755989 -0.30572793 -0.12450781 0.33136702 0.22913542 -0.27662215 -0.5238399 0.247845 -0.015160897 0.22269614 -0.38498047 -0.5979377 -0.022941 -0.27369478 0.09130867 0.4325798 -0.35519955 -0.08523888 0.09947502 -0.18671012 0.3933229 0.54824275 -0.08986795 -0.36235717 -0.092770636 0.27950513 0.02373574 0.9906024 -0.7151 -0.4729608 0.43908277 0.016570697 0.07678984 0.016818961 -0.49834278 0.013450743 -0.3033025 -0.51968515 -0.21974604 0.12169547 -0.1113533 0.07789522 0.47214115 -0.078266315 -0.17568691 0.1756586 0.37273285 0.3576715 0.0054400368 0.4498374 0.2095265 0.3382213 0.73446405 -0.03711631 -0.33182177 -0.109356426 -0.013963008 -0.26196504 0.051748782 0.064932466 0.0044440995 -0.042830873 0.1112906 -0.36253366 -0.23363863 -0.10129927 0.59338415 -0.068913974 -0.042136867 0.28952682 0.1848148 -0.3209816 -0.053501222 0.37288857 -0.43134013 -0.59787637 -0.22881992 0.02833529 0.076610185 -0.021999426 -0.19820975 0.39384067 0.2045332 0.0039466885 -0.18007357 0.15963031 0.36769688 -0.39602104 0.22813995 -0.31404337 0.720301 -0.11591285 0.260894 -0.031191912 0.040150564 0.057839412 0.046360806 0.36905032 -0.32131886 -0.34521645 -0.30108455 0.0031701513 -0.1720533 -0.16505842 -0.010618275 0.48666692 0.15072371 -0.17347722 -0.04216266 0.08868426 0.37970105 -0.22374637 -0.45513523 -0.05294973 0.29668987 0.1747785 -0.0936869 -0.06549204 -0.14731959 -0.37137276 -0.33676204 0.059877977 0.3054608 0.18507957 -0.35328406 -0.107063785 0.14810663 0.21876287 -0.13108374 0.24815159 -0.10222764 -0.064631194 -0.11683843 -0.4451921 0.6341209 -0.3725646 0.10224262 -0.2913432 0.21271543 -0.33933255 0.06467817 0.010798419 -0.0368294 0.5526384 0.13204347 0.12686372 0.090460725 0.25089163 -0.061940994 0.052948624 -0.38318288 0.35652843 -0.35669786 0.27124897 -0.00818978 0.24399775 0.056966756 -0.014425745 -0.18809746 0.28248474 -0.35359418 0.061774492 -0.1368121 -0.15679774 -0.27411976 0.14181261 -0.08729146 -0.4709449 0.33954793 0.6450995 -0.037473075 0.6238515 0.70997596 0.098471254 0.118715554 -0.2803478 -0.070215896 -0.08243086 -0.29623976 -0.11771402 0.27551112 -0.28751233 -0.15516265 -0.016671779 0.19793087 -0.1668529
superior 0.062405657 -0.3796701 -0.050481826 0.2854721 0.09292231 0.22251831 -0.05818766 0.3610472 -0.16973197 0.40556094 0.20055349 -0.33705726 -0.20372424 -0.6523995 -0.3470774 -0.58787465 -0.10229159 -0.16976874 0.7205543 0.049315654 -0.46252796 0.023299819 0.0076169022 0.11160252 -0.6349453 0.27155423 0.13142298 -0.41743758 -0.08065847 0.84280646 -0.44752598 -0.2431283 0.43204352 -0.029249288 0.46322235 1.0874554 -0.039248824 0.19597208 0.519147 0.13795248 0.2655913 -0.003573942 -0.23797154 0.3410562 0.3867121 -0.17322771 0.11220794 -0.5858696 -0.80747896 0.029266542 -0.25323537 0.17498651 0.1530363 -0.38589212 -0.29339376 -0.23566318 0.51038516 0.15943229 -0.47811696 -0.38844427 0.11896095 -0.08000311 0.31206015 -0.62085944 -0.063212715 0.16868994 -0.085331425 0.13675079 -0.17613819 -0.5299172 -0.109554715 -0.371707 0.2896027 -0.85988533 -0.21905924 -0.4255265 -0.21472168 -0.03441564 0.22837704 -0.41244733 -0.41033393 0.69446534 -0.59255093 -0.10170864 0.11158532 -0.54593116 -0.48239055 -0.18521188 0.28677812 0.4815758 0.093019895 0.19644298 0.039195307 -0.5128852 0.10135302 0.43419838 0.26842144 -0.059118476 -0.31340966 0.25926334 0.3897024 0.06962138 -0.1345929 -0.56046534 -0.52668214 0.11066593 0.4137039 0.19064179 0.19568889 0.14573504 -0.02997174 -0.7448594 0.1805329 -0.15386702 -0.15604769 -0.303461 -0.08508023 0.81604236 -0.054986056 0.14230162 0.20840114 0.16479716 -0.4299559 0.4409406 0.27557224 0.38346162 -0.019238627 0.67202204 -0.35165986 -0.26913577 -0.19471441 -0.25959006 -0.25053746 0.14541583 -0.1698226 -0.86679524 0.6386706 0.020887535 0.09815141 0.06591948 0.06029481 -0.015420251 0.3597643 0.5172707 -0.054131784 0.118746154 0.34338054 0.0815692 0.38758898 0.28872702 -0.24688113 0.1322257 0.14976001 -0.23638833 0.3960998 0.1250293 -0.4308495 0.44753316 -0.124661446 -0.0578537 0.069491975 0.6713369 -0.31099135 -0.33531162 -0.05569897 -0.045680705 0.11448814 -0.08700354 -0.060762048 0.21654928 0.17007829 -0.07176599 -0.174644 -0.3649954 -1.0673829 0.0033460693 -0.28675646 -0.101354904 0.3031465 -0.30652103 -0.04680259 0.20942327 0.01879341 -0.107543744 -0.289897 0.42013916 -0.25054285 0.16723153 0.36624742 0.3068564 0.1949385 -0.3137069 -0.28502825 -0.501992 0.13209924 -0.65885943 0.008523956 0.015548484 0.23254728 -0.313013
king 0.22185299 0.96425414 -0.32492024 -0.5107889 -0.028052488 -0.15192823 -0.33028242 0.26451427 -0.25115183 -0.4358198 -0.100224614 0.0024403962 -0.35847145 -0.15080614 -0.39632833 -0.24345122 0.010872251 0.21355751 -0.14565115 -0.1820006 -0.11201082 0.12134897 -0.26149836 0.4269891 -0.338844 -0.5031941 -0.12728089 -0.10373513 -0.051562198 -0.0019124232 -0.5379016 0.50912255 0.2331928 -0.439279 0.08887128 0.13942099 0.18283549 -0.56970376 -0.0489111 0.14781761 0.4555855 0.7306273 -0.17865886 -0.62430876 0.4836462 0.22528109 -0.32485482 -0.095455684 -0.019908741 0.023200786 -0.18954256 -0.19818541 -0.22203034 0.20050374 0.22044693 -0.2119704 0.50827724 -0.007784438 -0.64793736 0.24645431 0.19542019 0.49954528 0.19868636 0.3197952 0.2987457 0.64888203 0.41830558 -0.034062482 -0.13495879 0.1885177 0.15598741 0.34319592 0.40667593 -0.21708554 0.13002154 -0.8979377 0.58479935 -0.1430926 -0.09164802 0.5729016 0.51172024 0.3121647 -0.13668348 0.47067842 0.3631047 -0.36839378 0.1254035 0.044496905 0.1838441 -0.49923787 -0.15268515 0.2278109 -0.27740163 0.20071994 -0.22315808 -0.14431252 -0.056208685 -0.1288868 0.15149619 -0.16179314 -0.052402124 -0.27458623 -0.19213682 -0.24153158 0.028651236 -0.08040215 0.38190305 0.059986036 0.09704905 0.0010692306 0.43293673 -0.39702213 0.49705833 0.0012195996 -0.14311601 0.40155467 -0.07418389 0.29797968 0.03509793 -0.40262693 0.24951476 -0.53631634 0.33983484 -0.326478 0.61314744 0.035507616 0.015496503 -0.06726001 0.34908438 -0.0710524 -0.033983875 -0.028637195 -0.2528867 -0.2505654 -0.9186622 -0.24563886 0.47520557 0.373408 -0.042796887 0.30656758 0.19240333 0.09927092 0.39241454 0.015259519 0.54759866 -0.04826893 -0.15196674 0.33382487 0.87581676 0.69260424 0.44570255 -0.9489203 -0.33312958 -0.47990963 0.68816715 0.17347483 -0.20399277 0.011922496 0.016706655 -0.037869085 -0.18311068 -0.28441113 0.19966114 -0.19952884 -0.41062552 0.44536686 -0.020270795 0.10678688 0.25828484 -0.14108409 -0.064643465 0.17977938 0.094023265 0.0006402517 -0.14250627 0.34756127 0.14587201 -0.38320982 -0.12267376 0.478199 -0.42898253 -0.20597981 0.15300909 0.25616863 -0.37880638 0.5648246 0.25835672 -0.36950618 -0.21768115 -0.19206516 0.12448917 -0.109545864 0.17115186 -0.35701284 -0.299212 0.3496369 0.29422173 -0.20471916 -0.1773851 -0.3342402
2 0.48093876 0.614249 0.099131756 0.10065091 -0.06807562 -0.25543788 0.02667301 0.27027333 0.15654896 0.46916303 0.25574043 -0.43306378 0.26511788 0.4652275 -0.3509009 -0.10813414 -0.19351889 0.07755868 0.32578683 0.15054774 -0.47049904 0.010362846 0.09107842 0.48157755 -0.38946402 -0.17748179 -0.07880522 -0.44787586 -0.16434456 0.439595 -0.23856606 -0.08385225 -0.27622074 -0.18320589 0.53420717 0.39910534 0.38784567 -0.38542095 0.07128154 0.051307008 0.24041118 0.5153415 0.27523774 0.11353555 -0.059910215 -0.07357668 0.17284968 -0.29806343 0.3660514 -0.18216424 -0.6501011 -0.18208696 0.21107678 -0.33649984 0.36022145 -0.15257025 0.50911295 0.115913235 -0.27825174 0.70022243 0.35125685 0.36960855 0.17511597 0.10227921 -0.10501004 -0.17004773 0.28606114 -0.17527075 -0.26437032 -0.13953628 -0.12583841 0.30382806 0.77308244 0.21397331 0.08404784 -0.6782671 0.3819774 0.064027995 -0.4650066 0.16038123 0.6740342 -0.17523935 -0.2419338 0.060089055 0.3554522 -0.18117005 0.648385 0.26010063 0.022939827 -0.02235574 -0.26915938 -0.276484 0.09207066 0.016312454 -0.061508987 0.20547551 -0.03781177 -0.2828498 -0.60396403 0.29824504 0.22769 0.20605907 0.66005796 -0.5941147 0.20143491 -0.050467473 0.1654301 0.19691527 -0.08445897 0.042847082 -0.14748935 0.08382592 -0.23425604 0.16496365 0.039459277 -0.03366002 -0.7388835 0.58787644 -0.21461113 -0.053497512 0.36144403 -0.26593444 -0.2836232 0.45475337 0.36348435 -0.1518419 0.29835507 0.30844766 -0.28582424 0.14270829 -0.24468279 -0.19762382 0.030132817 -0.065020435 -0.76712155 -1.0106858 0.52949417 0.077971734 -0.3594504 -0.0203319 0.07003161 -0.42315787 0.13556136 0.16759752 -0.07855961 0.12840186 0.18680504 -0.32934317 0.8902644 -0.379718 0.14813903 -0.41567212 -0.21832459 0.07213633 0.48318586 0.046117194 0.013787527 0.15263431 0.3065283 0.37526524 0.04082992 -0.13148242 0.26480547 -0.014563921 -0.30600366 0.4126698 -0.1726037 0.08738916 0.041552093 -0.073129036 -0.108308226 0.10318264 0.0034477862 -0.14048289 -0.38725406 0.16403134 -0.084317714 0.038734466 -0.14140818 0.019188518 -0.015600385 -0.24311055 0.32242247 0.55188966 -0.093924515 0.0032449288 0.390817 0.43273807 0.064542376 -0.38528883 -0.031308055 0.14413549 0.04715461 0.06263185 -0.4215931 0.1195998 0.043496896 0.3013318 -0.07502232 -0.17176309
family 0.27245212 -0.051801737 -0.5584448 0.12748234 0.22878648 -0.1175682 0.64872545 0.837537 -0.2947973 0.6150988 0.022972208 -0.032992132 -0.97672385 0.15551856 -0.35636565 -0.08247254 -0.09963747 -0.8624371 0.27910036 -0.02360275 0.2621844 0.7234058 -0.096088625 0.3229179 0.081668906 0.46855208 -0.04502246 -0.046188664 -0.42754114 0.64445066 0.423055 0.28302345 0.018841252 0.13358837 0.18821996 0.09718813 0.10618965 -0.029609935 -0.32832146 0.16852166 -0.101400286 0.28589645 0.33454877 0.3215193 0.06787662 0.30315334 0.25246516 -0.42063743 0.24925143 -0.003298434 -0.45195466 0.00097631756 -0.3856453 0.113399975 -0.39409718 0.10745363 0.49527627 -0.22109157 -0.28011745 -0.0948694 0.044742364 0.0016060286 0.38549554 -0.12210905 0.6806137 0.0095901545 -0.35227475 0.6253202 -0.15937342 -0.57789785 -0.37901384 -0.49623853 0.5216462 0.00088394724 0.012178781 -0.5174113 -0.5732555 -0.08805122 0.3601486 -0.43843034 -0.014099674 -0.034310225 0.14322639 -0.29715043 -0.043307506 0.037476767 -0.19036704 -0.0062964186 0.043062165 -0.06886876 -0.45319906 -0.4827455 0.44623408 -0.50892925 -0.63135767 -0.0599123 -0.25070134 -0.75370836 -0.084197104 -0.052294806 0.0025116822 0.0886889 0.60587734 0.14025544 -0.044884186 0.15495028 0.17565338 0.07062303 -0.39798674 -0.40125036 -0.5586115 -0.09249936 -0.35979846 -0.16425107 -0.89314276 -0.1676593 -0.37392625 0.06304306 0.19192797 -0.148975 0.26105192 -0.25348675 0.4499111 -0.0037517804 0.1094153 0.17929624 -0.29946327 0.26309007 0.15296176 0.45377952 -0.42819822 -0.054975618 -0.7137781 0.19461021 0.21843633 0.31435496 0.25841743 -0.17503937 -0.17862336 -0.15490286 0.60575736 -0.35397184 0.62442106 0.2431996 0.15291496 -0.21996887 0.32263958 -0.60997486 0.24961755 -0.17170924 -0.33636793 -0.021717403 0.41432226 -0.59633154 -0.26589444 -0.24083664 -0.08531444 -0.043745544 0.042906977 -0.46697578 -0.025929105 -0.24203 0.40713054 0.09323523 -0.5275475 0.5781751 -0.11417465 -0.060028642 0.7230258 0.562273 0.22265859 0.11130569 0.023724351 -0.29461786 -0.15101895 0.26353514 -0.26959622 -0.12424244 -0.3314899 0.13089684 -0.1528954 -0.16489558 -0.084698506 0.098060206 -0.6602219 0.5243173 0.30366513 0.34874567 -0.5936408 -0.3617378 0.20087726 0.44571558 -0.27630827 0.06466366 0.14479256 -0.3207634 -0.07028894 -0.008240555 -0.0022468225 -0.20976248
standard 0.024452142 -0.20429859 -0.03903325 0.61196184 0.099198274 -0.1372589 0.00178349 0.46173787 -0.2560529 0.47667468 0.052448634 0.13319902 -0.14185667 -0.11152984 -0.14020339 0.14892314 0.021820657 -0.7088841 0.20985103 -0.18982816 -0.023846235 -0.31063035 0.044572517 0.36787793 -0.42103294 0.5087773 0.21996798 -0.27241093 0.029438382 -0.08792522 -0.09115691 -0.39619353 0.40691724 0.06409704 0.23736659 1.0306742 0.16004455 -0.45645785 -0.35168147 -0.15655921 -0.37629235 0.25705943 -0.2669673 -0.18248199 0.19591495 -0.21998526 0.3789994 -0.00023701135 -0.4978071 -0.42625964 -0.2515407 0.37576824 0.26655272 0.14540261 -0.22873464 -0.5712797 0.6390192 -0.22673102 0.0012324143 0.06013146 0.021253537 -0.0814829 -0.23036745 -0.39000797 -0.13332014 -0.44937629 0.18462761 0.45919213 -0.08674668 -0.60129905 0.18179719 -0.34439343 0.092353456 0.006124618 -0.17670181 -0.441065 -0.88301754 -0.29227683 0.32990402 0.2277812 0.87200195 -0.41537532 -0.41730455 -0.03146631 -0.4988288 0.03332454 -0.61095506 0.22030653 0.06847052 0.50591725 -0.35601616 0.035241645 -0.20629115 0.040505677 -0.31575364 0.36387023 0.2804116 -0.5299372 -0.59627277 -0.27929315 0.26164466 0.31083393 0.6312484 -0.35835743 0.40117687 0.027949039 0.11357606 -0.0031229588 -0.87185365 -0.11274098 -0.5040924 0.30496058 -0.30179647 -0.5969607 -0.2726704 -0.6424926 -0.18606423 0.43709984 -0.07648644 0.05794513 0.008222413 -0.12078709 -0.14056733 -0.5119452 0.5680854 -0.41585368 -0.22865975 0.6877159 0.053930663 -0.53821284 -0.31940895 0.26461703 0.1098067 -0.3308535 -0.0030159578 -0.19026874 0.1603739 -0.016120207 -0.33217183 -0.29158953 0.14361323 -0.96913767 0.16489741 -0.15131381 -0.0029271804 0.5055457 0.16213745 -0.15564272 0.51335907 -0.09068126 -0.04550308 0.0062748347 0.107121125 0.17045191 0.2215153 -0.024573494 0.3864697 0.30773425 0.3159125 -0.103369474 0.05429871 -0.59371597 -0.29777318 -0.4601646 0.105456755 -0.26288825 -0.24348006 0.010308199 0.15364744 0.7300471 -0.6232109 0.07044978 -0.6454741 -0.23889706 -0.17485432 0.49715087 -0.5760287 0.49688238 0.06906384 0.0021083574 0.12509418 -0.0423833 -0.014947923 0.16878976 -0.2604589 -0.09161773 0.19624685 -0.26945364 0.54526365 -0.24083517 -0.11419171 -0.24045424 -0.32354042 -0.6560006 0.16520248 -0.46199137 0.074492864 0.06846679 0.14769027 -0.65107965
executive 0.391953 0.57558465 -0.1178594 0.18225436 0.4369656 -0.3542677 0.015488842 0.5468298 -0.59503025 -0.19457157 0.22246344 -0.32809818 -0.15583308 -0.6242096 -0.5029089 -0.30667457 0.6363188 -0.3398667 0.37036833 -0.00056029524 0.32869703 0.60228705 0.21770482 0.46881282 0.06843689 -0.24661927 0.14561296 -0.5434962 0.38711774 0.07472023 0.15316188 0.41145253 -0.032794237 -0.29197767 0.271968 0.32539618 0.09281554 0.097687215 -0.028809043 0.089366406 0.5425513 -0.07422551 -0.038542345 0.12982883 0.10421051 0.34066457 0.115382105 -0.6021293 -0.11943685 -0.13431226 -0.17120531 -0.023739295 -0.09647622 0.2271386 -0.58978254 -0.105846204 0.2802389 -0.15943475 0.73569375 0.07147161 -0.03786581 0.4777241 0.19486052 -0.13423865 0.11027329 0.5628924 0.06481679 0.031120183 0.4763781 -0.15810268 0.14465688 -0.10418773 -0.080352694 -0.64475083 0.20216426 -0.28062725 0.040049445 -0.87041956 -0.39845347 -0.06263221 0.5887844 0.39093757 -0.6564003 -0.061478104 -0.4648403 0.33834222 0.018680535 0.04580148 0.83627987 0.29889998 -0.20388977 -0.64814675 -0.32983577 0.34093314 0.123459935 0.11489078 0.00073699065 -0.35145068 0.5548041 0.25433415 0.08969792 -0.3386989 -0.05713493 -0.5950919 0.29088053 -0.26882312 0.01320531 -0.11511494 -0.28624693 0.08765559 -0.59302264 0.17853306 0.3071906 0.12559606 -0.013086964 0.08772807 -0.27266237 0.47917736 0.084839776 -0.20929353 0.06783648 0.09194382 0.07342391 0.19384116 0.5220477 0.013363277 -0.38474825 0.23718472 0.4648175 0.02778936 -0.05220285 -0.1092531 0.089187324 -0.5657072 -0.44916278 0.20676734 -0.025342708 -0.09158074 -0.057497792 -0.009969625 0.49743477 -0.15372822 0.19910528 0.44513017 0.2756788 0.42118278 -0.25109944 -0.031365156 0.4890044 -0.027196813 0.5369672 -0.301016 0.5390725 -0.20134228 0.43115634 -0.21750505 0.18065934 0.026070518 0.19355102 0.012293659 -0.2878712 0.51355225 -0.022932127 -0.11750413 0.30316222 0.49580565 0.15880105 -0.3747628 -0.5036254 0.08144321 0.15176058 -0.43245775 0.06574467 0.22338946 -0.68091154 -0.11274372 0.11047071 0.102714874 -0.014353371 -0.11927781 0.19440106 0.13065402 0.2941422 0.59708226 -0.3341722 1.0375062 0.11366006 -0.4870811 -0.028101245 -0.10476823 -0.19599216 -0.52431643 -0.121696845 0.35520768 -0.16107772 -0.050317876 0.1284122 -0.22799459 0.0120158205 -0.12664291
city 0.030933172 0.5177952 0.0031155692 0.19782947 -0.08513806 0.26210093 0.7818356 0.026208099 -0.48253778 0.5832462 -0.035536915 0.21670204 0.5955267 -0.03960502 0.112465575 -0.35630673 -0.17120945 -0.029640786 -0.10705361 0.014934385 0.008155275 -0.1624813 0.9183203 0.25280958 0.27613717 -0.20191988 0.31120077 -0.4543111 0.6016767 0.7080418 -0.013234959 0.31435803 0.13131665 -0.14613922 0.33580515 0.9405259 0.18820411 -0.012292564 0.18142325 0.33335048 0.48665097 -0.32552922 -0.17041536 -0.016236858 -0.122748256 0.16241126 -0.39990324 -0.3876131 -0.15093768 -0.51072323 -0.46911475 -0.34554735 -0.036404148 -0.4154149 0.16016212 0.0019134003 0.53219163 -0.10012118 -0.55142677 0.1753567 -0.20806485 -0.41515642 -0.35308942 -0.19599894 0.36867943 -0.01090004 0.43964297 0.057796035 0.3675304 0.105726644 0.2797839 0.061211057 0.24540775 -0.7205483 -0.13897032 -0.30985004 0.013043606 0.02553344 -0.36701778 0.58024985 0.21077515 -0.31170616 -0.59336954 0.1394086 0.2763416 0.20498464 0.3561143 0.0919535 -0.26908574 -0.053425968 0.098496005 0.2799051 -0.20547645 0.21738416 0.13750787 0.11046601 -0.23974536 -0.07734201 -0.4414848 0.34041995 -0.19710001 -0.2882971 0.4886006 -0.45743254 0.1806994 -0.058751732 0.51924443 -0.22467184 0.1565759 -0.37588167 -0.31923816 -0.08946291 -0.33902895 0.17060654 -0.3334223 0.662641 -0.4062556 -0.14206643 -0.023827976 -0.03928839 0.08794685 -0.43076402 -0.3236015 0.37844616 0.2704863 0.4848542 0.19115598 -0.27166483 0.18927282 -0.27726203 0.049929526 0.47530413 0.42821348 -0.2412896 -0.36442176 -0.34425548 0.4160475 -0.69449484 0.3449071 0.62434363 -0.12904482 -0.8196251 0.45177984 -0.37866375 0.031578273 0.044312138 0.08812317 0.11360967 0.81387085 0.21524653 0.5397407 -0.45352355 -0.07541346 0.39848804 -0.37170675 0.28933254 -0.12793413 -0.16704667 -0.12186115 -0.1830042 -0.08269688 -0.50527173 -0.39029968 -0.08425692 -0.3987158 0.3468526 -0.07470553 0.032714076 0.29889798 0.14163396 -0.09556104 0.18263051 -0.19110762 -0.21322073 -0.027250895 0.42506298 -0.005290323 0.09310382 -0.07187891 0.069655426 -0.029646361 -0.5777586 0.5795393 0.65227956 -0.640928 0.09025817 0.2453196 0.055669457 0.06570425 -0.45706156 0.7777824 0.13109909 -0.56566197 -0.25661397 -0.44200385 0.21241237 -0.060504362 0.40620604 -0.7941149 -0.46504527
premier 0.28965062 0.3813832 0.070728704 -0.02166703 -0.009150864 0.078512795 -0.5454462 0.11044183 0.104093604 0.6244467 -0.1361904 0.23793054 0.43340388 0.14640465 0.17887227 -0.566356 0.41903457 -0.28890073 0.4609763 0.13961576 -0.61846024 0.10113973 -0.33221698 0.026511386 -0.3162259 0.22301492 -0.06417548 -0.079994366 0.47929978 0.20773153 0.28916588 -0.065710545 0.09315705 -0.4769203 0.34077483 0.33200878 -0.014527016 -0.3591878 -0.4647067 0.10553237 -0.16111445 -0.10712772 -0.120382205 0.87742186 0.44632915 0.11447881 0.42243126 0.122792795 0.26768714 0.39338773 -0.02248439 0.29573372 0.03242274 0.32887995 -0.6349967 -0.10277161 1.0887139 -0.2556557 0.15075725 -0.48596206 0.17242445 -0.34941635 -0.20551322 0.10352355 0.033330247 0.6097606 0.4994948 0.17911495 -0.48028138 -0.3096483 0.38835698 -0.20924066 0.61560196 -0.2240301 0.17126732 -0.053136352 0.6383148 -0.171308 0.33716553 -0.425634 0.04733193 0.0070938873 -0.6398359 0.6926792 0.021535764 -0.23654848 0.18463533 0.24391387 0.31731877 0.4064021 -0.49650723 -0.4888877 -0.43082654 0.3155006 -0.08139546 -0.06800172 -0.1695236 0.2519038 0.655822 0.5343263 0.084932394 0.1193957 0.48924237 0.34750986 0.043041974 -0.06860694 0.45688874 0.13801405 -0.77045834 -0.3057613 0.4127219 0.2367277 0.5064722 -0.40207356 -0.2035719 -0.286931 -0.265215 0.116020165 -0.21447173 -0.0936136 0.0036318225 0.082569346 -0.048701562 0.16257727 0.531428 -0.03386564 0.35417613 0.07030146 0.08822849 0.15760292 -0.27377 -0.25700456 -0.0072746617 0.17119777 -0.3820853 -0.14295793 0.15051737 -0.46094057 0.29063284 0.76248544 0.30249754 -0.29160002 0.10521376 0.3338276 0.24661648 -0.12593192 -0.16361581 -0.16430521 0.9031198 -0.16268177 0.21020097 -0.26912808 0.5036658 0.4460507 0.34187222 -0.21227162 0.3207502 -0.29777884 -0.067564026 -0.2031813 -0.4052764 0.4364239 0.20945778 -0.27806067 0.14047654 -0.44393912 -0.025451608 -0.096030705 0.18256623 -0.08218229 0.60023934 0.26083952 -0.34026074 -0.033992637 -0.538297 0.6147102 0.25011706 0.33220944 0.03773157 -0.0004689275 0.1694831 -0.5597299 -0.040934432 0.9967345 -0.54735935 0.23063114 0.25559708 0.06497221 0.28555518 -0.69554734 0.19969645 0.15405978 -0.06141072 -0.72366315 -0.60946333 -0.7531009 0.44464195 -0.04646611 -0.19240814 0.023982795
studio 0.019620577 0.28994545 0.24708204 -0.44988868 0.045460336 -0.20998922 0.39606097 0.112424456 -0.24213934 -0.67970496 0.040239345 0.14252156 0.2994274 -0.36019927 0.16431531 0.03500914 0.13592711 0.013789058 0.19383402 0.8359869 -0.24672048 0.44424823 -0.61557424 0.49849695 -0.11016091 -0.5093641 -0.17633508 -0.012919039 0.29358128 -0.19759324 0.3511747 -0.48245847 -0.10157952 -0.41235414 0.07356916 -0.040174145 -0.040999673 -0.0506963 -0.8460107 -0.43106982 0.71543133 0.2819198 0.40451255 0.29618025 -0.13945748 -0.17235024 0.10435868 0.014781676 -0.045398224 0.24452776 0.19569494 -0.2938203 0.120430015 0.30920964 -0.23486349 -0.44315657 0.919213 0.17985998 0.3674124 -0.26714036 0.32121617 0.10286283 -0.53259754 0.06300651 0.0130857555 0.4763491 0.2878195 0.16714929 0.3787217 -0.2551313 0.4475524 -0.2919004 0.5658674 -0.18428606 -0.39735106 -0.290229 -0.09630355 -0.35360485 -0.40345594 -0.1085263 0.8314337 -0.68360054 -1.2452226 0.16333221 -0.23949318 0.03057661 0.28491956 -0.00406641 0.82168186 0.17279129 0.12476495 -0.24363928 -0.44136468 -0.5808979 0.75143623 0.71982175 -0.23685853 -0.48496962 -0.10936792 -0.20329821 -0.18995601 -0.19427313 0.32916874 -0.042158388 0.47812766 0.28418574 -0.5458843 0.049621 -0.14134784 0.8593696 -0.35229388 -0.116481476 0.21839957 0.07804527 -0.19805375 -0.2079227 0.4058453 0.66161865 -0.13779104 0.26867467 -0.26788497 8.3024875e-05 0.29228073 0.59100103 0.29049647 -0.13138378 -0.13582072 -0.5384323 -0.06366994 0.184647 -0.10851031 -0.18982416 -0.28106675 0.3896832 -0.6017958 0.12783027 -0.5390852 0.29613099 0.035546474 0.2003508 -0.56652904 -0.13817276 0.6754987 0.15804076 -0.16960274 0.35853678 -0.4647335 -0.21384366 0.6597264 -0.14137715 0.2031655 -0.38085032 0.116649665 -0.06503463 0.0013326744 0.42483848 -0.14472343 0.4471938 -0.50003594 -0.15253921 0.3418363 0.30980113 -0.121932544 -0.13683206 0.0476441 0.5509858 -0.2984677 0.47526237 0.6956622 0.59546477 0.5673304 -0.13959137 -0.56971025 -0.61644614 -0.7588179 -0.3106846 -0.21145183 0.25453347 0.3156546 0.005112376 -0.07156878 -0.7257655 -0.08147889 0.5507739 -0.1279167 0.4656884 0.7000595 0.028183421 0.51237524 -0.3293605 -0.4181778 -0.24642693 -0.32233825 -0.38288224 0.7451205 -0.78986984 -0.39984846 0.33130166 -0.099811636 -0.5088594
club 0.3874046 0.9143334 -0.71763456 -0.18627237 -0.3243943 -0.37567842 -0.55748796 0.41601783 -0.38046756 -0.091227084 0.3005725 0.22553575 -0.09632282 -0.22174034 0.057425395 -0.49888253 -0.25705218 -1.03993 -0.18552868 0.0039346525 0.057691596 0.41737828 0.081499875 -0.14343001 -0.31461942 -0.17121261 0.20230746 0.13382486 0.38122496 0.07595636 0.04322403 0.12519272 0.11324653 0.4264845 0.115981854 -0.029569503 0.40075156 -0.24865508 -0.7137717 0.19951105 0.17795153 -0.4324845 0.7259935 0.30071163 -0.4066745 0.123107836 -0.3169178 -0.25159752 0.15328237 -0.05705941 -0.17723525 0.096218094 -0.45315498 0.008646292 -0.21282232 -0.1468227 1.0030396 0.09106008 0.545642 -0.61598235 0.1905933 0.5540171 -0.2665396 0.39217097 0.2562439 0.09734129 0.7670654 -0.45949918 0.0037990725 -0.5242496 0.03688594 0.53250355 0.23490688 -0.38016367 0.23851526 -0.47691882 0.06771447 -0.5401808 -0.06555137 -0.12509692 -0.08200958 -0.059403986 -0.65596676 -0.016203793 -0.22808607 -0.22613434 -0.29145166 0.25527394 0.48268273 -0.19110988 0.08733019 0.30395672 -0.20503424 -0.08714836 0.27239224 0.023207724 0.2254585 -0.06554596 0.33030415 -0.12843224 -0.48943004 -0.08380675 0.22527806 0.22235101 -0.48754758 0.3000141 0.29006281 -0.31290781 0.08674128 -0.32670087 -0.051486425 -0.78113234 -0.36518472 -0.053712465 -0.17533778 0.3794047 -0.06542876 0.13813172 -0.29232323 -0.36072356 -0.34837 -0.16762608 -0.1566283 -0.13178669 0.6411404 -0.43541628 0.3379732 -0.5070464 0.050744887 0.04844955 0.12876406 -0.6252012 -0.5008931 -0.40992406 -0.33617592 0.5324964 -0.25945714 -0.6680984 0.39277804 0.06616161 0.2089323 -0.46901128 -0.50148296 0.2495491 -0.5280262 -0.25585085 0.034361944 -0.20616212 0.7393785 -0.4245222 -0.27290186 -0.42293477 0.4542278 0.13524786 -0.34667566 0.52373606 0.23560433 -0.06480107 -0.40754566 0.16020481 -0.49967822 0.23637708 -0.4076704 0.2066897 0.0885047 0.29002413 -0.369757 -0.071346045 -0.15662658 -0.2312259 0.32887807 0.08153534 -0.4672267 0.45014673 0.16365078 0.6170336 0.45643398 -0.19819936 0.060578067 -0.32248446 0.063832015 -0.87511814 -0.0016290547 0.52199304 0.30889186 0.22631018 -0.033730105 0.5021218 0.49284154 -0.2109242 -0.15973346 -0.6635118 -0.21175505 0.3018338 -0.80759513 -0.23895086 -0.26503304 -0.49118307 0.44045046 -0.21411005
window 0.1643759 0.54217404 -0.20703168 -0.87985635 0.35980445 -0.22666758 0.48577398 0.14038248 -0.08945139 0.42589244 0.5808632 -0.20031157 -0.24262276 -0.15390988 0.587061 -0.51646775 0.07899202 -0.40579045 -0.21490906 0.027362345 -0.010610689 0.31622455 0.2868199 -0.36769924 -0.7444829 -0.049291976 -0.23688479 0.5581852 -0.19060542 1.1181632 0.40484527 -0.4639861 0.07793591 -0.31770205 0.16056338 -0.08624111 0.45384103 -0.9063437 0.21975878 -0.4336242 0.26466095 0.58107466 0.42519078 0.35602355 0.6046661 0.28778222 0.36572713 -0.9459344 -0.31043375 0.26603508 -0.6044568 0.16132487 -0.39579812 0.03227169 -0.30535704 -0.15942062 0.51966196 0.29640475 -0.2846494 -0.10051446 0.37930518 0.25801596 0.028030036 -0.19224612 0.6392208 -0.42727032 0.33733302 -0.19707781 -0.14922644 0.2614199 -0.08687753 0.9521447 0.25409743 -0.3429589 -0.32067734 -0.31999433 -0.87904894 0.28623277 0.30828866 0.5352214 0.032620303 -0.36149317 -0.6473994 0.2299521 -0.00068696355 -0.539097 -0.2263899 -0.12129067 -0.0632797 -0.031985313 -0.3955292 0.09243527 -0.17503718 -0.4043558 -0.32956606 0.18958415 0.24155654 -0.6452567 -0.15504959 0.046127368 0.84548706 0.69243634 0.3053491 -0.40298328 0.4411219 0.078490905 0.023102911 -0.42457396 0.3768606 -0.0019415227 -0.06927791 0.2266037 0.25533843 -0.06093942 0.050907973 0.21054822 -0.050776407 0.35753933 0.2949402 0.31153736 -0.18954234 -0.23503515 -0.06143666 0.1701908 -0.1403759 -0.24530853 0.5901932 -0.27147457 0.004165856 -0.21321286 0.38777685 0.2685323 0.14806484 0.36085403 -0.12300611 -0.12820299 0.25854743 0.13364406 0.0717647 -0.035532504 -0.12142341 0.113314204 -0.70468694 -0.39123705 -0.31854796 -0.73598576 -0.54870474 0.096697934 -0.25459918 -0.37327993 -0.09972217 -0.035272166 0.027845688 0.27315342 -0.23488481 -0.11341079 -0.07120578 0.4065885 0.21505247 -0.12623589 0.27567425 -0.16436936 0.14250207 -0.026838046 0.09196251 0.4158488 0.3336942 -0.36940196 0.18429805 0.20934209 0.6455029 0.15335976 -0.57057816 -0.5834874 -0.30856326 0.46626955 -0.31700042 -0.22538236 0.30729297 0.19806664 0.3291321 -0.64131486 -0.29054224 -0.47184032 -0.54810023 -0.38454455 0.07159168 0.12434699 0.030136965 -0.5072644 0.21901086 -0.39364386 -0.18270352 -0.35303235 0.15651387 0.07869628 -0.5260781 -0.60725844 0.47586578 -0.23094259
queen 0.23604734 0.542268 -0.59965754 -0.36776048 -0.0881783 -0.46571308 -0.0016068789 0.09548058 -0.52632916 0.10005035 0.16742769 0.04180736 0.21867852 0.06873715 -0.057971682 -0.6606978 -0.3491762 -0.56866366 0.07209381 -0.051122893 -0.108547434 0.12290894 -0.49734566 0.13353397 0.15015367 -0.909996 -0.32234758 -0.03817268 -0.6069083 0.35710415 -0.15686366 -0.24372505 0.44841397 -0.5286349 0.032700956 0.1632149 0.47811204 -0.5371613 -0.74490124 0.5853882 -0.4135008 0.36132762 -0.07753743 -0.3620315 -0.010033925 -0.15545137 -0.4103213 0.17533037 -0.3115217 0.09844832 -0.0013340655 -0.24798135 -0.14896077 -0.35077444 -0.048674725 -0.32816464 0.6425009 -0.19326733 -0.70643085 0.41700235 0.56545293 0.88141745 0.42299703 -0.39380398 -0.046537347 0.39666334 0.39088422 -0.2346952 -0.17165558 -0.049377833 -0.052825343 0.14520147 0.72043484 0.15802886 -0.61058944 -0.7380478 -0.5126333 -0.45852032 0.19022655 0.15495726 0.80002695 0.28349295 -0.15690725 -0.4764511 -0.071259335 -0.6199679 -0.25749892 -0.12008902 0.12458353 -0.6356802 0.15020922 0.077546574 -0.37706393 0.007162985 0.24048035 -0.07878453 -0.009656892 -0.13884722 -0.2578782 0.2609616 0.18284503 -0.18910274 0.47957018 -0.2337569 0.287008 -0.10553295 -0.017598268 0.171978 -0.21456738 -0.41663057 0.4125813 0.40876547 -0.1565281 0.10689189 0.20567101 -0.46370408 0.4817135 0.60391474 -0.32877186 0.01919963 0.33575496 -0.5560428 -0.7536949 -0.62816536 0.28661278 -0.45931283 0.022585284 -0.060202364 0.07359826 -0.046420336 -0.29911193 0.5478007 0.16289327 -0.22994094 0.34854358 -0.15368554 0.00965477 0.84049577 -0.10369178 -0.29766586 0.19195728 -0.23107886 -0.33899698 0.21778518 -0.16960016 0.10652373 -0.09997553 0.23409787 0.415824 0.14048514 0.014249689 -0.19005288 0.10736131 -0.46530235 0.5066569 0.713207 -0.07285492 -0.08138797 -0.4284858 0.30196688 0.24256194 -0.2748947 -0.15802301 -0.54737025 -0.28169125 0.791835 -0.14791626 -0.031392317 0.09491384 0.013294913 -0.056785908 0.40843523 -0.60909647 0.26569635 -0.68430436 0.66671276 -0.2747805 0.5793273 0.43634683 0.4385055 -0.46469244 -0.49640003 0.038602363 0.07854821 -0.35563037 0.09157033 0.10607032 0.021924516 -0.047496952 -0.78091675 0.21262765 -0.28586167 -0.12508778 0.0015751781 -0.09564518 0.031672124 -0.3496017 -0.034547567 0.6100072 -0.7599464
bath -0.18659885 0.6785104 0.011952464 -0.50891775 0.23336898 0.28764334 0.10330019 0.2801656 -0.55077195 -0.16914354 0.73262805 0.040960465 -0.63828915 0.31708214 0.04683069 0.2323866 0.10182332 -0.127126 0.40685633 -0.015291232 0.008604855 0.6024697 -0.39593685 -0.22946134 -0.36804855 -0.09757115 -0.25044602 0.06933185 -0.4199367 0.5499369 -0.057930175 -0.13982363 0.5344347 -0.5411659 -0.18100242 0.5645175 0.3606462 -0.71639216 0.06583208 -0.41089112 -0.28176 -0.018640565 0.52731323 -0.08062164 0.25134632 -0.2336013 0.121372454 -0.6330492 -0.088269465 -0.28354883 -0.29805493 -0.392189 0.02404184 0.35167223 -0.25305408 -0.42352086 0.56407404 -0.41144204 -0.56335354 -0.27573055 -0.32870883 -0.4487647 -0.19753414 -0.044308774 0.11979328 -0.053863246 0.5799503 -0.10523452 -0.57340014 -0.5504548 0.55787635 0.2956022 0.34042007 -0.79329085 -0.16258414 -0.5043111 -0.3839877 -0.21831675 0.072959684 0.31439593 0.52441007 -0.36483875 -0.47030887 -0.004984784 -0.26459962 0.11982801 -0.22940159 -0.043106634 -0.1441557 -0.34746215 0.117692985 0.14486459 0.07484673 -0.48352703 -0.12742335 -0.0247696 0.34290296 -0.59340453 -0.10447675 0.46781114 0.2681936 0.6818619 0.29210317 -0.4458926 -0.07376356 -0.0211295 -0.093713656 -0.34783813 -0.77166265 -0.6472054 -0.092841014 0.19620058 0.1184698 -0.460136 -0.048566002 -0.3575149 -0.31355458 0.69682205 0.039971232 0.092557535 0.058474578 -0.057096858 0.96835124 -0.34845966 -0.04683383 0.2961858 0.13450797 -0.19568528 -0.03436586 -0.40366408 0.1662582 -0.60062927 -0.20361814 0.59307855 -0.56047934 0.3232834 -0.20490795 -0.22545904 -0.033144083 -0.044378247 -0.16708328 -0.17997253 0.2971683 0.17485721 -0.15133485 -0.054228723 -0.30365026 -0.2531517 0.10230256 -0.17016315 -0.114315 -0.39446047 0.073478244 -0.07329374 -0.15047666 0.63380593 0.03411085 -0.36905345 -0.61002934 -0.4218538 -0.27608958 0.011867834 0.41080245 -0.087391526 0.10475675 0.48407134 0.3968931 -0.24894339 0.20375904 -0.08594141 -0.19630443 0.66111505 -0.1605711 -0.317316 -0.8998718 0.43256283 -0.31825846 0.5749559 0.32879528 0.22480781 -0.4101239 -0.174607 -0.049967103 0.010189618 0.4570967 0.31445387 0.732618 0.60308754 -0.17365894 0.13467519 0.39873865 0.013987702 -0.33223054 0.27102178 -0.1488728 -0.19226675 -0.06112017 0.009374774 -0.15747213 -0.88392794
triple 0.41655448 0.21921112 0.22172813 0.23356895 -0.1057161 -0.09153446 0.52616084 -0.004977879 -0.75104433 0.54624134 0.01356231 0.5178879 -0.12669392 -0.36434314 0.07243322 -0.27458978 -0.29368898 -0.8966827 -0.3418329 0.30472937 -0.049843144 0.4548755 -0.18603715 0.14599764 -0.24918471 -0.5458556 0.5645308 -0.46210188 0.29758573 0.6934797 0.53648514 0.35386243 -0.2653294 0.3105538 0.56506664 0.561077 0.12848875 -0.36592832 0.19226646 -0.23492698 -0.088030934 0.3064427 -0.31817722 0.34787154 0.105169326 0.27370673 0.01463801 -0.3319123 -0.9648042 -0.7550682 -0.09059941 0.05709598 -0.22236699 0.17352082 0.013091404 0.17982416 1.0312049 0.013601911 -0.55058026 -0.09845512 0.45889017 -0.2765952 0.36195338 -0.16252495 -0.0694395 0.034034494 -0.16229302 -0.211635 -0.47300836 -0.5541823 0.32943553 0.3264062 -0.10936953 0.050929572 -0.634739 -0.17878391 -0.16332923 0.15591757 0.2470624 0.27312416 0.5837666 -0.16251765 0.27425042 -0.07861972 -0.24100214 -0.15071906 -0.17848063 -0.043004975 0.51831263 -0.10456907 -0.24147445 0.061885197 -0.36243448 -0.1674164 0.07606498 0.29077685 -0.3698203 0.03347477 -0.0353478 0.72021174 -0.19332263 0.10658241 -0.25655347 0.024357729 -0.004204414 -0.13827659 -0.67270666 0.17559123 -0.91827196 -0.43645066 -0.2263859 -0.10072045 -0.17362666 0.36050454 -0.78882587 0.21250428 -0.6319275 0.5748515 0.011025514 0.43748614 -0.44064704 -0.16753505 0.30577856 -0.00659921 0.12071804 0.26631114 -0.30143932 -0.35769483 0.15887496 -0.47130263 -0.81847847 0.35069212 0.20377716 -0.37535128 -0.37589306 -0.08402579 -0.3142143 0.07644005 0.16691701 -0.02112616 -0.3207308 -0.020149723 0.5003733 0.3849881 -0.028211094 -0.293363 0.39557582 0.48722932 0.49671102 0.41292283 -0.17019255 0.16112208 -0.015030812 -0.2536816 -0.31489646 0.71757525 0.257225 0.13110939 0.14563891 -0.10473427 -0.39135346 -0.41376305 -0.2109515 -0.017889282 -0.6947166 0.55266935 -0.24905938 -0.3867504 0.16849256 0.58651173 -0.037366536 -0.4271069 -0.2917838 -0.5069289 -0.055786736 0.5217069 0.14421187 0.11925377 0.36605725 0.4974169 0.032430805 -0.8592917 -0.050968308 0.7776607 0.052152697 0.085804984 0.24331841 0.47660252 -0.016309077 0.61550957 0.28821585 0.38090497 -0.7840706 -0.122086756 -0.31432948 -0.037246343 -0.30391246 0.017718825 -0.2282122 -0.8522369
balcony 0.3689991 0.37516335 0.0621487 -0.037121367 -0.06942632 -0.20741422 0.18401465 0.5612584 -0.2946769 0.2478526 0.84182346 0.015841763 0.24297166 -0.35290614 -0.14337416 0.03406488 0.27285364 -0.6736187 -0.37531218 0.5653633 -0.07274735 0.1435737 -0.012694069 -0.12897763 -0.19762169 -0.5489293 0.38747817 0.2862144 0.57994705 0.57197225 0.021583539 0.14934199 0.6659267 -0.6160959 -0.54333556 0.3171567 0.18599668 -0.36952692 0.44174847 0.2713683 -0.06452971 0.39526728 0.04240683 -0.14025976 0.16822691 0.10571892 -0.22866732 -0.41291797 0.05087225 0.62703633 0.033752725 -0.07117638 0.34882647 -0.3636834 -0.004637592 -0.8552237 0.17183152 0.36071908 -0.6942142 -0.37446725 0.40792418 0.1794902 0.16452697 -0.21170694 0.6066239 0.39539197 0.5271105 0.07021195 -0.152508 -0.5532644 0.036544327 0.4191253 0.38045776 -0.046687316 0.10565499 -0.39662695 0.28500164 0.11160183 0.6059266 0.39768383 0.8792852 0.11896496 -0.067398876 0.16162351 -0.20016241 -0.6842663 -0.45648602 -0.3534376 -0.18854162 -0.12324807 -0.09211653 0.12207841 -0.45034698 0.17028986 0.35302472 -0.1780322 -0.15643679 -0.2603447 0.6688694 0.4048897 -0.013376328 0.5342135 0.14401646 -0.276857 -0.42538887 0.10728331 0.67176515 -0.015307791 -0.23888165 -0.032253567 0.10757775 0.06028548 0.25391984 -0.17769536 -0.5405885 -0.26341248 -0.019878857 0.08233471 0.28465968 -0.23552504 0.15811643 -0.56778806 0.03929353 0.041912083 0.51344705 0.81123364 0.17868622 -0.05931456 0.36135614 -0.06720253 0.1812984 0.015747178 -0.52134037 0.025122207 0.15303892 0.293057 0.6675383 -0.06616822 -0.3481971 0.5135277 0.10833674 -0.4896366 0.2986049 -0.16195501 0.11305673 -0.16086715 -0.10615251 0.53537345 0.28493336 0.40474305 0.08334593 -0.24972077 0.20280196 0.6129525 -0.18098299 -0.31355196 -0.23949757 -0.21404111 -0.2707836 -0.00476059 -0.4543791 -0.2977485 -0.044166908 -0.21117374 -0.11737166 0.8582008 0.3319647 -0.09734877 -0.18345678 -0.4655476 -0.02308464 0.13315538 -0.13005833 0.5766446 -0.23596533 0.6471409 -0.28519493 -0.004958275 -0.02849231 0.002462553 -0.43937877 -0.5629123 -0.14022397 0.7145659 -0.14172995 0.13506557 -0.29458418 0.14151943 0.45068535 0.5555348 0.45032138 0.011695371 -1.2711881 0.5215887 -0.24268055 0.18555397 0.0019543925 -0.12330712 -0.4560557 -0.1797782
shared 0.49717164 0.2747595 -0.16258122 -0.12636414 0.4879235 0.117169045 0.07718527 0.08316892 -0.24036784 -0.005760713 0.9783388 -0.08429152 -0.615714 0.31405073 0.016083984 -0.10983061 0.064986445 -0.17789865 0.8518013 0.19740875 -0.19601393 0.20781565 0.45775235 0.28619626 -0.46963176 -0.31242535 0.063612714 -0.4268967 -0.190703 0.47298485 -0.004326953 0.0819087 0.21217738 -0.54230976 -0.06074162 0.5528246 0.15205504 -0.5188449 0.05485996 -0.028097615 -0.15874828 -0.10718149 -0.073090516 -0.4998943 0.02106434 -0.042136285 0.013762011 -0.8548321 0.042305008 -0.13244016 -0.35141206 -0.50420994 -0.20643567 -0.0253646 0.17185657 0.21950707 0.3436448 -0.092989296 -0.6102584 0.026425334 -0.5542492 0.03698047 0.09510252 -0.14947934 0.22383007 -0.21207769 0.41248482 -0.3079702 -0.122788675 -0.48767903 0.012950755 0.27239394 0.14576891 -0.6075349 -0.6000857 -0.004282859 -0.63259417 -0.26347062 -0.22203912 0.644536 0.14334467 -0.3914729 -0.63045496 -0.38062382 0.23007336 0.09931504 -0.1285662 0.22463699 0.04721586 -0.39512002 0.32525212 0.09664974 -0.2606319 -0.542521 -0.28599524 -0.39264098 0.11961432 -0.37427044 0.10111173 0.437749 0.28166357 0.5931155 0.3925417 -0.5494365 0.07707628 0.14437641 -0.31740654 -0.1117327 -0.1461772 -0.25061825 -0.851826 -0.12285671 0.12190972 -0.24196266 -0.31585693 -0.51037043 -0.41972542 0.6784391 0.23660311 -0.0733582 0.15962462 -0.06367392 0.5375696 -0.3178416 0.044131637 0.40758008 -0.17150225 0.030631289 0.5058636 -0.41866538 -0.25949514 -0.46459627 -0.18174078 0.17562029 -0.68004525 -0.1601686 -0.30353856 0.19623388 0.34796908 -0.4236713 -0.17336537 -0.61938167 0.47841302 0.18351862 -0.13139042 -0.0045053116 -0.3845946 0.024706163 0.52821445 -0.24873024 0.1454613 -0.06867463 -0.48461285 0.21816638 0.22064707 0.16073467 -0.22906661 0.45264298 -0.25825647 -0.526852 -0.05511392 0.21144995 0.5050977 -0.09797728 -0.045508925 0.26296455 0.28944886 -0.12257534 0.21383087 0.12987351 -0.2701058 0.6783799 -0.018930353 0.0024665392 -0.8563924 0.5448946 -0.30762967 0.4477835 -0.24980024 0.38613072 0.16848227 -0.09038636 -0.40409333 -0.011679327 0.5955896 -0.36677775 0.48181403 0.2678166 -0.1791335 0.15899314 0.039268497 -0.19891185 -0.5278578 -0.083290145 0.033725254 -0.04042622 -0.149639 -0.3182188 0.06830527 -0.3731023
grand 0.45401925 0.31946236 -0.3298678 -0.09267644 0.42616114 -0.3039248 -0.04090384 0.11489693 -0.34077644 0.33014786 0.75971353 -0.08843014 -0.21423918 -0.5513732 -0.3207484 -0.48604447 -0.16381828 -0.5922727 -0.022517575 0.12041105 -0.2152787 0.117578894 -0.20755361 0.65834624 -0.45396706 0.47908574 0.7475981 -0.087927245 -0.20815672 -0.3587573 -0.032288745 -0.4510405 -0.08467395 -0.5304234 0.05313557 0.33968252 -0.15970115 -0.6082824 0.07265821 -0.27662817 0.29708654 0.31289843 0.25647703 -0.19046555 0.4238746 -0.49945688 -0.09104116 -0.43840414 -0.009234645 -0.30045053 0.18630056 -0.2946667 -0.18922186 -0.22133994 -0.30157065 0.13254507 0.86925876 -0.032915354 -0.102752075 0.23425537 -0.008194415 1.040813 -0.2004135 -0.06688321 0.6599868 -0.3599743 -0.111990675 0.013269452 -0.15809189 -0.4854229 -0.49774098 0.15482557 0.7028469 -0.14531033 0.18463479 -0.09568178 -0.1621133 0.17360261 0.1454114 -0.16500662 -0.17629357 0.27275214 -0.34824932 0.15597476 0.6115211 -0.040759288 0.12120673 -0.23346366 -0.05183997 0.050686497 -0.5012037 0.2719562 0.06763967 0.062333032 -0.0024486464 -0.21675989 -0.12239288 0.05153642 0.74212766 -0.20483822 -0.012738582 0.3202238 -0.032960843 0.45881072 0.021984397 -0.02909599 0.081841625 0.40735826 0.051267724 0.03596817 -0.46746218 -0.5516888 -0.048346266 -0.15827209 -0.15062706 0.40345645 0.3591303 0.9371746 -0.14523633 -0.054516774 0.21524234 -0.7033622 0.13701768 -0.21758361 0.26995865 0.24309187 -0.20190205 0.5844849 -0.31604242 0.476832 -0.5937257 -0.258179 -0.03718737 -0.2606953 -0.9836696 0.3928375 -0.06365931 -0.041786578 0.19969618 -0.0992177 0.42942932 -0.08590209 0.60935146 0.1622409 -0.29286975 0.033486977 -0.8221596 -0.5606221 0.5412321 0.11348365 0.23126495 -0.366289 0.5972587 -0.2522846 0.16864082 0.62558216 -0.36720094 0.10696403 -0.03156942 0.3773733 -0.42749873 -0.03023681 0.27494276 -0.08744241 -0.0526936 -0.019394137 -0.42178974 -0.09920346 0.17239249 -0.45542434 0.3452559 -0.29338667 0.022287399 0.6952834 0.12333414 0.6680158 -0.030399317 0.16843837 -0.14190054 0.35828614 0.11538628 -0.47188208 0.25577804 0.0222621 -0.64089733 0.30460936 -0.18437624 0.02137865 0.1679089 -0.28344527 0.012569585 -0.59925604 0.010842609 -0.22948469 -0.1092374 -0.28907752 0.33291578 -0.19510433 0.049925454 0.091384456
private 0.23598267 0.7128371 -0.00083172286 -0.04844605 -0.10738953 0.0025028395 -0.14557806 0.01861473 -0.055339735 -0.007560405 0.93503475 0.08935935 -0.016712047 -0.21499774 -0.22668302 -0.046420805 -0.29826194 -0.17524567 0.36034715 -0.042017512 -0.1374005 -0.1290216 -0.27369216 -0.18710387 -0.4125851 -0.4451912 0.030159608 0.056822322 -0.0020934327 -0.23132996 -0.016502941 0.36086708 0.3920227 -0.48924115 -0.09255053 0.288388 0.14200678 -0.6900022 -0.1409657 -0.12701887 -0.2677389 0.5457044 0.19030401 0.6585455 0.57235277 0.45166332 0.051017158 -0.5141098 -0.40262732 -0.10519676 0.04195018 -0.34322977 -0.10529979 0.50883335 -0.48384792 -0.60008496 0.427917 -0.5368009 -0.31361872 -0.16915728 0.024692321 -0.14537545 -0.32473066 0.049182557 0.27560803 -0.08919667 0.28037655 0.3230905 -0.20390756 -0.60727704 0.13858697 0.26277682 0.5012574 -0.27348602 0.10883304 -0.4086566 -0.7599364 -0.3013799 0.55116135 -0.19497581 0.25451663 -0.25515833 -0.044451173 0.19044873 0.3191435 -0.16203927 0.58972275 -0.23135696 -0.28166157 -0.3014516 0.40412796 -0.19212562 0.36291662 -0.52565515 -0.41713175 -0.36832207 -0.08427944 -0.39071956 0.26661783 0.5586024 0.16266699 0.57376647 0.18932441 -0.32068628 0.45146126 0.5609149 -0.30324277 -0.4657322 -0.66894084 -0.20145568 -0.32514784 -0.12798765 0.2792223 -0.16862036 0.047538076 0.041707426 -0.11848027 0.25582048 -0.044854537 -0.0036405518 -0.19837059 -0.09818069 0.66937196 0.10286906 0.042502794 0.488637 -0.3349842 -0.06340183 0.16265306 -0.50818056 -0.02389169 -0.43772593 -0.14558877 0.33891058 -0.5255387 0.38620278 -0.52461743 -0.2797291 -0.027176721 -0.338406 -0.49642056 -0.13788305 0.8226789 -0.36559567 -0.07487696 -0.13552928 -0.33663148 -0.33479735 -0.02294112 -0.11973715 -0.0028985783 -0.36690125 0.17226264 -0.46676725 0.33052528 0.36867934 0.2311971 0.13829836 -0.5597483 -0.45682245 -0.24289483 0.14871567 0.38338548 -0.073912 -0.32453158 0.24611884 0.3489228 0.01679964 0.43527582 0.23109622 0.21975379 0.1820168 0.048885528 -0.70447576 -0.7549699 0.41858152 -0.3018078 0.2539435 -0.039025243 0.20980455 -0.14711165 -0.6451496 -0.2972504 0.22322834 -0.52068645 -0.15947515 0.22933641 0.25305802 -0.21511737 0.31051284 0.055621993 0.007511054 -0.3341148 0.24527763 -0.19342194 -0.44720435 -0.113169216 -0.29332566 0.25159526 -0.87534153
apartment 0.3391327 -0.68522155 -0.09752595 -0.0049110427 0.31054553 -0.18433653 0.31331947 0.738874 0.22400892 0.09377208 0.44519743 -0.2696482 -0.1070134 0.3127987 -0.157585 -0.19566816 -0.19770144 -0.4981425 0.40369603 0.49735105 -0.6810516 0.4173498 -0.71297723 0.73220694 0.18951419 -0.21932931 0.17099524 -0.44537205 -0.24501726 0.0825556 0.061195783 -0.04997576 -0.41694894 -0.45977625 0.29187283 0.38321543 -0.13741073 -0.31273708 -0.46105805 -0.20867105 -0.09682254 1.02493 -0.3257411 0.04869238 0.13063243 0.40561312 -0.11983725 -0.4646394 0.059908524 0.43262264 0.20058419 -0.34730482 -0.2528655 0.29435083 -0.3635351 -0.11371398 0.0780119 0.06551761 -0.27987066 0.03967598 0.42909187 0.5424499 -0.25236046 0.33038884 -0.19174258 -0.030471688 -0.16832593 -0.21936148 0.036814634 -0.37503478 -0.5302082 -0.8293893 0.35987186 -0.23579843 -0.42852294 -0.3348233 -0.14213985 -0.060772564 0.1987397 -0.29091787 0.23340814 0.21039313 -0.24552944 -0.21227443 -0.3081167 -0.3178629 0.16208169 0.67839867 0.41312608 -0.3136851 0.21123129 -0.3385096 0.30507892 -0.6095597 0.066075556 0.029243682 -0.2592498 -0.536295 -0.13403423 0.16939062 -0.103591084 -0.22675413 -0.12676498 -0.39529794 -0.054155834 0.30841434 -0.19063127 0.88279766 -0.013507766 -0.02114649 -0.39744616 0.09568295 -0.2885453 -0.21813625 0.105035484 -0.35939142 0.106860474 -0.31748447 -0.44428748 -0.71638685 0.19415641 -0.42657673 0.9941925 0.204784 -0.11315398 0.7769572 -0.2594727 -0.0033622943 -0.06205318 -0.07390678 -0.49793762 0.1966851 -0.19839501 -0.11598444 -0.2870221 0.2504558 -0.3981661 0.07898224 -0.4080487 0.11411305 0.25535348 -0.2888019 0.75739753 0.43576005 0.062034734 -0.0006247883 -0.33486712 -0.22555801 0.24024904 -0.06550381 -0.0022678692 -0.17010663 0.6456997 -0.33919567 -0.13245377 0.3048723 -0.35126105 -0.28707305 -0.13503358 -0.13354665 -0.22229254 -0.17408162 0.47965455 0.097714186 -0.35241726 0.541971 -0.3118469 0.1296274 0.91441727 0.1997798 0.08857487 0.19561562 -0.3323385 -0.719764 -0.58067536 -0.039857745 -0.034618974 0.6440608 -0.17132515 0.5616132 -0.4393775 0.07194712 0.5756846 0.091062605 -0.7094323 0.18816632 0.67211735 0.36711884 -0.20902593 0.13717714 0.24806659 0.054193437 -0.10172043 -0.6703767 -0.11740825 -0.6271136 0.20866154 0.50694966 -0.24971962 -0.15290917
dormitory 0.3610676 0.7407833 0.03219478 0.010339648 0.29648176 0.19361167 -0.2872884 0.46156302 -0.036392625 0.06747728 0.19413097 -0.6383145 -0.113687776 0.3309504 -0.012818978 -0.4772369 -0.6859055 -0.12941402 0.74618787 -0.30717754 0.02270328 0.36403865 0.5238113 0.548246 -0.56760675 -0.16905448 0.0834107 -0.03528984 -0.2225793 0.3594303 -0.08472625 -0.050866406 0.059227932 -0.5221107 0.030442517 0.35076267 0.3388087 -0.65310985 -0.0073394435 -0.34449425 -0.23204283 -0.21883251 -0.033182498 -0.28548968 -0.15486905 0.1313474 -0.22690375 -0.18375596 -0.17223836 -0.61816496 -0.29935458 -0.2776559 -0.38243282 -0.10162794 0.26887286 -0.44990817 0.78076065 -0.15969558 -0.24688657 -0.45269936 -0.09766609 -0.32517308 0.3494542 -0.21294545 0.09291516 0.04494499 0.35095233 -0.17657919 -0.18333952 -0.27638432 0.059394598 0.0053182775 0.36757326 -0.47413975 -0.2319187 -0.10770145 -0.49874544 -0.15733156 0.03185599 0.22054525 0.28153607 -0.47289804 0.079245456 -0.59994507 0.03783213 -0.024915362 0.5335909 0.41399693 0.5649953 0.008388675 0.61787766 -0.09018044 -0.41234353 -0.3908462 0.2084493 -0.21898758 -0.26854315 -0.14902475 -0.3234271 -0.04013442 -0.037854094 0.11133893 0.5333861 -0.60792893 0.21539667 0.029278276 -0.63596225 0.30095053 -0.7388394 -0.15381557 -0.71745956 -0.12615333 0.19891652 -0.13243309 0.26132688 -0.24630548 -0.07370827 0.44091934 0.29554033 0.25329107 -0.11403777 -0.08910044 0.5198068 -0.13408828 -0.15001534 -0.1864187 -0.468275 -0.43284708 0.5128545 0.07904223 0.015836922 -0.70260733 -0.10981308 -0.18724313 -0.8526365 -0.107373185 -0.4177677 0.21053475 0.45255753 0.22071373 -0.15495989 -0.48490995 0.40451482 0.51952446 -0.29795015 -0.27973616 -0.32677144 -0.051144104 0.7660434 -0.66903883 -0.30735618 -0.9495 -0.12923351 0.043994483 -0.115806796 0.63063896 -0.32939526 0.8998186 -0.71926683 -0.36560038 -0.14908132 -0.118533686 -0.21097854 0.04614558 -0.22513346 0.26964033 0.1748395 -0.28290752 0.16925353 0.384865 0.20309661 0.53272915 -0.55825114 -0.66470087 -0.7638763 0.72383606 -0.22727239 0.6302586 -0.5783324 0.4393412 -0.17979784 -0.060954686 -0.23279215 0.30740622 0.04223417 -0.10656863 0.6005981 0.2277578 0.18167423 -0.06484795 0.6049243 0.30306846 0.35190663 -0.048921283 -0.06436114 0.03667879 -0.20406769 -0.4231652 -0.05002003 -0.8454705
single 0.4306533 0.5269339 -0.38896254 -0.48216975 0.75690615 0.11092784 0.06605794 0.13005899 0.25103885 0.2114141 -0.009468306 -0.38382328 0.28507382 0.05325252 0.52981925 0.053503837 -0.086342536 0.08654474 0.24840853 -0.15029202 -0.07202592 0.34143257 -0.35151583 0.6689218 -0.25105366 -0.005834487 -0.096279256 -0.31685573 -0.21684253 0.35565075 -0.35480723 0.109911785 0.22018361 -1.2637335 0.23576239 0.641714 0.7271642 -0.6852032 -0.494358 0.31778824 0.35566822 0.8770419 0.14731452 -0.15865092 0.08255475 -0.14745428 0.17257121 0.008809862 0.10035541 -0.35741043 -0.21841073 -0.41553536 -0.27036238 0.3337808 -0.1677997 -0.26132724 0.55958706 -0.015875785 -0.643132 0.13592426 0.29033497 0.19574867 0.32043833 -0.24502672 0.19447653 0.7808041 0.23790795 -0.27523392 -0.3804699 -0.03947189 -0.32792568 0.3000072 0.5698573 0.038495366 -0.3704545 -0.6071908 -0.23090434 -0.48245654 -0.12016108 0.40347713 0.5558341 -0.258193 -0.34342936 -0.026609704 0.19429997 -0.45214406 0.20766446 0.22844785 -0.15374292 -0.30014905 -0.1621143 -0.39414692 -0.22647822 -0.24744354 -0.0021000404 -0.14264207 0.09232852 -0.44906652 -0.055166546 0.04842916 -0.11188589 -0.000195153 0.15915293 -0.9011112 0.10615898 0.45748293 -0.1784016 0.26002404 0.33802095 0.06376766 0.2915722 0.4198859 0.010000898 -0.1701288 -0.47997117 -0.113575295 0.054581963 -0.0076368996 0.64526415 0.22954623 0.11630043 -0.8074887 -0.31360736 -0.3763455 0.35727733 -0.1758108 -0.43596455 -0.01608503 0.116840266 0.14542781 -0.19496001 0.30954862 -0.43073332 0.41757894 -0.4607878 -0.49372658 0.33464482 0.6574419 0.30402678 -0.3009937 -0.19367236 -0.014966705 0.15640903 0.21133994 -0.067755565 0.31251076 -0.05099667 0.0051666936 0.89940095 -0.11799654 -0.08895264 -0.6744441 -0.037195746 -0.37699348 0.5180902 0.42288184 -0.48627812 -0.07673863 -0.42922083 0.2390095 0.08870319 -0.11069839 0.15138496 -0.087771714 -0.011786275 0.08244456 -0.23093536 -0.38859716 0.88978994 -0.22255012 0.18493344 0.4970529 -0.7898128 -0.18547948 -0.39722827 0.1716701 -0.3715534 -0.44697627 -0.1291709 0.5236248 -0.51089156 0.25931162 0.12070021 0.43443483 -0.41293284 0.010192907 0.27838406 -0.044043455 0.12409232 -0.1306333 0.21144007 -0.105382554 -0.15296096 -0.37586805 -0.6324141 -0.090252236 -0.10458538 0.27050722 0.31103212 -0.082050264
premium 0.55148154 0.2130152 -0.46220016 0.09626736 0.042978164 -0.19580483 -0.58181745 0.2715251 -0.2501934 0.5681014 0.36488828 -0.19063592 0.06679673 0.11475944 -0.611467 0.51342094 -0.42317304 0.21753564 0.25169572 0.7370121 0.14017925 0.08367231 -0.39814135 0.1385482 -0.7323869 -0.15974963 0.994361 -0.44424322 0.2534851 0.06353041 -0.18824908 -0.07388175 -0.024969576 -0.7686502 -0.032255452 0.43147454 -0.3772266 -0.7092471 -0.16988507 0.43581486 0.14627667 0.27625066 0.5295637 0.10244574 0.27203536 -0.24804857 -0.2145135 -0.2622641 0.08768132 -0.15860344 0.21074203 -0.52998114 0.33894667 0.6703823 -0.5439053 -0.14198945 0.71843654 -0.13077739 0.33176583 0.3903281 -0.17844898 -0.0015732545 -0.8338971 0.3768742 0.18018334 0.37722406 0.18425113 -0.14333664 -0.15767539 0.32220897 -0.15145005 -0.14476475 0.82660204 -0.45157737 0.16109596 -0.39100268 -0.44326928 -0.051360566 -0.002084476 -0.13734545 0.6293192 0.02238639 0.04623147 0.48668453 0.13817051 0.3033468 -0.10362032 -0.23239547 0.09118766 -0.43624508 -0.45152575 0.5560967 0.4635248 -0.10153042 0.12676679 -0.006760887 0.28660992 -0.08618807 -0.25112563 0.12292534 0.61188567 0.014959874 0.500274 -0.15832698 0.16928807 0.073022045 -0.006512906 0.63015836 -0.61381674 -0.76717496 -0.49925762 -0.15968345 -0.06806838 -0.2828925 -0.4958942 0.30675706 -0.46781194 0.68483573 0.008098679 -0.69042426 0.054375097 -0.37197176 -0.0064856624 -0.35044676 0.4025693 -0.20557563 0.010085294 0.13855015 -0.14491627 0.586382 -0.37787604 -0.17198531 -0.015771706 0.29053345 -0.21929589 0.4646909 0.7652734 -0.3698569 0.3420613 0.039021 0.0928291 -0.18402629 0.40650252 0.18699618 -0.14551003 0.66732246 -0.1374231 -0.41126156 0.5301949 0.063245244 -0.13682808 -0.23499876 0.23199691 0.10930114 -0.25457183 0.51309836 -0.1390292 -0.5391138 -0.2405215 0.41150787 -0.19954495 0.2948083 0.3517885 -0.35088083 -0.13650878 0.80897444 -0.42770603 0.16805848 -0.025367683 0.107837036 -0.47804326 0.18270855 -0.07563836 0.40289456 -0.55511445 0.6412053 -0.24258657 0.13492678 0.18636322 -0.025647536 -0.2929154 0.06612187 -0.0372055 0.7170247 -0.5333592 -0.13327812 0.52606434 0.6753615 -0.3368453 0.24489821 -0.023634141 -0.20104766 -0.3731668 -0.42406377 -0.14969061 -0.6466757 -0.40956524 -0.058304556 0.02311623 0.036523394
one 0.36366862 -0.10373839 -0.12257651 -0.031183068 -0.10177276 -0.014332916 0.098760225 -0.024011875 -0.1600149 -0.5223408 0.58596116 0.022896878 0.34845197 0.63680464 -0.5180202 0.17753613 0.26071906 0.12886211 -0.08375673 0.30089176 -0.7700696 0.3119856 -0.11308483 0.083702736 -0.07671715 -0.61078304 0.18623328 -0.006187744 0.14277042 0.58174974 -0.42288986 -0.023391156 0.5405507 0.013929299 0.9390481 0.5805167 -0.3245782 -0.32608044 0.10944185 0.31725466 0.75619906 0.44602463 0.4104666 0.39786413 0.15169388 0.29611638 0.13011461 -0.59043723 0.16629106 0.32406318 0.009363238 -0.472876 -0.27879414 0.16063768 0.13504511 -0.12660213 1.0170664 0.55395055 -0.19947477 0.017139506 -0.303556 -0.014486203 -0.26134443 0.2768878 0.24259219 -0.19411843 0.09691238 -0.18974468 0.27215672 -0.45140636 -0.38863373 0.044596445 0.21804933 -0.34139526 0.18172055 0.02990885 0.9546567 -0.367026 -0.91707754 -0.38364348 0.822722 0.042430814 -0.88216 0.4104335 -0.3193313 -0.45431796 -0.24503921 -0.93719804 0.6320303 -0.3856719 -0.04461514 0.25515172 0.08400027 -0.23446232 -0.02316183 -0.125648 -0.10859226 -0.46845973 0.1546854 0.05302629 -0.2573017 0.37468687 0.32480112 0.16974819 0.13006705 0.13058172 0.3488888 0.18119131 0.16527839 0.15328947 -0.2943292 -0.119689055 -0.7521478 -0.08177694 -0.22309774 -0.50728863 -0.046935182 0.53866863 0.14677267 0.23153219 0.5826022 -0.12522396 0.43832275 0.37876698 0.12215231 0.24382816 -0.2662819 0.2659761 0.32633072 -0.09311444 -0.040818144 -0.1771776 0.107304394 0.031121092 -0.98836464 0.81888884 0.22968405 -0.6318147 -0.16572139 0.19668013 0.20461991 0.035082515 0.30489376 0.53819263 0.28170556 0.083840236 -0.49734783 -0.095253445 0.4354696 0.11109563 -0.27664122 0.28992888 -0.16911729 0.38792592 -0.046728276 -0.043990925 0.10877581 -0.31510964 0.285672 -0.049637873 -0.100975856 0.4458057 0.8062542 0.024792919 -0.22996084 0.8359697 -0.4434622 0.31891432 0.13509892 0.10035569 -0.060428165 -0.12465698 -0.33486316 0.22011517 0.21536683 -0.17208722 -0.34277818 0.28387818 0.21038796 0.07077274 -0.29868284 -0.79441226 0.17410149 0.30933926 -0.686306 0.1431832 0.6462486 0.092246614 -0.06937355 0.015944676 -0.42765227 -0.24212915 -0.18663184 0.0939838 -0.08646282 -0.4569297 -0.36429048 0.3327546 0.0809383 -0.13162291
4 0.49441954 0.49524516 -0.39663827 0.077397406 0.110329114 -0.14798963 0.07608493 0.0972733 0.10624268 0.18397538 0.58357626 0.16903448 -0.78084624 0.21011567 -0.07585035 0.19959064 0.30284122 -0.15888181 0.5639696 0.42378446 -0.2690238 -0.07333655 -0.123143956 0.19484161 -0.18670647 0.4421204 0.43124652 -0.17723778 -0.009474743 0.4414582 0.0782995 0.07969379 0.04383397 -0.12637204 0.093144 0.13456564 0.5465181 -0.9389 -0.07314929 0.3079026 -0.5342961 0.40258813 0.39776373 -0.41484746 0.08440087 -0.08846025 -0.26041904 -0.4033094 -0.053321816 -0.55830854 -0.2880551 -0.5815318 -0.3235013 -0.4828734 0.10469338 0.3116514 0.8456624 -0.19597574 -0.4173019 0.542009 0.4647513 -0.17371286 0.3317388 0.02666842 0.38487706 -0.3633484 0.41428614 -0.31594428 -0.29950917 -0.2364663 -0.29620674 0.3570287 0.11209969 -0.62180054 -0.2834567 -0.6215099 -0.6628053 -0.37920147 0.27533752 0.35947186 0.6356397 -0.060589205 -0.19305542 -0.48170996 0.16903435 -0.25136706 0.029879795 -0.088341095 0.0392134 -0.5587787 -0.34195855 -0.2259269 0.34118897 -0.6777643 -0.105497696 -0.1965457 -0.0024557845 -0.5795455 -0.22003533 0.39037988 0.3101422 0.5940525 0.42154106 0.18871991 0.08210259 -0.23994365 -0.08560142 0.44354695 -0.33631283 0.0044962224 -0.44021067 0.07519391 0.08094854 0.08870565 0.05348592 -0.0002028444 -0.08214583 0.6802884 0.54141724 0.63284576 0.14471933 0.14452429 0.23147362 0.77614963 -0.026751576 0.21808973 0.095564164 -0.21413 0.024502838 0.19809613 -0.33284685 0.19897547 0.040219545 -0.1041733 -0.19447318 -0.07107629 0.16407277 0.028347244 -0.28489733 -0.34475788 0.24715514 -0.15131615 0.38394904 0.28247812 0.2664401 0.049421366 0.18460979 0.16375381 0.11050158 -0.14059868 -0.33895445 -0.27303153 0.51944673 -0.011815453 -0.17805478 0.45948142 -0.105498336 -0.70851254 0.14039378 0.012622017 -0.15404092 0.120767765 0.16436706 -0.20201631 -0.51129514 1.0065899 0.61638093 -0.6420698 0.35909557 0.21757656 0.16564544 0.11843514 0.016742697 -0.27829722 -0.17243092 0.2660097 0.019062929 0.432609 -0.021446375 -0.009104965 -0.2541473 -0.54449606 -0.07918863 0.085271165 0.23981327 -0.62477195 0.22720927 0.4178249 -0.07919744 -0.26116735 -0.18575922 -0.5233541 0.19034769 -0.34430015 -0.24813624 -0.18713757 0.2522792 0.014696302 0.08031611 0.03727622
smoking 0.025545044 0.7895762 -0.28534693 -0.25085217 -0.278125 -0.24033232 -0.054800075 0.5035483 -0.1362329 0.04397638 1.0856688 -0.4455385 0.39615873 0.44443873 0.19832359 0.089369185 -0.13905276 -0.13686551 0.15610337 0.11644021 -0.8126102 0.22941078 -0.0821666 0.70612735 0.019326389 -0.41069216 0.24062245 -0.30810034 0.31892443 0.39378643 0.40852517 0.5535141 0.20213561 -0.12386896 0.071148105 0.70852697 -0.026129555 -0.7256174 -0.34070867 0.35845974 0.47527295 0.3475244 -0.039211843 -0.19142258 0.2947867 0.42426747 -0.340031 -0.9615291 0.113905676 0.1288441 0.06319916 -0.08996496 -0.50365156 -0.13053775 -0.49830022 -0.031421185 0.47544232 0.051717713 -0.16324995 0.4190411 0.04238182 0.09244767 0.038287375 0.41498628 0.71513224 0.2907396 0.81548333 -0.62053365 -0.4799466 -0.36272386 -0.030114736 -0.20323992 0.13997057 -0.9756706 -0.77014923 -0.5204506 -0.48554796 0.08019998 -0.18428628 0.52583605 0.11807972 -0.20860042 -0.5001729 0.46561563 -0.07595931 -0.1397951 -0.9646105 0.19785826 0.03221895 -0.043365877 0.14284433 0.56242836 -0.050197396 -0.19805165 -0.2207339 0.2992592 -0.251349 -0.33271694 0.73020196 0.37886727 0.34610802 0.5830999 0.5709413 0.059515107 0.18114649 -0.19803405 0.02256024 0.2879914 -0.14078683 -0.26190072 -0.6177082 0.43183506 0.41809502 -0.34103745 -0.08260044 -0.2021721 -0.29580566 0.017645992 -0.1782512 0.42300123 0.29492402 0.19230661 0.9285767 -0.2194912 0.12088241 0.52282137 -0.34995696 0.003794445 0.22962993 -0.29535496 -0.18933581 0.40720177 -0.15596986 -0.10776689 -0.49774095 -0.23427682 0.06277345 -0.062073566 -0.041543107 -0.5882255 0.60661066 -0.32691967 0.1600873 0.23818186 0.70246845 -0.20809598 0.3449348 -0.06910221 0.115550205 0.03261038 0.3187825 -0.14814869 0.24063592 -0.83880484 -0.26694715 0.08748273 -0.49283054 -0.29300302 0.2739554 -0.27310508 -0.49902952 -0.28522542 0.10505174 -0.9216192 -0.14769956 0.5658524 0.037287455 0.12688988 0.25454473 -0.4135125 0.23223186 0.18933228 0.050189815 -0.44840208 -0.9014657 -0.07434799 0.11624379 0.13861476 -0.22009997 0.3035954 -0.3340395 -0.18466133 -0.2797945 0.49566388 0.0310433 0.24792749 0.51141065 -0.0634468 -0.06309624 -0.4265139 0.30803186 -0.224918 -0.4127273 -0.5281359 -0.1472832 -0.061140236 -0.17185004 0.0654503 0.10831969 -0.58172876
junior 0.69404864 0.37425497 -0.19266975 -0.012150262 0.18881188 -0.7288964 0.22413373 0.6367709 0.036234032 0.19120198 0.14104007 -0.45462868 0.114075296 -0.14451404 -0.02854996 -0.04084676 -0.7076091 -0.40151078 -0.31645283 0.08070644 -0.49588478 0.3958544 -0.25069353 0.7716571 -0.22749819 -0.15380928 -0.0708247 -0.23005056 0.42828378 0.34900638 0.4008683 0.036340505 0.19950604 -0.4803616 0.04176246 0.35876858 -0.12098978 -0.23397502 -0.1037921 -0.31950262 0.18408786 0.70729667 -0.29068533 0.5417011 0.21283221 -0.15045895 0.007651858 -0.36832392 -0.3634639 -0.18201192 -0.22931117 0.5757998 0.0958464 -0.26075044 0.03705571 0.048441898 0.6323574 0.26310462 -0.48701292 -0.46310663 0.09232811 0.4874114 -0.2042155 -0.2094938 0.053571865 0.43438056 0.12799245 0.08106412 0.28708404 -0.61963797 0.16204184 0.06291973 0.17853774 -0.081207864 -0.31692234 -0.6496021 0.072178386 -0.24732941 0.15174092 0.16628172 0.5289944 -0.05837712 -0.24984881 0.139574 0.1463387 -0.39963266 -0.43776217 0.22710168 0.9938395 0.40991834 -0.12558345 -0.0065325857 -0.4943101 -0.7272802 0.22387004 -0.0028542322 0.36697307 -0.49906847 -0.104873836 0.13120584 -0.11824731 -0.29669002 -0.41233015 -0.06825809 -0.024157694 -0.25973353 0.22526734 0.4328357 -0.06272062 0.05306662 -0.36484444 -0.32499284 -0.064279854 -0.50296617 -0.44427046 0.27309948 -0.25334334 0.23808661 0.27896845 -0.16061439 -0.16302346 -0.5341737 -0.037827563 -0.37590715 0.7836525 -0.17041123 0.0010296497 0.2514394 0.57242954 0.2547803 -0.44446796 -0.5669146 -0.07662059 -0.3182294 -0.3861437 0.08424832 -0.3174808 0.43380266 -0.36242193 0.42787784 0.15997109 -0.36263233 0.23341861 0.0022964804 -0.12818839 0.18549497 -0.18219641 0.11105187 0.5324324 0.58477694 0.06054708 0.072015375 0.33098596 -0.26045153 0.44357985 -0.039853618 0.4093867 0.054131243 0.20556271 -0.46599635 -0.21828045 0.2946934 0.17087393 0.20711623 0.12503715 0.23742731 0.08919135 0.22915497 0.21303809 0.5519067 0.0184413 0.16438025 -0.11154737 0.5089828 -0.008060268 -0.17771952 -0.17921941 0.17820655 -0.3821182 0.64031345 0.09431506 -0.4721969 0.30095285 0.3097327 -0.37416813 -0.1782897 0.4273433 0.3566331 0.2749556 -0.25993198 0.116999626 -0.06393011 -0.54714626 -0.008762345 0.19602005 0.071728006 -0.3223149 -0.12128846 0.5366681 -0.17290667
garden 0.17758417 0.37611833 -0.14664295 0.31982195 0.048975233 -0.790486 0.3584071 0.101192415 -0.5011015 0.033351056 0.77603155 -0.23792963 0.10875736 -0.15530631 -0.17205736 0.08017083 0.25754845 -0.0055939103 0.66320264 0.5201014 -0.46091932 -0.059780523 -0.123623185 0.05152929 0.043877598 -0.032095365 0.7547676 -0.6790796 0.06861816 0.087468825 -0.46775743 0.5930849 0.45877454 -0.2978428 0.4211224 0.61236143 0.6304131 0.09633581 -0.11560406 0.7558372 0.31783286 0.8407764 -0.33357787 -0.4276975 -0.019751063 0.5428547 -0.24694046 -0.08208457 -0.5779501 0.07160854 0.5998195 -0.6737476 -0.08498952 0.054121464 -0.23685934 -0.46372643 0.480038 0.2009404 0.07689835 0.22949874 -0.26792774 0.5082326 -0.22420694 -0.021695502 0.2174223 0.32594427 0.31867072 -0.0529821 0.30103722 -0.30311957 -0.11439236 -0.09703182 0.24299358 -0.29509944 -0.28542477 0.10860945 -0.2237507 -0.42095432 -0.011812941 0.14772621 0.08777078 0.039436184 -0.69287294 0.6796007 -0.27148664 0.019769704 -0.26515535 -0.19412193 0.52166265 0.2000292 0.34894615 -0.22362316 0.51066464 0.109191224 -0.25648478 -0.5619467 -0.40528828 -0.057676785 0.48403645 0.0041684615 -0.32734764 -0.049874354 -0.16885927 -0.9464177 -0.049029585 0.27461076 -0.13574041 0.6070851 -0.34632456 -0.21890682 -0.8250878 0.3414478 -0.2614254 0.08490388 -0.4101199 -0.040098064 -0.119020574 0.23003197 0.3484745 0.5218293 0.8409769 -0.3575075 -0.31684154 -0.2958288 0.20475009 0.07628571 -0.52837706 0.4016076 0.17201903 -0.3432952 -0.70711803 0.7018221 0.4227655 -0.1930597 -0.5728225 -0.19756892 -0.09512549 0.012369193 0.1574619 0.03487155 0.4599035 -0.6273287 -0.115331404 -0.2533151 -0.009353865 0.009967714 0.052548047 -0.44961166 0.5699192 -0.16381066 -0.10190553 0.10015417 -0.1067695 0.08533629 -0.19500348 0.5414338 -0.050230946 0.44238895 0.07629558 0.50872827 -0.19642155 -0.30283666 0.09359555 -0.46711665 -0.19753051 0.6241163 -0.5258885 -0.42733878 0.11670209 -0.2910727 -0.29058897 0.53351444 -0.53453046 -0.42651564 -0.3540539 0.37298587 -0.1806994 0.06329702 -0.59628326 -0.16988151 0.3787382 0.1912036 -0.4849073 0.74036336 -0.58290946 -0.02493806 -0.0020169567 0.60625124 -0.056733355 -0.16200677 0.17427781 -0.118564636 -0.6136812 0.067150466 0.09971035 -0.07115252 -0.06254525 0.09850585 0.023747792 0.085831314
3 0.58064693 0.16075921 -0.02665921 0.24017316 -0.46444425 0.048759602 0.025774017 0.62724257 0.22240262 0.44356713 0.36977872 -0.6851724 0.017250417 0.36046898 -0.2789958 -0.039839573 -0.28008437 -0.12810878 0.16634928 -0.032784596 -0.5618885 0.22561674 -0.18191004 0.37309027 -0.59601295 -0.21496472 0.15287514 -0.27198285 0.3630492 0.51940376 0.29139808 0.36739302 0.33936903 -0.39343202 0.39316332 0.043419063 0.2195916 -0.40870845 -0.2674784 0.23827897 -0.24268886 0.7562505 0.20859252 0.1481351 0.18862423 0.535109 -0.52571326 -0.65959316 0.5565266 0.24338204 0.0036177153 0.169157 0.51074517 -0.24512252 0.4651708 0.02498148 0.698108 0.07376101 -0.5888897 -0.14236014 0.5602076 0.10249423 0.33380756 0.015555092 0.25538954 -0.19387694 0.2888949 -0.35880637 -0.39249456 -0.70013285 0.43815857 0.43220484 0.19959614 -0.057280447 0.31021327 -0.55809766 0.16341622 0.2720599 -0.13098153 -0.23314655 0.32066295 -0.38959193 0.09232673 0.023087732 0.12142196 -0.47710243 -0.51137507 0.4678545 0.23424996 -0.36600217 -0.22880036 -0.4939009 0.33162275 -0.28354397 0.13948843 -0.23660153 0.2732883 -0.22391923 0.16775644 0.27381557 0.16531594 0.5153389 1.0248203 -0.31125504 0.19074526 0.5788996 0.09412048 0.27730313 -0.11892458 0.36510614 -0.44072422 -0.28999892 0.3281204 -0.040260356 -0.8481396 -0.48980737 -0.13203281 0.2100097 0.32770532 0.005294703 0.28208128 -0.2510535 0.8739994 0.5729724 0.76878226 0.37130967 -0.087938905 -0.4380939 0.12874565 0.24125987 -0.35572726 -0.48266566 -0.17377692 0.2621006 -0.20755266 0.08262804 -0.014410258 -0.64820766 -0.59724915 -0.09514708 -0.04419382 -0.5201735 0.38587132 0.19595526 0.12783863 -0.6952492 -0.19474618 -0.4321312 0.8805032 -0.17591296 -0.50077754 -0.033106994 0.31895956 0.23891221 0.0042695375 0.16903178 -0.044581298 0.5903208 0.017259406 0.43042034 -0.41091928 0.5117587 -0.18424943 -0.22790878 -0.20921545 0.52855825 -0.21037692 -0.15341255 -0.14807285 0.046541344 0.05685661 0.40887085 0.47450122 -0.041337427 -0.005536003 -0.2949365 0.61595076 0.25686184 -0.26964882 0.4675526 -0.19981445 -0.17729671 0.2040767 0.7487806 0.053564217 -0.25655583 0.4913646 0.4721301 0.6761904 -0.17994049 -0.072816275 0.4028463 0.013147722 -0.1194714 -0.022662854 -0.5948264 -0.19221444 -0.09120657 -0.13929673 -0.664516
mixed 0.4762678 0.6222073 -0.6503809 0.4433612 0.34159344 -0.1003558 0.32381687 0.07369262 0.008068984 0.05488454 0.2532257 -0.3756453 -0.5961197 0.19893667 -0.3398919 -0.2088962 -0.21076435 -0.31011173 1.025819 -0.39934403 -0.21832943 -0.09948852 0.39111075 0.06383576 -0.18128885 -0.12662147 -0.31249595 0.4792897 -0.6405911 0.46264118 -0.37881044 0.43742374 0.19707067 -0.71304405 -0.36586684 0.44549003 0.39151525 -0.107184425 -0.11184271 0.7338466 -0.20472418 0.06892943 0.34401932 -0.43244246 0.2276276 -0.3220391 0.19424653 -0.63553554 0.25492567 0.05718081 -0.12993498 -0.3541908 -0.27679202 -0.30601788 0.45064884 -0.020867221 0.72118354 -0.72503674 -0.8500697 -0.15928708 0.17793493 -0.3234078 -0.42407665 0.18331128 0.49112612 -0.057073552 0.42490345 0.18945722 0.11149801 -0.4961673 -0.21400434 -0.1670229 0.7975963 -0.23431833 -0.034823257 -0.30054197 -0.39015266 0.16261494 -0.06491414 0.35548082 0.23130374 -0.4910906 -0.31967634 -0.33588323 0.24055287 0.33736494 0.44851434 0.48482344 -0.0069638863 -0.77027446 0.41767976 -0.04240028 -0.023128463 0.118226685 -0.34478182 -0.15474246 -0.13313988 -0.4328453 -0.08946509 0.058591455 -0.13327089 -0.39219594 0.70022357 -0.6134712 0.14921847 0.10865407 -0.25204906 0.14464319 -0.7394661 -0.3103514 -0.5839616 -0.021661816 -0.43953475 -0.38991067 0.07301114 -0.23327166 -0.13334435 0.25496122 -0.102117345 0.18161087 0.50121343 -0.36958432 0.32079008 -0.040069398 0.124001876 0.11380116 -0.09256312 -0.0706932 0.80106753 0.29183397 0.18702134 -0.7655266 -0.22486316 -0.3807034 -0.9433959 0.29498512 -0.37848786 0.11065601 -0.25966454 0.45043847 0.24752885 -0.80912673 0.82260084 -0.24852218 -0.36003682 -0.0023850456 -0.28713933 -0.21642283 0.7100634 -0.5039484 0.06168726 -0.5125552 0.04722276 0.039550964 0.102725856 0.30183294 -0.20845194 0.33690292 -0.30436355 -0.3737644 0.20326567 0.22883512 0.08631494 0.24615923 -0.35975343 -0.02112825 0.24907355 -0.14224567 0.64351016 0.2124386 0.107971184 0.68812346 -0.08680971 -0.28673446 -0.503897 0.97006404 -0.31468794 0.7680514 -0.702217 -0.11215014 -0.3652519 -0.036467817 -0.12866427 0.28089556 -0.4758772 -0.05684561 0.21322209 0.34303844 -0.24049227 -0.15228587 0.7654012 0.5028787 -0.078689806 -0.14621785 -0.099675335 -0.1845237 0.29133016 -0.24105571 0.036234714 -0.5669076
twindouble 0.1740155 0.56521916 -0.1264248 -0.18623586 -0.066773415 -0.25694156 -0.18607047 0.6093822 -0.60965496 -0.10185763 0.6380703 0.3636892 -0.538726 0.031840906 -0.36515734 -0.88513213 0.09012821 -0.23284383 -0.068129 0.40488002 -0.35530183 0.02053115 -0.47249156 -0.13492265 -0.59301895 -0.43526506 0.8238953 -0.33506224 -0.012185415 0.883641 0.44504464 -0.17431158 -0.14036982 0.3459089 0.53547406 -0.12240384 0.26772293 -0.31639978 -0.4157384 0.2465652 0.32213664 0.14091612 0.55974466 -0.105774224 -0.3120573 0.24779394 -0.19427004 -0.40953234 -0.4346065 0.15903306 0.06527241 0.3015912 0.34325063 1.0882303 0.2742763 -0.9470941 0.69620895 -0.1212029 -0.10941224 -0.14088267 0.74358225 0.532211 0.22457652 0.07322809 -0.0053203795 0.4627848 0.04428523 0.07804796 -0.10101773 -0.15401626 0.8285443 0.12885539 0.2778341 0.15512732 -0.41814625 0.2763375 0.049014248 -0.44994414 0.11728261 0.41788262 0.77076143 0.2354565 -0.13126281 0.12303921 -0.42208245 -0.75009 0.31308356 -0.12141285 0.710123 -0.51053375 0.21091855 -0.38203558 -0.10043186 0.3656322 -0.24669904 -0.14851035 -0.18213543 -0.70999706 0.17534465 0.71343154 -0.52855575 -0.35470092 -0.0988656 -0.69216895 0.13237707 -0.34195057 -0.30250397 -0.049264185 -0.45139685 -0.036730856 -0.0518754 0.23370995 0.26345655 -0.09283673 -0.2968425 -0.07119289 -0.20918596 0.7651818 -0.45188013 -0.5117936 -0.09545429 -0.079813935 0.14863437 0.09434578 0.6994923 0.21910602 -0.21806377 -0.15333991 0.110823326 -0.21874326 0.3262037 0.39375538 0.17819332 -0.07482351 -0.47284755 -0.105126575 -0.6312232 0.45044097 -0.23610127 -0.060769476 0.32235333 0.10103606 0.059717346 0.25722116 -0.23861465 0.07578117 0.058686677 0.26212758 0.5086009 0.032840915 -0.03317426 -1.116006 0.17627493 -0.06837404 -0.045994114 0.7328767 0.026112553 0.037282728 -0.15088934 -0.22517607 0.3762184 -0.045715902 0.13683465 -0.021190828 -0.28260723 0.56532395 -0.29784778 -0.4887281 0.28082505 0.038726125 0.27740642 -0.058738623 0.022206552 -0.074498855 -0.52698886 0.74608 -0.38818926 -0.14350179 0.19223954 0.2881039 -0.26144445 -0.8633764 -0.29063573 1.0239747 -0.44719684 0.32997268 0.5817888 0.19284701 0.50664514 0.19360313 0.121756434 0.30656397 0.01765236 -0.5195289 -0.8142366 -0.4667335 -0.6564448 0.11573527 0.46583694 -0.5404533
two 0.23708017 0.105210505 -0.13884616 0.19172443 0.33088258 0.18207958 0.19454624 0.31021512 -0.034370787 0.09332445 0.6534178 -0.2779413 0.13733752 1.1880503 -0.0678273 -0.06874186 0.16797945 0.1923896 -0.019128777 -0.24845585 -0.43411928 0.3569867 -0.19952963 0.45762706 -0.9174505 0.06706394 0.61798614 0.32998002 -0.075708516 0.8195047 -0.12482668 -0.06275126 0.4896715 -0.15183458 0.058511257 0.7198237 -0.0039176326 -0.64324325 -0.27164626 -0.27257174 -0.39971983 0.54121554 1.0415356 -0.0054364535 -0.47481135 0.24385849 0.21721214 -0.4297392 0.38082144 0.3859272 -0.17071328 -0.70410186 -0.6875541 -0.056315407 -0.14740846 -0.68235517 1.3179953 0.39639744 -0.6877979 0.15889019 0.50750506 -0.52670026 -0.18496865 -0.07326313 0.29043838 0.13122039 -0.271056 0.15746796 0.20076448 -0.439864 -0.27209377 0.59128106 0.5705085 -0.41306615 0.18000227 0.1264599 0.62918836 -0.29365292 -0.22877803 0.03624245 0.58162737 -0.005953211 -0.017950702 -0.053199753 0.16987911 -0.9842191 -0.3224498 -0.45295978 0.26627573 -0.23611045 -0.12305329 -0.12607704 0.26983127 0.20530795 0.19702825 -0.20835201 -0.20654249 -0.8763343 0.15466504 -0.19170272 -0.6321796 0.61125684 0.17225519 0.37161112 0.0016831304 0.5309754 0.1768306 0.08276369 0.49947894 -0.025054522 -0.45389962 0.38352168 -0.04767234 -0.08288831 -0.14010902 -0.24253328 0.058266636 0.22444881 0.29756898 0.3624753 0.2252593 -0.4134118 0.49725366 0.6165053 0.28076065 0.6074201 0.22972229 0.022250375 0.2569721 0.230707 0.092848875 0.026485208 -0.29932398 0.22954412 -0.8961505 -0.13476688 0.24839719 -0.4850533 -0.4391571 -0.018145006 0.48879954 -0.20952961 -0.03968382 0.1485244 -0.069084585 -0.4199963 -0.19787809 -0.3717983 0.15827386 -0.48380753 -0.31406236 -0.15118393 0.58456427 0.47452995 0.13024017 0.21659897 -0.3786959 -0.49636286 -0.5028798 0.4922233 -0.13648291 0.10495325 0.66094774 0.70650893 -0.37080052 0.69771415 0.20828152 0.025010556 0.8050348 -0.11657089 -0.10558184 0.028557552 -0.28375074 0.34456903 0.1656211 -0.27680996 -0.6916143 0.7361899 0.2691382 0.09345129 -0.18170403 -0.681749 0.053700686 0.20026216 -0.97064674 0.12260011 0.5584256 0.45156673 0.52105457 -0.20149785 0.12547459 -0.17939535 0.26768646 0.19149439 -0.5498198 0.0690424 -0.48718733 -0.068818256 0.31295967 0.049439125
river -0.19266462 0.59914774 0.23826209 0.41164002 0.018146997 -0.42924982 -0.009192261 -0.07529693 0.3635472 -0.0048807743 0.46365663 -0.44965604 1.2762256 -0.20451458 -0.032108285 -0.4585712 0.26128435 -0.032571364 -0.3173246 0.16940905 -0.13018845 0.062290553 0.26929772 -0.48701978 -0.6365509 -0.63617563 0.41134903 -0.19567329 0.7909867 0.8704504 -0.17480007 -0.15726992 0.24355477 -0.19496296 0.18453155 0.03757098 0.1482157 -0.5886298 0.11736618 0.44234103 0.5507476 0.720377 0.07533678 0.4553602 -0.24586064 0.45066175 -0.22914836 -0.5446126 0.093665294 0.38182604 0.09175035 -0.7911604 -0.16187184 0.88760746 -0.3875708 -0.24650347 0.42499155 0.23126963 -0.35232225 -0.457911 -0.51731884 -0.3706728 0.19447413 -0.061642006 1.4761169 -0.32961646 0.12246958 -0.06940278 0.52596897 0.06375811 0.038010005 0.484742 0.8312974 -0.5822634 0.24363944 -0.62949574 -0.044196762 0.21789366 -0.5411914 0.047287162 0.33890495 -0.1607957 -0.18501288 0.6570085 -0.2672477 0.21394004 0.32021996 -0.6066444 0.6529216 0.16004613 0.23253931 0.42877486 0.28860116 -0.45368817 -0.30346566 0.038728796 -0.697343 0.100745276 -0.1668696 0.29376683 -0.15126032 0.4269094 0.049244497 0.0079753315 -0.52513397 0.6427032 0.30567175 0.25626272 -0.28074417 -0.43491796 -0.50206506 -0.2965201 0.4268039 0.69021314 -0.5392246 0.010555545 -0.022660464 0.15261492 0.13650335 0.13097163 -0.43000644 -0.76983577 0.12837267 0.3467149 0.021625945 0.0994178 0.107895896 -0.3185222 0.15014133 0.2558156 -0.24376382 -0.03822375 -0.0100101 -0.20042615 -1.1098676 0.8121102 0.24048494 -1.0302736 0.31087777 0.9734283 0.27086356 -0.24016726 0.111182764 -0.41790095 0.27376136 0.09286293 -0.2499713 0.022631261 0.42935655 -0.14811471 -0.17373113 0.21464293 0.26993024 0.41642135 -0.31210056 0.474068 -0.3477951 0.09736053 0.103583634 0.15585211 -0.073786534 0.41728273 -0.14221263 0.10141885 -0.07112649 0.22662064 -0.23533037 0.0981453 0.29718977 -0.2549708 0.24147941 0.41955292 -0.36067754 0.1029054 -0.08273696 0.18897517 0.3784346 -0.41922587 -0.1677928 -0.24054119 -0.38540068 -0.32021213 -0.609374 0.7296297 -0.35108122 -0.47015622 -0.4164114 0.03536722 0.26150322 0.14613324 0.27439123 0.34178942 -0.7711319 0.32308662 -0.50880593 0.031714294 -0.85760087 0.08428872 0.4034529 -0.37900248
wing -0.14969793 0.30788672 -0.25774354 0.29957217 0.44320357 -0.69441503 -0.6059215 0.44053382 -0.13272898 0.37674412 0.62982374 -0.0921613 -0.12665632 0.43751508 -0.09464529 0.17850374 0.41697004 -0.25481316 -0.106061965 0.0122325085 -0.6100267 0.05187192 -0.6114748 -0.3834257 -0.29990658 -0.520364 0.46886793 0.080071785 -0.020088885 0.4079218 0.34453025 -0.035098057 -0.41565958 -0.5483205 0.04414001 -0.3462227 0.3868765 -0.9267721 -0.34756112 0.6738112 -0.06521674 0.8705314 0.39989597 -0.022075139 -0.0016150059 0.3256767 0.056098312 -0.6065114 0.1327939 0.5150834 -0.0005731036 0.04478159 -0.042217676 0.50536484 0.009468606 -0.32559845 0.3205575 -0.47607434 -0.0737671 -0.43916392 -0.20773427 0.19413348 -0.4844891 0.45822904 0.7533851 0.2179993 0.15383017 0.21058485 0.10581863 -0.26978946 0.63702965 0.15160444 1.0035348 0.1338259 -0.82348025 -0.22061147 -0.7185346 0.07989031 -0.6009989 0.59009236 0.5536835 0.17108934 -0.7509515 0.5158199 -0.7030505 0.2219045 -0.42945063 0.034400377 0.6893178 0.42020577 0.13828968 0.29618207 0.17540254 0.009125408 0.1262549 0.56415457 -0.7401477 -0.45298105 0.20480913 -0.332911 -0.4058978 0.31433302 -0.2320229 -0.11212125 -0.28440657 -0.4038125 0.40357524 0.3864218 -0.5494859 -0.6039818 -0.3719158 0.18509176 0.775417 -0.031840783 0.072788395 -0.48770684 0.02620674 0.012392586 0.043894894 -0.12300372 -0.15126702 -0.6765445 0.17105688 -0.72332597 -0.068928406 -0.23325217 0.08853569 0.14951965 0.17493209 0.040119596 -0.09109573 -0.12580587 -0.014116704 -0.6668237 -0.7571852 0.44330564 -0.46450222 -0.40866253 -0.45852217 0.48134318 0.3607021 -0.29179057 -0.1612173 -0.18661465 0.08747141 0.041672513 0.11216057 -0.18192296 0.1529139 -0.7465644 -0.3556639 -0.10064461 0.63673604 0.20003164 -0.6477382 0.5907166 0.25870135 0.266257 0.044735946 -0.50563455 -0.48497555 0.565716 -0.2540118 0.060467366 0.115400136 -0.16109599 -0.69442534 0.19245316 0.1773707 -0.728608 -0.04529627 0.20155771 -0.851906 0.3941054 -0.049190156 0.68525755 -0.1228813 -0.10235997 -0.6265552 -0.12240555 0.17880061 -0.493972 -0.49739692 0.28676757 -0.34392628 -0.1765192 0.090838894 0.5938902 0.8843366 -0.5788318 0.42083457 0.21827765 -0.7848046 -0.7472879 -0.64107865 -0.15978184 -0.6658059 0.03442919 0.24467286 -0.22173585
pool 0.61107653 0.034908954 -0.08028278 0.4086047 -0.13635358 -0.26437536 0.107166804 0.31112152 0.049102217 0.40771466 0.7350551 -0.37373862 0.6145028 0.31202015 -0.017862886 -0.4466069 0.01843373 -0.63546944 -0.4548861 -0.3044652 -0.5540941 0.043113153 -0.4779209 0.4096638 -0.52515084 -0.24053992 0.39220434 0.5660532 0.2855896 0.39165092 -0.40279448 0.14022268 0.83827096 -0.072278336 0.6192136 1.1846956 -0.26206455 -0.48648256 -0.16685222 -0.38084015 -0.04382751 0.43863532 -0.14016408 0.24412854 0.14282493 0.23791067 0.22451428 -0.4846797 -0.5799988 0.08799751 -0.102269456 0.055868775 -0.37130132 0.40007195 -0.6590324 -0.607946 1.0475806 0.2519418 -0.24097987 -0.4008954 0.08288843 0.0089523485 -0.079913326 -0.4675036 0.21490975 0.3342315 0.008018747 -0.4884813 -0.44190112 -0.8448599 -0.29226652 0.04810888 0.42871156 -0.41400433 0.4153797 -0.18649738 0.8308164 0.22051097 0.4158356 -0.21487254 0.07140494 0.047782872 -0.021775283 0.32384816 0.05912519 -0.71213055 -0.8194896 -0.09946951 0.32341775 0.10238889 -0.0647961 0.46498278 0.43698046 0.07784884 -0.13351475 0.019027421 0.100381054 0.018452404 0.3318986 0.5581481 0.15286288 0.708308 0.12017581 0.05597012 -0.018024698 0.20864782 0.63237303 0.4390086 -0.27745122 -0.43295607 -0.339647 -0.02393757 -0.18887205 -0.4772096 -0.09657665 -0.15187192 -0.6190079 0.069897495 -0.60240185 0.31097266 0.008938016 -0.4622999 0.439241 0.06382281 0.6102114 0.12989345 -0.047999535 0.24690552 -0.005901967 -0.57118875 -0.12943172 -0.32597014 -0.04540633 -0.20835198 -0.5553453 0.5100888 0.14636494 -0.60766745 0.4887594 0.4116649 0.22899322 -0.02694425 -0.008267134 0.39712134 0.419174 -0.39774287 -0.30176726 -0.32589874 0.6991762 0.2908845 0.17918453 0.011584721 0.28507352 0.4922873 -0.1051878 0.7699585 -0.073423155 0.20027414 -0.071575314 0.6447652 -0.77526736 -0.20786336 0.1768673 0.0914899 0.16016176 -0.17102252 -0.587852 -0.21366672 0.18019687 -0.20132178 -0.1572725 0.022509784 -0.3318848 0.8053964 -0.09652292 0.4884782 0.28036997 0.23885843 -0.48899198 0.37095246 0.29823217 -0.22288427 -0.39615124 0.93170696 -0.9241104 -0.018712074 0.040412724 -0.22542647 -0.11110635 0.46419114 0.08557157 0.34946972 -0.31867594 0.37987697 -0.3430761 0.11272803 0.073559105 -0.43741527 0.41884285 0.08068441
6 0.6600917 0.3751506 -0.39816707 -0.20004791 -0.17961837 -0.13530758 0.27347654 0.07939012 -0.088483214 -0.13679594 0.58845073 0.014169483 -0.5804364 0.21192802 -0.21870698 0.18441027 0.3326041 0.1502345 0.50998086 0.13296118 -0.6473247 -0.111687824 -0.04156276 0.3777396 0.08178461 0.034095082 0.06413741 0.4509047 -0.38069266 0.44740114 -0.62174684 -0.36699837 0.60066104 -0.42014822 0.4773199 0.3053771 0.17961498 -1.2750056 -0.64790714 0.009159577 -0.24525197 0.58442277 0.36583102 0.077280216 0.31246892 0.028053861 -0.0833342 -0.42299682 -0.43957496 0.018207213 -0.1330099 -0.37542522 -0.21708477 -0.036986124 0.24047147 -0.045614865 0.5327589 -0.49442545 -0.8811068 0.48309314 -0.12826592 0.009992487 0.16939099 0.21063973 0.3486691 -0.46329364 0.65009135 -0.14926742 0.1602674 -0.41352063 -0.13836731 -0.03624687 0.07211871 -0.3947223 -0.15330061 -0.7026915 -0.46549684 -0.7306584 -0.015357536 0.12169335 0.48344532 -0.13492578 -0.32159242 -0.7104486 0.115303874 -0.4321295 0.21073599 -0.3799669 0.21508269 -0.7701176 0.06916632 -0.31114325 0.76365685 -0.6092375 0.28202286 -0.3851903 -0.022880837 -0.486082 0.049458575 0.5752784 0.3904688 0.5368781 -0.14766936 0.0059214584 0.24703982 -0.0982677 -0.22880934 0.5776856 -0.64741486 -0.039842013 -0.18217754 0.3235415 0.10575833 -0.23848587 0.26924953 -0.21488075 0.17052774 0.013721495 0.055858392 0.61652434 -0.01760427 -0.4001631 0.4811769 0.40351933 -0.025417134 0.12765026 -0.28230828 -0.40090984 -0.16314697 -0.06369369 -0.24178281 0.07199795 0.081240475 0.34818524 -0.94690984 -0.16123809 -0.3305196 -0.047213078 -0.46693307 -0.042949125 -0.054163586 -0.094642125 0.6758355 0.2688867 0.14376517 -0.36837843 -0.24752851 0.4647774 0.29892144 -0.28665495 -0.37282658 -0.5339747 0.028920554 0.18761174 0.117437564 1.0285949 0.1574774 -0.4090449 -0.14738496 0.27473143 -0.17011967 -0.16289319 0.07557958 -0.055580784 -0.33547044 0.18460745 0.060668264 -0.821605 0.21939343 0.08179976 -0.026372105 0.27939147 0.105205804 -0.556249 -0.09671467 0.31764156 0.6667939 0.53381145 -0.5495711 0.1538753 -0.63921785 -0.14166354 -0.12515055 0.57549286 -0.019296655 -0.6526898 0.47128785 -0.17656998 -0.65760016 0.38945955 0.1845298 0.20638041 0.33745995 -0.47719717 -0.42792594 0.12729557 -0.10624469 0.08366604 0.22951277 -0.4559454
non 0.41381022 0.45881203 -0.54597336 -0.37287924 -0.3186213 0.105133325 -0.20971759 0.71392006 -0.48533 -0.043086115 0.8366882 -0.2608528 0.35017562 0.15488873 0.37037498 0.29796818 -0.30749136 -0.15995319 0.3795595 -0.061989456 -0.5579987 0.45180646 0.20181867 0.6756915 -0.32268488 -0.17010342 0.05198973 -0.3445037 -0.13881394 0.06038554 0.1660382 0.25452676 0.16494945 0.05644116 0.2343012 0.36787772 0.15605345 -1.05468 -0.4146202 0.1429263 0.022858901 0.27217954 0.4119833 -0.13566408 0.4414153 0.58526367 -0.19702472 -0.6435692 0.34606 -0.014815933 -0.30111498 -0.0147525165 -0.5405754 -0.1669434 -0.13007139 -0.07912848 0.50988084 0.10318385 0.17541237 -0.011840291 0.10448623 0.29629853 -0.22854856 0.20393829 0.4651906 0.39137164 0.7618361 -0.36486948 -0.48172492 -0.3251983 -0.035662167 -0.54178214 -0.15056767 -0.64982784 -0.2392958 -0.19045846 -0.30499598 0.066486865 -0.18308172 0.53428435 -0.3037302 0.17910862 -0.29114386 0.3687591 -0.17844194 -0.34175575 -0.549449 0.33933344 -0.22562914 -0.05203851 -0.10839908 0.27346388 -0.063113384 0.04334715 0.21390644 0.13350525 0.18835708 -0.45102185 0.6164869 0.33249277 0.09495069 0.52748734 0.47807583 -0.12932105 0.1606781 -0.41038892 0.48738995 0.54238886 0.33881563 -0.30003345 -0.5445304 0.6134536 -0.15267979 -0.53566355 0.1869028 0.09458169 0.09544463 -0.13655533 -0.37900758 0.37108597 0.2553233 0.31428263 0.35593316 -0.01060468 0.3353078 0.1907423 -0.185492 0.109659284 0.113587156 -0.30499724 -0.36567965 0.10985662 0.019576179 0.12382791 -0.6909443 0.17017299 -0.30269688 -0.019941166 -0.22658306 -0.3076319 0.11471404 -0.22899099 -0.08362198 0.45516852 0.25090122 -0.14100344 0.12776287 0.23564129 0.5911406 0.14038245 -0.19089067 -0.77853966 -0.012334567 -0.32182348 -0.37484238 0.2915018 -0.3920248 -0.5137109 0.13426973 0.31967106 -0.5331063 -0.2824477 0.09281282 -0.61774415 -0.12958507 0.6010028 -0.52002203 -0.2893906 0.37232178 -0.093229175 0.15389463 -0.19673002 -0.7575067 -0.3425069 -0.5945675 0.06289152 0.49080697 0.15385759 0.10203503 0.5587851 -0.11435419 -0.57279587 -0.032610476 0.9882945 -0.3781976 0.31898275 0.5884655 0.00995337 0.029406384 -0.42378026 0.44789162 -0.17193413 -0.024202554 -0.7180022 -0.4662528 0.21128625 -0.45404053 -0.03537746 0.2758959 0.07855038
luxury 0.44982406 0.37837812 -0.3099548 -0.15157323 0.015676426 -0.5986792 -0.3190107 0.31559083 -0.09462522 0.5333867 0.34406337 -0.4643687 0.50730133 0.022655223 -0.08837703 -0.43470812 0.06545635 0.068337284 0.19380882 -0.016353087 -0.7838575 0.44173592 0.16873093 0.38347533 -1.0772477 0.07700935 0.20320255 -0.15875894 0.4171501 0.38892144 -0.17714049 0.12566572 0.3173902 0.041753832 0.039650127 0.6588034 -0.1795931 -0.32546622 -0.26345417 0.26813182 0.5509945 0.09896528 0.24919644 0.20473588 0.15274602 -0.0037552065 0.3598046 -0.83862275 -0.047543637 0.39596546 0.049254756 -0.015155077 -0.59327316 0.3733833 -0.26039356 -0.32691237 0.9862738 0.39797822 -0.37032345 -0.47407535 0.3116964 -0.3156555 -0.18717007 -0.17556451 0.7250947 0.48341227 0.25042576 0.20181118 0.18012862 -0.19637784 0.36634088 -0.09309693 0.4853834 -0.9115272 -0.313514 -0.17709975 0.21669793 0.05242166 -0.14268997 0.1792876 0.14442992 0.31349832 -0.6426497 0.73352784 0.06768715 -0.6966981 -0.380215 0.26704594 0.57634336 0.42887887 -0.6061613 0.16721892 0.0005969479 0.15229058 -0.07427276 0.39918423 0.0698373 -0.2507765 0.34332588 0.34575546 -0.17757182 -0.1675117 -0.0049821124 -0.24251089 -0.42879638 -0.11476722 0.2883614 0.71252084 0.0026454597 -0.25628576 -0.07892674 -0.04218418 0.05286688 0.10149489 -0.6512227 0.111497685 -0.10468524 0.14917918 0.041351013 0.021074086 0.38229913 -0.34510303 -0.33306378 -0.28249124 0.7955569 -0.19210687 0.32676384 0.07926562 0.58779 0.32613963 -0.1156866 -0.2440984 0.2520697 -0.27145565 -0.79263407 -0.19700381 0.30381677 -0.19228968 -0.10964838 0.38477233 0.7828319 -0.343691 -0.29788896 0.271744 -0.072856985 0.33749688 0.15792765 0.11923044 0.57710105 -0.119461104 -0.15553536 -0.17067373 0.71235555 0.17044617 0.39710325 0.07224712 0.012663191 0.0015119917 0.24252297 0.31891316 -0.33520463 0.61227673 0.13314669 -0.24342915 0.09399119 0.19384512 -0.14402756 0.7210535 0.18562697 -0.2972239 0.105952375 0.14254057 -0.50525343 0.35850537 -0.072779045 0.53443015 -0.4263084 0.392424 -0.13139345 0.18718469 0.16324817 -0.36408603 -0.21515383 0.4586113 -0.9423917 0.25599113 -0.047364395 0.3616601 0.6659059 -0.29981062 0.016168268 -0.1575416 -0.61610955 -0.39609072 -0.6118524 0.027762761 -0.47191095 0.24717058 0.5439537 -0.118635245
tower 0.4688646 1.133888 -0.03256214 -0.14014512 -0.19214357 -0.78364897 -0.2896908 0.60384476 0.11720287 0.42571324 0.4727633 -0.85576725 0.18105744 -0.47502986 0.16472965 -0.35895157 0.26326048 0.16043627 0.51374745 0.16745172 -0.6769242 0.5556814 -0.0022473065 0.27923596 -0.03838808 -0.0039821053 0.60914016 0.015557529 0.60256076 0.82892036 0.05413535 -0.011928278 -0.3771894 -0.59833163 0.16481254 0.38687208 0.90950006 -0.25977996 -0.5245064 0.5290029 0.082622364 0.5269425 0.48615792 0.041440047 -0.42554423 0.38601372 -0.33870792 -0.18777607 0.24028404 0.34095514 0.49084833 0.022569014 -0.24392593 0.22514567 -0.36306733 -0.4601168 0.098264 -0.2352126 -0.44494668 0.21988936 0.30996573 0.33955345 0.36349633 -0.3912355 0.992138 0.6659237 0.45238242 -0.7125474 0.3830009 -0.11401433 0.1350425 0.66025794 0.36937144 -0.34899804 0.06234843 -0.8269696 -0.049905065 -0.37455186 -0.100873016 0.5076145 -0.15157415 0.36741808 -0.45238912 0.4798768 -0.2764506 0.09889799 0.1500318 0.44188043 0.06423812 -0.18755394 -0.27608162 -0.16469313 -0.118898995 0.39739984 0.09809312 -0.10677651 -0.20518412 -0.19142021 0.33920357 0.47950438 0.29890302 -0.040285926 0.26563773 -0.9313144 -0.43971816 0.34646735 0.45373002 0.7808064 0.16412932 0.03681236 -0.52406025 0.37006935 0.27739528 -0.14152561 -0.34281853 0.2016244 -0.47108564 -0.076913066 0.37819922 0.7609212 0.2566688 -0.8446524 -0.02839083 -0.19306193 0.58121806 0.004017312 -0.00024174318 -0.4377948 -0.02538743 0.23275648 0.14436138 0.22071661 -0.09849674 0.004822708 -0.1680047 -0.14792083 0.16295499 -0.1481013 -0.005459816 0.42144445 0.44091293 -0.38783696 -0.20500256 0.25960472 -0.64441836 -0.19576442 0.18053798 -0.06361339 0.7543347 -0.68843156 -0.3137279 -0.43131548 0.76083267 -0.013893342 -0.36245683 0.79236543 0.2958783 -0.002363475 -0.31609136 0.2319213 -0.24374022 -0.30515313 0.121761955 0.20877622 -0.14915964 0.1508066 -0.37549827 -0.59649414 0.11264151 -0.19171278 0.13782123 0.62732404 -0.6355981 -0.07348309 -0.37786177 0.0627581 0.34040043 -0.3840484 -0.8166738 -0.012415268 -0.020443296 0.0057155066 -0.16349821 0.5948922 -0.09907601 0.2501375 -0.2870645 0.3661418 0.6564959 0.00814434 0.59026617 0.14616804 -0.354834 0.54965746 -0.6565079 0.11957036 -0.27808043 0.19978294 0.6249418 0.3669388
